{"learner":{"attributes":{"scikit_learn":"{\"_estimator_type\": \"regressor\"}"},"feature_names":["pm25_lag_1d","pm25_lag_2d","pm25_lag_3d","temperature_2m_mean","precipitation_sum","wind_speed_10m_max","wind_direction_10m_dominant","rain_sum"],"feature_types":["float","float","float","float","float","float","float","float"],"gradient_booster":{"model":{"gbtree_model_param":{"num_parallel_tree":"1","num_trees":"100"},"iteration_indptr":[0,1,2,3,4,5,6,7,8,9,10,11,12,13,14,15,16,17,18,19,20,21,22,23,24,25,26,27,28,29,30,31,32,33,34,35,36,37,38,39,40,41,42,43,44,45,46,47,48,49,50,51,52,53,54,55,56,57,58,59,60,61,62,63,64,65,66,67,68,69,70,71,72,73,74,75,76,77,78,79,80,81,82,83,84,85,86,87,88,89,90,91,92,93,94,95,96,97,98,99,100],"tree_info":[0,0,0,0,0,0,0,0,0,0,0,0,0,0,0,0,0,0,0,0,0,0,0,0,0,0,0,0,0,0,0,0,0,0,0,0,0,0,0,0,0,0,0,0,0,0,0,0,0,0,0,0,0,0,0,0,0,0,0,0,0,0,0,0,0,0,0,0,0,0,0,0,0,0,0,0,0,0,0,0,0,0,0,0,0,0,0,0,0,0,0,0,0,0,0,0,0,0,0,0],"trees":[{"base_weights":[7.2585857E-7,-4.5146537E0,1.0128622E1,-7.76281E0,-2.0034666E0,7.2062144E0,2.3160221E1,-5.6708074E0,-9.40891E0,3.9208692E-1,-4.3610573E0,9.406859E0,2.0079029E0,2.6275545E1,1.1871107E1,-7.007365E0,-4.5381064E0,-1.161449E1,-8.809241E0,-7.213958E-2,9.190983E0,-4.677508E0,1.254365E0,6.6247716E0,1.2450469E1,5.549567E0,-2.1669748E0,2.311528E1,3.5312893E1,2.3807444E1,8.462278E0,-7.3860106E0,-1.7167119E0,-6.4006944E0,-3.5888681E0,-7.917324E0,-3.5940552E0,-5.783631E0,-9.048475E0,-2.1113923E0,1.0260656E0,1.247302E1,5.9387245E0,-2.8417308E0,-5.6465197E0,2.6561818E0,-3.1925569E0,9.188845E0,4.5569344E0,1.484971E1,7.607092E0,4.521601E0,1.21659975E1,6.332732E0,-2.585449E0,2.7071276E1,1.5690424E1,3.2776375E0,3.619311E1,1.0258792E1,7.703517E0,1.0950299E1,-1.8771667E0,-1.1787744E0,-2.3460023E0,1.0956492E0,-1.6395854E0,-1.144661E-1,-2.0342507E0,-1.1343762E0,5.233228E0,-2.866858E0,-1.0779532E0,-2.0024257E0,-1.0382906E0,-1.8257871E0,-2.7908912E0,-8.7208346E-2,-9.566962E-1,5.4004985E-1,-5.077843E-1,2.5442517E0,5.0706496E0,1.9394822E0,-7.667719E-1,-6.7425215E-1,-2.0961637E0,-5.63112E-1,-2.0604393E0,1.4813343E-1,1.6086925E0,-1.3501894E0,1.4832282E0,2.824741E0,-7.7515787E-1,1.7856146E0,-4.4248176E-1,4.6647277E0,2.0081334E0,2.767862E0,1.766103E-1,2.905544E0,9.675785E-1,4.521371E0,5.720469E-1,2.8322813E-1,2.122047E0,-3.433899E-1,-1.520873E0,-9.1677195E-1,8.235807E0,1.8907082E0,6.681406E0,1.6332282E0,1.1038684E1,4.9332285E0,-3.167719E-1,4.330354E0,7.058693E-1,-2.0279531E0,1.7748423E0],"categories":[],"categories_nodes":[],"categories_segments":[],"categories_sizes":[],"default_left":[1,1,0,0,0,0,0,0,0,0,0,0,0,0,0,0,0,0,0,0,0,0,0,0,0,0,0,0,0,0,0,0,0,0,0,0,0,0,0,0,0,0,0,0,0,0,0,0,0,0,0,0,0,0,0,0,0,0,0,0,0,0,0,0,0,0,0,0,0,0,0,0,0,0,0,0,0,0,0,0,0,0,0,0,0,0,0,0,0,0,0,0,0,0,0,0,0,0,0,0,0,0,0,0,0,0,0,0,0,0,0,0,0,0,0,0,0,0,0,0,0],"id":0,"left_children":[1,3,5,7,9,11,13,15,17,19,21,23,25,27,29,31,33,35,37,39,41,43,45,47,49,51,53,55,57,59,61,63,65,67,69,71,-1,73,75,77,79,81,83,85,87,89,91,93,95,97,99,101,103,105,107,109,111,-1,113,115,-1,117,119,-1,-1,-1,-1,-1,-1,-1,-1,-1,-1,-1,-1,-1,-1,-1,-1,-1,-1,-1,-1,-1,-1,-1,-1,-1,-1,-1,-1,-1,-1,-1,-1,-1,-1,-1,-1,-1,-1,-1,-1,-1,-1,-1,-1,-1,-1,-1,-1,-1,-1,-1,-1,-1,-1,-1,-1,-1,-1],"loss_changes":[1.8821325E5,2.3206656E4,4.8161258E4,4.220203E3,9.077619E3,1.1855461E4,7.847336E3,7.993418E2,8.142656E2,3.260238E3,1.4452402E3,6.0903906E3,4.595691E3,4.353172E3,1.9143589E3,4.8814062E2,5.0744092E2,1.0119336E2,3.4504688E2,1.7019603E3,3.528877E2,1.3483613E3,2.827659E2,1.9888281E3,3.9193242E3,1.0876367E3,5.2501086E2,3.5993047E3,5.705586E2,1.5407227E1,1.1009958E3,3.1882617E2,3.8222125E2,2.262251E2,8.7929346E2,7.905023E1,0E0,6.589917E1,3.256328E2,5.209584E2,1.0426855E3,1.926123E2,1.1486401E2,6.4200903E2,2.2941309E3,1.9631133E2,1.3932834E2,4.7855273E2,1.8096216E3,1.2135664E3,1.3241074E3,9.527378E2,6.2697925E2,2.1263702E1,4.845437E2,1.0950977E3,2.948748E3,0E0,5.963047E2,2.2731784E2,0E0,9.845132E2,3.8246204E2,0E0,0E0,0E0,0E0,0E0,0E0,0E0,0E0,0E0,0E0,0E0,0E0,0E0,0E0,0E0,0E0,0E0,0E0,0E0,0E0,0E0,0E0,0E0,0E0,0E0,0E0,0E0,0E0,0E0,0E0,0E0,0E0,0E0,0E0,0E0,0E0,0E0,0E0,0E0,0E0,0E0,0E0,0E0,0E0,0E0,0E0,0E0,0E0,0E0,0E0,0E0,0E0,0E0,0E0,0E0,0E0,0E0,0E0],"parents":[2147483647,0,0,1,1,2,2,3,3,4,4,5,5,6,6,7,7,8,8,9,9,10,10,11,11,12,12,13,13,14,14,15,15,16,16,17,17,18,18,19,19,20,20,21,21,22,22,23,23,24,24,25,25,26,26,27,27,28,28,29,29,30,30,31,31,32,32,33,33,34,34,35,35,37,37,38,38,39,39,40,40,41,41,42,42,43,43,44,44,45,45,46,46,47,47,48,48,49,49,50,50,51,51,52,52,53,53,54,54,55,55,56,56,58,58,59,59,61,61,62,62],"right_children":[2,4,6,8,10,12,14,16,18,20,22,24,26,28,30,32,34,36,38,40,42,44,46,48,50,52,54,56,58,60,62,64,66,68,70,72,-1,74,76,78,80,82,84,86,88,90,92,94,96,98,100,102,104,106,108,110,112,-1,114,116,-1,118,120,-1,-1,-1,-1,-1,-1,-1,-1,-1,-1,-1,-1,-1,-1,-1,-1,-1,-1,-1,-1,-1,-1,-1,-1,-1,-1,-1,-1,-1,-1,-1,-1,-1,-1,-1,-1,-1,-1,-1,-1,-1,-1,-1,-1,-1,-1,-1,-1,-1,-1,-1,-1,-1,-1,-1,-1,-1,-1],"split_conditions":[2.6E1,1.6E1,4.8E1,2.3772433E2,2.1699652E2,2.3386812E2,2.2827838E2,1.3E1,1E1,1.7862E1,1.7447418E1,3.4E1,2.3762726E1,6.1E1,1.3276144E1,1.5841165E1,1.1852999E2,-1.1192502E0,-1.6692499E0,1.9E1,1.2568721E2,2.4204187E2,1.2E0,2.3510508E1,1.4000001E0,4.3E1,-6.786333E0,2.4932438E1,2E1,2E1,3.0085318E1,-1.8046666E0,1.4E1,-4.915084E0,5E1,3.2399998E1,-3.5940552E0,3.3404666E2,1.6434305E1,3.482417E0,3.309651E1,2.23229E1,7.3E0,5.2E0,1.8838184E1,1.8455751E1,3.9E1,2.3246452E2,6.799999E0,5.1E1,4.0271755E1,1.288981E1,4.7E1,2.7E1,2.6257242E2,1.9346422E0,4.9745E0,3.2776375E0,9.983952E0,4.9E1,7.703517E0,2.7412848E2,6.459917E0,-1.1787744E0,-2.3460023E0,1.0956492E0,-1.6395854E0,-1.144661E-1,-2.0342507E0,-1.1343762E0,5.233228E0,-2.866858E0,-1.0779532E0,-2.0024257E0,-1.0382906E0,-1.8257871E0,-2.7908912E0,-8.7208346E-2,-9.566962E-1,5.4004985E-1,-5.077843E-1,2.5442517E0,5.0706496E0,1.9394822E0,-7.667719E-1,-6.7425215E-1,-2.0961637E0,-5.63112E-1,-2.0604393E0,1.4813343E-1,1.6086925E0,-1.3501894E0,1.4832282E0,2.824741E0,-7.7515787E-1,1.7856146E0,-4.4248176E-1,4.6647277E0,2.0081334E0,2.767862E0,1.766103E-1,2.905544E0,9.675785E-1,4.521371E0,5.720469E-1,2.8322813E-1,2.122047E0,-3.433899E-1,-1.520873E0,-9.1677195E-1,8.235807E0,1.8907082E0,6.681406E0,1.6332282E0,1.1038684E1,4.9332285E0,-3.167719E-1,4.330354E0,7.058693E-1,-2.0279531E0,1.7748423E0],"split_indices":[0,0,0,6,6,6,6,0,0,3,3,0,5,0,5,3,6,3,3,0,6,6,4,5,4,0,3,5,1,2,5,3,2,3,1,5,0,6,5,3,5,5,4,7,5,3,2,6,4,1,5,5,1,0,6,6,3,0,6,0,0,6,3,0,0,0,0,0,0,0,0,0,0,0,0,0,0,0,0,0,0,0,0,0,0,0,0,0,0,0,0,0,0,0,0,0,0,0,0,0,0,0,0,0,0,0,0,0,0,0,0,0,0,0,0,0,0,0,0,0,0],"split_type":[0,0,0,0,0,0,0,0,0,0,0,0,0,0,0,0,0,0,0,0,0,0,0,0,0,0,0,0,0,0,0,0,0,0,0,0,0,0,0,0,0,0,0,0,0,0,0,0,0,0,0,0,0,0,0,0,0,0,0,0,0,0,0,0,0,0,0,0,0,0,0,0,0,0,0,0,0,0,0,0,0,0,0,0,0,0,0,0,0,0,0,0,0,0,0,0,0,0,0,0,0,0,0,0,0,0,0,0,0,0,0,0,0,0,0,0,0,0,0,0,0],"sum_hessian":[4.114E3,2.846E3,1.268E3,1.24E3,1.606E3,1.037E3,2.31E2,5.48E2,6.92E2,7.97E2,8.09E2,7.28E2,3.09E2,1.8E2,5.1E1,2.49E2,2.99E2,1.44E2,5.48E2,7.58E2,3.9E1,7.66E2,4.3E1,3.82E2,3.46E2,1.67E2,1.42E2,1.36E2,4.4E1,1E1,4.1E1,2.32E2,1.7E1,9.9E1,2E2,1.5E1,1.29E2,4.2E1,5.06E2,2.65E2,4.93E2,1.8E1,2.1E1,2.66E2,5E2,3.3E1,1E1,1.69E2,2.13E2,2.3E2,1.16E2,1.46E2,2.1E1,6E0,1.36E2,8.7E1,4.9E1,2E0,4.2E1,2E0,8E0,3.3E1,8E0,2.7E1,2.05E2,7E0,1E1,6E0,9.3E1,1.99E2,1E0,1E1,5E0,2.9E1,1.3E1,4.2E1,4.64E2,9.9E1,1.66E2,3.84E2,1.09E2,1.1E1,7E0,2E1,1E0,2.34E2,3.2E1,1.23E2,3.77E2,1.9E1,1.4E1,9E0,1E0,1.66E2,3E0,1.73E2,4E1,2.11E2,1.9E1,9.4E1,2.2E1,2.8E1,1.18E2,1.6E1,5E0,1E0,5E0,8.7E1,4.9E1,1E0,8.6E1,2.1E1,2.8E1,1E0,4.1E1,1E0,1E0,2.3E1,1E1,5E0,3E0],"tree_param":{"num_deleted":"0","num_feature":"8","num_nodes":"121","size_leaf_vector":"1"}},{"base_weights":[1.4196926E-2,-3.426051E0,6.7172484E0,-5.4479194E0,-1.7283721E0,4.77864E0,1.6423119E1,-3.8494449E0,-6.521317E0,-4.402957E-1,-3.6927066E0,6.7769985E0,1.8197476E0,1.8568796E1,8.6386795E0,-3.183951E0,-5.19754E0,-7.1326575E0,-4.9924903E0,2.0404404E-1,-3.0552108E0,-2.4613364E0,-5.1149216E0,4.96353E0,9.106755E0,6.2772675E0,5.8599955E-1,2.0561312E1,9.97224E0,5.3355627E0,6.037478E0,-4.1561365E0,-2.2761655E0,-6.423432E0,-3.7635632E0,-8.277856E0,-6.637648E0,-4.247745E0,-6.8030324E0,-4.5488626E-1,2.908417E0,-2.3357062E0,-6.2424755E0,-3.4118521E0,1.1221008E0,-3.0209105E0,-6.639219E0,4.126631E0,8.833511E0,1.0498882E1,3.5260863E0,5.227346E0,1.306309E1,3.0195315E0,-9.084092E-1,1.7555874E1,2.5656605E1,-8.14724E0,1.1866352E1,7.813333E0,-1.3421394E0,2.2600443E0,-1.2826605E0,-7.5903505E-1,3.988915E0,-2.4174137E0,-1.6401582E0,8.81922E-1,-1.4377724E0,-2.6105247E0,-1.934114E0,-1.081197E0,-2.0290546E0,1.655641E0,-1.3830266E0,-9.119333E-1,-2.194115E0,-2.3145376E-1,1.3465302E0,1.1409037E0,-7.729256E-2,3.0859476E-1,-9.323075E-1,-2.0705266E0,2.9375555E-2,1.64098E-1,-1.1562465E0,-1.2318038E0,7.0123047E-1,-7.68864E-2,-1.8247405E0,-4.0653396E-1,-2.121045E0,3.8032904E0,1.1015931E0,3.3096077E0,1.8302487E0,8.3821696E-1,3.3769994E0,4.2384295E0,5.759595E-1,3.2548337E0,1.1595428E0,-3.0260354E-1,4.2959385E0,4.6384528E-1,2.754962E0,1.2456938E-1,-1.0330985E0,5.5982003E0,2.745523E0,7.8311415E0,4.274254E-1,-2.8795743E0,-5.6898284E-1,8.169078E-1,4.894273E0,3.085377E0,5.133594E-1,-1.5209646E0,1.375503E0],"categories":[],"categories_nodes":[],"categories_segments":[],"categories_sizes":[],"default_left":[1,1,0,0,0,0,0,0,0,0,0,0,0,0,0,0,0,0,0,0,0,0,0,0,0,0,0,0,0,0,0,0,0,0,0,0,0,0,0,0,0,0,0,0,0,0,0,0,0,0,0,0,0,0,0,0,0,0,0,0,0,0,0,0,0,0,0,0,0,0,0,0,0,0,0,0,0,0,0,0,0,0,0,0,0,0,0,0,0,0,0,0,0,0,0,0,0,0,0,0,0,0,0,0,0,0,0,0,0,0,0,0,0,0,0,0,0,0,0,0,0],"id":1,"left_children":[1,3,5,7,9,11,13,15,17,19,21,23,25,27,29,31,33,35,37,39,41,43,45,47,49,51,53,55,57,-1,59,61,63,65,67,69,71,73,75,77,79,81,83,85,87,89,91,93,95,97,99,101,103,105,107,109,111,113,115,117,119,-1,-1,-1,-1,-1,-1,-1,-1,-1,-1,-1,-1,-1,-1,-1,-1,-1,-1,-1,-1,-1,-1,-1,-1,-1,-1,-1,-1,-1,-1,-1,-1,-1,-1,-1,-1,-1,-1,-1,-1,-1,-1,-1,-1,-1,-1,-1,-1,-1,-1,-1,-1,-1,-1,-1,-1,-1,-1,-1,-1],"loss_changes":[9.491556E4,9.3269375E3,2.6188504E4,2.1042031E3,3.7430894E3,6.8762266E3,3.7146562E3,4.3292334E2,6.569531E2,1.5086031E3,1.01365625E3,2.8911328E3,2.586566E3,2.8952617E3,1.1298042E3,2.8883667E2,2.641206E2,2.4380078E2,2.6100684E2,1.2825762E3,3.9132495E2,1.0801605E3,8.4494775E2,1.2363896E3,2.3169863E3,6.584219E2,1.3483187E3,1.7853594E3,1.33221E3,0E0,5.609022E2,2.5831616E2,7.3361786E2,9.1933105E1,5.5211523E2,6.419141E1,1.1805078E2,5.739634E2,9.4999756E1,9.09705E2,4.0033984E2,3.8239276E2,1.3443872E2,4.398601E2,4.3530905E2,9.80271E2,3.4564453E2,1.2169658E3,3.4723633E2,1.3814844E3,1.0286848E3,6.473252E2,2.4433667E2,1.2662842E3,7.7325525E2,7.112832E2,5.263008E2,1.8082397E1,1.2976362E3,4.9511914E2,2.2209943E2,0E0,0E0,0E0,0E0,0E0,0E0,0E0,0E0,0E0,0E0,0E0,0E0,0E0,0E0,0E0,0E0,0E0,0E0,0E0,0E0,0E0,0E0,0E0,0E0,0E0,0E0,0E0,0E0,0E0,0E0,0E0,0E0,0E0,0E0,0E0,0E0,0E0,0E0,0E0,0E0,0E0,0E0,0E0,0E0,0E0,0E0,0E0,0E0,0E0,0E0,0E0,0E0,0E0,0E0,0E0,0E0,0E0,0E0,0E0,0E0],"parents":[2147483647,0,0,1,1,2,2,3,3,4,4,5,5,6,6,7,7,8,8,9,9,10,10,11,11,12,12,13,13,14,14,15,15,16,16,17,17,18,18,19,19,20,20,21,21,22,22,23,23,24,24,25,25,26,26,27,27,28,28,30,30,31,31,32,32,33,33,34,34,35,35,36,36,37,37,38,38,39,39,40,40,41,41,42,42,43,43,44,44,45,45,46,46,47,47,48,48,49,49,50,50,51,51,52,52,53,53,54,54,55,55,56,56,57,57,58,58,59,59,60,60],"right_children":[2,4,6,8,10,12,14,16,18,20,22,24,26,28,30,32,34,36,38,40,42,44,46,48,50,52,54,56,58,-1,60,62,64,66,68,70,72,74,76,78,80,82,84,86,88,90,92,94,96,98,100,102,104,106,108,110,112,114,116,118,120,-1,-1,-1,-1,-1,-1,-1,-1,-1,-1,-1,-1,-1,-1,-1,-1,-1,-1,-1,-1,-1,-1,-1,-1,-1,-1,-1,-1,-1,-1,-1,-1,-1,-1,-1,-1,-1,-1,-1,-1,-1,-1,-1,-1,-1,-1,-1,-1,-1,-1,-1,-1,-1,-1,-1,-1,-1,-1,-1,-1],"split_conditions":[2.5E1,1.6E1,4.8E1,2.3208853E2,2.345925E2,2.1861038E2,2.2827838E2,3.2999997E0,1.4E1,3.4653625E1,2.6282465E1,3.4E1,1.8416384E1,3.0306887E1,1.3276144E1,1.21601875E2,5.841166E0,1E1,6E-1,2.3E1,4.7900295E1,2.2E1,2.5177692E2,1.6537E1,4.4E0,1.8903667E1,2.3772433E2,5.8E1,3.0918108E1,5.3355627E0,3.0085318E1,6E0,4.8E1,1.5E1,7.2369995E0,3.298871E2,1.4685176E1,2.3720508E2,1.8329973E1,4.3E1,3.4E0,1.4E1,4E1,1.3276144E1,1.6E1,5E-1,-3.5588334E0,1.4E1,2.0163212E1,3.4318863E1,2E1,-1.1192502E0,2.4E1,3.8E1,2.8227304E1,5.6E1,1.05E2,4.1E1,4.9745E0,2.7412848E2,6.459917E0,2.2600443E0,-1.2826605E0,-7.5903505E-1,3.988915E0,-2.4174137E0,-1.6401582E0,8.81922E-1,-1.4377724E0,-2.6105247E0,-1.934114E0,-1.081197E0,-2.0290546E0,1.655641E0,-1.3830266E0,-9.119333E-1,-2.194115E0,-2.3145376E-1,1.3465302E0,1.1409037E0,-7.729256E-2,3.0859476E-1,-9.323075E-1,-2.0705266E0,2.9375555E-2,1.64098E-1,-1.1562465E0,-1.2318038E0,7.0123047E-1,-7.68864E-2,-1.8247405E0,-4.0653396E-1,-2.121045E0,3.8032904E0,1.1015931E0,3.3096077E0,1.8302487E0,8.3821696E-1,3.3769994E0,4.2384295E0,5.759595E-1,3.2548337E0,1.1595428E0,-3.0260354E-1,4.2959385E0,4.6384528E-1,2.754962E0,1.2456938E-1,-1.0330985E0,5.5982003E0,2.745523E0,7.8311415E0,4.274254E-1,-2.8795743E0,-5.6898284E-1,8.169078E-1,4.894273E0,3.085377E0,5.133594E-1,-1.5209646E0,1.375503E0],"split_indices":[0,0,0,6,6,6,6,4,0,5,5,0,5,5,5,6,3,0,7,0,5,0,6,3,4,3,6,0,5,0,5,1,1,2,3,6,5,6,5,2,7,1,2,5,1,4,3,1,5,6,1,3,1,0,5,2,1,1,3,6,3,0,0,0,0,0,0,0,0,0,0,0,0,0,0,0,0,0,0,0,0,0,0,0,0,0,0,0,0,0,0,0,0,0,0,0,0,0,0,0,0,0,0,0,0,0,0,0,0,0,0,0,0,0,0,0,0,0,0,0,0],"split_type":[0,0,0,0,0,0,0,0,0,0,0,0,0,0,0,0,0,0,0,0,0,0,0,0,0,0,0,0,0,0,0,0,0,0,0,0,0,0,0,0,0,0,0,0,0,0,0,0,0,0,0,0,0,0,0,0,0,0,0,0,0,0,0,0,0,0,0,0,0,0,0,0,0,0,0,0,0,0,0,0,0,0,0,0,0,0,0,0,0,0,0,0,0,0,0,0,0,0,0,0,0,0,0,0,0,0,0,0,0,0,0,0,0,0,0,0,0,0,0,0,0],"sum_hessian":[4.114E3,2.719E3,1.395E3,1.24E3,1.479E3,1.164E3,2.31E2,5E2,7.4E2,8.94E2,5.85E2,6.94E2,4.7E2,1.8E2,5.1E1,3.37E2,1.63E2,5.26E2,2.14E2,7.18E2,1.76E2,3.15E2,2.7E2,3.92E2,3.02E2,1.01E2,3.69E2,1.45E2,3.5E1,1E1,4.1E1,1.61E2,1.76E2,8.6E1,7.7E1,1.54E2,3.72E2,1.54E2,6E1,5.78E2,1.4E2,1.45E2,3.1E1,2.49E2,6.6E1,1.15E2,1.55E2,3.24E2,6.8E1,2.41E2,6.1E1,8.9E1,1.2E1,1.4E2,2.29E2,9.4E1,5.1E1,3E0,3.2E1,3.3E1,8E0,1E0,1.6E2,1.74E2,2E0,2.9E1,5.7E1,1E1,6.7E1,1.22E2,3.2E1,1.6E1,3.56E2,5E0,1.49E2,8E0,5.2E1,5.44E2,3.4E1,1.09E2,3.1E1,2.7E1,1.18E2,2.8E1,3E0,2.5E1,2.24E2,1.2E1,5.4E1,6.1E1,5.4E1,1.2E1,1.43E2,1.5E1,3.09E2,3.6E1,3.2E1,2.2E1,2.19E2,7E0,5.4E1,1.6E1,7.3E1,1E0,1.1E1,1.14E2,2.6E1,1.51E2,7.8E1,8.2E1,1.2E1,5E1,1E0,2E0,1E0,1.1E1,2.1E1,2.3E1,1E1,5E0,3E0],"tree_param":{"num_deleted":"0","num_feature":"8","num_nodes":"121","size_leaf_vector":"1"}},{"base_weights":[1.9685829E-2,-2.4046082E0,4.7432246E0,-3.663819E0,-9.9139696E-1,3.3706207E0,1.161538E1,-2.5487392E0,-4.6387343E0,8.6460344E-2,-2.2897894E0,5.09076E0,1.5474565E0,9.6684065E0,1.6914793E1,-4.042993E0,-2.0236413E0,-3.3534067E0,-4.9385557E0,-1.0998605E-1,7.1539803E0,-1.3307664E0,-3.6316779E0,7.321647E0,3.9114366E0,2.4110708E0,-2.4132466E0,1.6140448E1,7.836539E0,1.5589249E1,1.1203672E1,-1.4309306E0,-4.4513836E0,-2.169731E0,3.6159952E0,-3.0779588E0,-6.2186513E0,-5.1337976E0,-2.9234736E0,6.5486836E0,-3.2041088E-1,3.7579825E0,9.834579E0,-2.0506024E0,6.397746E-1,2.5380676E0,-3.7676947E0,3.7306345E0,9.480775E0,4.780853E0,-4.0319076E-1,1.8230069E0,5.312939E0,-2.9578753E0,3.500887E0,1.7266056E1,5.4833426E0,1.0783293E1,3.1621482E0,1.5988423E1,-1.134434E0,-8.045857E-1,1.2328641E0,-1.8191988E0,-1.2044324E0,-6.981226E-1,4.3203616E-1,7.3810277E0,-5.4972794E-2,-1.2069645E0,-6.264285E-1,-1.9835098E0,-2.8426898E-1,-1.7769554E0,-1.4400368E0,-4.093495E-1,-1.3468184E0,3.314961E0,4.3564877E-1,-5.925988E-1,1.17621295E-1,7.784195E-2,1.3800528E0,1.2554984E0,3.4973924E0,-3.2046008E-1,-1.0614673E0,5.3129718E-2,2.1725826E0,-9.1306925E-1,-1.701136E0,7.979764E-1,4.894297E0,2.4660912E-1,3.086346E0,7.2615683E-1,1.7644095E0,-8.573566E-1,1.424285E0,1.6795729E0,4.2663094E-1,7.331496E0,1.3464249E0,-2.3533216E-1,-1.3072603E0,2.5930033E0,5.4472055E0,-1.0695906E0,2.591049E0,-1.1046344E0,3.6492245E0,3.921029E-1,2.510756E0,-3.3088878E-2,4.881838E0],"categories":[],"categories_nodes":[],"categories_segments":[],"categories_sizes":[],"default_left":[1,1,0,0,0,0,0,0,0,0,0,0,0,0,0,0,0,0,0,0,0,0,0,0,0,0,0,0,0,0,0,0,0,0,0,0,0,0,0,0,0,0,0,0,0,0,0,0,0,0,0,0,0,0,0,0,0,0,0,0,0,0,0,0,0,0,0,0,0,0,0,0,0,0,0,0,0,0,0,0,0,0,0,0,0,0,0,0,0,0,0,0,0,0,0,0,0,0,0,0,0,0,0,0,0,0,0,0,0,0,0,0,0,0,0],"id":2,"left_children":[1,3,5,7,9,11,13,15,17,19,21,23,25,27,29,31,33,35,37,39,41,43,45,47,49,51,53,55,57,59,-1,61,63,65,67,69,71,73,75,77,79,81,83,85,87,-1,89,91,93,95,97,99,101,103,-1,105,107,109,111,113,-1,-1,-1,-1,-1,-1,-1,-1,-1,-1,-1,-1,-1,-1,-1,-1,-1,-1,-1,-1,-1,-1,-1,-1,-1,-1,-1,-1,-1,-1,-1,-1,-1,-1,-1,-1,-1,-1,-1,-1,-1,-1,-1,-1,-1,-1,-1,-1,-1,-1,-1,-1,-1,-1,-1],"loss_changes":[4.713328E4,4.8366914E3,1.3128967E4,1.5514375E3,1.7957332E3,3.6456748E3,2.2301953E3,5.19874E2,2.786328E2,9.754358E2,7.4414404E2,1.5472949E3,1.9452533E3,1.9127334E3,1.0698086E3,1.7924316E2,4.197915E2,9.766467E1,2.2852344E2,9.604844E2,1.360047E2,4.8500897E2,4.2989355E2,1.5618418E3,1.4799028E3,7.855359E2,8.168505E2,3.4916602E2,1.8392031E3,5.1666504E2,0E0,1.8430305E2,8.1266846E1,2.8053003E2,1.0410795E3,1.1978662E2,1.8596436E1,1.19862305E2,1.3302444E2,4.6570203E2,7.836963E2,2.8270584E1,5.4225586E1,3.6158118E2,2.7974628E2,0E0,3.134248E2,1.0210134E3,8.8600586E2,8.3776807E2,8.6068274E2,5.8084436E2,1.1208225E3,2.9774634E2,0E0,9.667676E1,1.734668E2,1.7026055E3,5.1068933E2,2.6731738E2,0E0,0E0,0E0,0E0,0E0,0E0,0E0,0E0,0E0,0E0,0E0,0E0,0E0,0E0,0E0,0E0,0E0,0E0,0E0,0E0,0E0,0E0,0E0,0E0,0E0,0E0,0E0,0E0,0E0,0E0,0E0,0E0,0E0,0E0,0E0,0E0,0E0,0E0,0E0,0E0,0E0,0E0,0E0,0E0,0E0,0E0,0E0,0E0,0E0,0E0,0E0,0E0,0E0,0E0,0E0],"parents":[2147483647,0,0,1,1,2,2,3,3,4,4,5,5,6,6,7,7,8,8,9,9,10,10,11,11,12,12,13,13,14,14,15,15,16,16,17,17,18,18,19,19,20,20,21,21,22,22,23,23,24,24,25,25,26,26,27,27,28,28,29,29,31,31,32,32,33,33,34,34,35,35,36,36,37,37,38,38,39,39,40,40,41,41,42,42,43,43,44,44,46,46,47,47,48,48,49,49,50,50,51,51,52,52,53,53,55,55,56,56,57,57,58,58,59,59],"right_children":[2,4,6,8,10,12,14,16,18,20,22,24,26,28,30,32,34,36,38,40,42,44,46,48,50,52,54,56,58,60,-1,62,64,66,68,70,72,74,76,78,80,82,84,86,88,-1,90,92,94,96,98,100,102,104,-1,106,108,110,112,114,-1,-1,-1,-1,-1,-1,-1,-1,-1,-1,-1,-1,-1,-1,-1,-1,-1,-1,-1,-1,-1,-1,-1,-1,-1,-1,-1,-1,-1,-1,-1,-1,-1,-1,-1,-1,-1,-1,-1,-1,-1,-1,-1,-1,-1,-1,-1,-1,-1,-1,-1,-1,-1,-1,-1],"split_conditions":[2.5E1,1.7E1,4.8E1,2.3815372E2,2.2624142E2,2.0130981E2,6E1,1.2E1,6.4949995E-1,1.8903667E1,2.7257967E1,1.9513195E1,2.8E0,1.4081478E1,9.8E1,1.9566406E1,4.2E1,3.5E1,1.5424499E1,-8.285916E0,1.8329973E1,2.2E1,-8.285916E0,3.1E1,6.899999E0,4E1,2.0124083E1,2.4894522E2,1.8413216E2,3.3771872E2,1.1203672E1,2.8277763E1,7.470848E1,1.6537E1,4.4E1,1.3E1,1.6E1,1.1E1,2.3E1,2.1E1,9.005141E1,9.005141E1,1.9326582E1,2.1E1,1.830575E1,2.5380676E0,1.9999999E0,4.4E1,1.6740128E1,8.6336426E1,7.53075E0,1.2594856E1,1.8E1,2.5E1,3.500887E0,6.0018433E1,2E1,3.4318863E1,1.6664083E1,1.7E1,-1.134434E0,-8.045857E-1,1.2328641E0,-1.8191988E0,-1.2044324E0,-6.981226E-1,4.3203616E-1,7.3810277E0,-5.4972794E-2,-1.2069645E0,-6.264285E-1,-1.9835098E0,-2.8426898E-1,-1.7769554E0,-1.4400368E0,-4.093495E-1,-1.3468184E0,3.314961E0,4.3564877E-1,-5.925988E-1,1.17621295E-1,7.784195E-2,1.3800528E0,1.2554984E0,3.4973924E0,-3.2046008E-1,-1.0614673E0,5.3129718E-2,2.1725826E0,-9.1306925E-1,-1.701136E0,7.979764E-1,4.894297E0,2.4660912E-1,3.086346E0,7.2615683E-1,1.7644095E0,-8.573566E-1,1.424285E0,1.6795729E0,4.2663094E-1,7.331496E0,1.3464249E0,-2.3533216E-1,-1.3072603E0,2.5930033E0,5.4472055E0,-1.0695906E0,2.591049E0,-1.1046344E0,3.6492245E0,3.921029E-1,2.510756E0,-3.3088878E-2,4.881838E0],"split_indices":[0,0,0,6,6,6,0,0,3,3,5,5,7,5,0,6,1,2,3,3,5,0,3,0,4,0,3,6,6,6,0,5,6,3,1,0,0,0,2,2,6,6,3,2,3,0,4,2,6,6,3,5,1,1,0,6,2,6,3,1,0,0,0,0,0,0,0,0,0,0,0,0,0,0,0,0,0,0,0,0,0,0,0,0,0,0,0,0,0,0,0,0,0,0,0,0,0,0,0,0,0,0,0,0,0,0,0,0,0,0,0,0,0,0,0],"split_type":[0,0,0,0,0,0,0,0,0,0,0,0,0,0,0,0,0,0,0,0,0,0,0,0,0,0,0,0,0,0,0,0,0,0,0,0,0,0,0,0,0,0,0,0,0,0,0,0,0,0,0,0,0,0,0,0,0,0,0,0,0,0,0,0,0,0,0,0,0,0,0,0,0,0,0,0,0,0,0,0,0,0,0,0,0,0,0,0,0,0,0,0,0,0,0,0,0,0,0,0,0,0,0,0,0,0,0,0,0,0,0,0,0,0,0],"sum_hessian":[4.114E3,2.719E3,1.395E3,1.437E3,1.282E3,1.164E3,2.31E2,6.72E2,7.65E2,7.01E2,5.81E2,5.98E2,5.66E2,1.71E2,6E1,1.73E2,4.99E2,1.47E2,6.18E2,6.83E2,1.8E1,3.4E2,2.41E2,2.05E2,3.93E2,4.65E2,1.01E2,3.6E1,1.35E2,5.8E1,2E0,2.4E1,1.49E2,4.87E2,1.2E1,1.36E2,1.1E1,5.62E2,5.6E1,2E1,6.63E2,9E0,9E0,2.49E2,9.1E1,2E0,2.39E2,7.8E1,1.27E2,3.27E2,6.6E1,3.88E2,7.7E1,9.8E1,3E0,3.2E1,4E0,8.2E1,5.3E1,5.7E1,1E0,2E1,4E0,2.9E1,1.2E2,4.67E2,2E1,1E0,1.1E1,6.8E1,6.8E1,1E1,1E0,1.62E2,4E2,2.9E1,2.7E1,1E1,1E1,1.99E2,4.64E2,2E0,7E0,3E0,6E0,1.51E2,9.8E1,8.6E1,5E0,1.75E2,6.4E1,7.3E1,5E0,1.1E1,1.16E2,1.05E2,2.22E2,4.5E1,2.1E1,3.6E1,3.52E2,2E0,7.5E1,3.9E1,5.9E1,4E0,2.8E1,1E0,3E0,7E0,7.5E1,4E1,1.3E1,1E0,5.6E1],"tree_param":{"num_deleted":"0","num_feature":"8","num_nodes":"115","size_leaf_vector":"1"}},{"base_weights":[2.8457295E-2,-1.5059716E0,3.8463001E0,-2.338998E0,-9.303031E-2,2.7632976E0,8.259763E0,-1.5637069E0,-3.1477592E0,3.7501101E0,-3.6448574E-1,3.705907E0,4.156423E-1,7.9418936E0,8.962938E0,-1.6022903E0,3.3256748E0,-2.6857524E0,-3.7458708E0,7.9066725E0,2.7002459E0,-8.1356955E-1,2.28393E0,4.0829616E0,-1.5550556E0,3.7088017E0,-8.736416E-1,8.992161E0,3.4243007E0,-1.3343674E0,-3.683123E0,-1.2317227E0,-3.0392118E0,-3.7933395E0,3.6578572E0,1.9886479E0,9.339893E0,-2.3463404E0,3.7780461E0,1.8306194E-1,-1.8384397E0,1.4542924E0,5.787581E0,4.4012775E0,1.18420996E-1,-6.1436605E0,1.096989E0,2.7893262E0,3.1038082E0,7.535759E0,-1.2231236E0,9.762825E0,2.8034456E0,-2.3135767E0,6.9906397E0,-7.174372E-1,-2.6936868E-1,-1.2909507E0,-3.2756808E-1,-2.3071546E-2,-8.078348E-1,-1.030144E0,-4.7056118E-1,-4.826472E-1,-1.1914225E0,-5.2468246E-1,2.1707182E0,1.5396944E0,-2.3100378E-1,3.29971E0,1.5447356E0,-1.193951E0,1.2294663E-1,3.3760157E-1,1.9483182E0,-8.3939487E-1,2.6651114E-1,-3.2205808E-1,-9.9111724E-1,5.712091E-1,-9.648531E-1,6.9866276E-1,2.2739108E0,9.3463886E-1,1.659561E0,-9.3424046E-1,7.031059E-1,-2.2677717E-1,-2.3229833E0,1.3477211E0,-9.313112E-1,-1.0040154E0,1.1296535E0,3.2643948E0,4.4096234E-1,-1.331501E0,-1.4817634E-1,8.399529E-1,3.101977E0,-1.8145266E-1,3.057998E0,-1.3952005E0,9.407153E-1,2.378607E0,-2.7505074E0],"categories":[],"categories_nodes":[],"categories_segments":[],"categories_sizes":[],"default_left":[1,1,0,0,0,0,0,0,0,0,0,0,0,0,0,0,0,0,0,0,0,0,0,0,0,0,0,0,0,0,0,0,0,0,0,0,0,0,0,0,0,0,0,0,0,0,0,0,0,0,0,0,0,0,0,0,0,0,0,0,0,0,0,0,0,0,0,0,0,0,0,0,0,0,0,0,0,0,0,0,0,0,0,0,0,0,0,0,0,0,0,0,0,0,0,0,0,0,0,0,0,0,0,0,0],"id":3,"left_children":[1,3,5,7,9,11,13,15,17,19,21,23,25,27,-1,29,-1,31,33,35,37,39,41,43,45,47,49,51,53,55,57,59,61,63,65,67,69,71,73,75,77,79,81,83,85,87,89,91,-1,93,95,97,99,101,103,-1,-1,-1,-1,-1,-1,-1,-1,-1,-1,-1,-1,-1,-1,-1,-1,-1,-1,-1,-1,-1,-1,-1,-1,-1,-1,-1,-1,-1,-1,-1,-1,-1,-1,-1,-1,-1,-1,-1,-1,-1,-1,-1,-1,-1,-1,-1,-1,-1,-1],"loss_changes":[2.411232E4,3.4555059E3,5.617328E3,1.1531943E3,1.1384999E3,2.098523E3,1.3568613E3,4.789724E2,2.394668E2,2.9284558E2,1.2138167E3,1.349293E3,1.1623483E3,1.0604844E3,0E0,5.2081006E2,0E0,2.599077E2,1.5129053E2,1.00172E2,3.2977814E2,8.910129E2,4.217837E2,7.970488E2,5.6652203E2,4.410547E2,5.881871E2,8.597422E2,9.37018E2,3.8403625E2,1.6721631E2,1.718932E2,2.3370996E2,1.449292E2,7.068933E1,3.8641186E1,1.984851E1,5.1155006E1,3.457697E2,9.33918E2,4.784038E2,2.6028247E2,1.5590344E2,8.331992E2,3.525767E2,1.4065808E2,4.4190674E2,4.2590625E2,0E0,1.4635593E2,4.432705E2,6.340742E2,5.6027576E2,2.438222E2,4.9711572E2,0E0,0E0,0E0,0E0,0E0,0E0,0E0,0E0,0E0,0E0,0E0,0E0,0E0,0E0,0E0,0E0,0E0,0E0,0E0,0E0,0E0,0E0,0E0,0E0,0E0,0E0,0E0,0E0,0E0,0E0,0E0,0E0,0E0,0E0,0E0,0E0,0E0,0E0,0E0,0E0,0E0,0E0,0E0,0E0,0E0,0E0,0E0,0E0,0E0,0E0],"parents":[2147483647,0,0,1,1,2,2,3,3,4,4,5,5,6,6,7,7,8,8,9,9,10,10,11,11,12,12,13,13,15,15,17,17,18,18,19,19,20,20,21,21,22,22,23,23,24,24,25,25,26,26,27,27,28,28,29,29,30,30,31,31,32,32,33,33,34,34,35,35,36,36,37,37,38,38,39,39,40,40,41,41,42,42,43,43,44,44,45,45,46,46,47,47,49,49,50,50,51,51,52,52,53,53,54,54],"right_children":[2,4,6,8,10,12,14,16,18,20,22,24,26,28,-1,30,-1,32,34,36,38,40,42,44,46,48,50,52,54,56,58,60,62,64,66,68,70,72,74,76,78,80,82,84,86,88,90,92,-1,94,96,98,100,102,104,-1,-1,-1,-1,-1,-1,-1,-1,-1,-1,-1,-1,-1,-1,-1,-1,-1,-1,-1,-1,-1,-1,-1,-1,-1,-1,-1,-1,-1,-1,-1,-1,-1,-1,-1,-1,-1,-1,-1,-1,-1,-1,-1,-1,-1,-1,-1,-1,-1,-1],"split_conditions":[2.7E1,1.9E1,4.8E1,2.4057616E2,-4.0025835E0,2.362897E2,9.8E1,6.6E1,2.7504095E1,2.0948164E1,1.6484917E1,9.7E0,1.8416384E1,3.024214E1,8.962938E0,8.099999E0,3.3256748E0,2.6500632E2,1.830575E1,1.3E1,2E1,2.1461894E2,1.911825E1,4.0271755E1,6.530749E0,1.911825E1,-8.285916E0,2.5177692E2,6.459917E0,9.005141E1,1.3993252E1,9.462001E0,3.3404666E2,-1.0025834E0,1E1,2E1,2.1E1,-4.6613336E0,3E-1,6.193576E1,2.9853966E1,2.6500632E2,1.9130875E1,3.4E1,1.90069E2,8E-1,3.370377E1,2.9E1,3.1038082E0,2.3E1,5.953333E-1,2.6E1,3.0438217E2,4.001024E1,4.533428E1,-7.174372E-1,-2.6936868E-1,-1.2909507E0,-3.2756808E-1,-2.3071546E-2,-8.078348E-1,-1.030144E0,-4.7056118E-1,-4.826472E-1,-1.1914225E0,-5.2468246E-1,2.1707182E0,1.5396944E0,-2.3100378E-1,3.29971E0,1.5447356E0,-1.193951E0,1.2294663E-1,3.3760157E-1,1.9483182E0,-8.3939487E-1,2.6651114E-1,-3.2205808E-1,-9.9111724E-1,5.712091E-1,-9.648531E-1,6.9866276E-1,2.2739108E0,9.3463886E-1,1.659561E0,-9.3424046E-1,7.031059E-1,-2.2677717E-1,-2.3229833E0,1.3477211E0,-9.313112E-1,-1.0040154E0,1.1296535E0,3.2643948E0,4.4096234E-1,-1.331501E0,-1.4817634E-1,8.399529E-1,3.101977E0,-1.8145266E-1,3.057998E0,-1.3952005E0,9.407153E-1,2.378607E0,-2.7505074E0],"split_indices":[0,0,0,6,3,6,0,2,5,5,3,4,5,5,0,4,0,6,3,1,0,6,3,5,3,3,3,6,3,6,3,3,6,3,0,0,2,3,4,6,5,6,5,0,6,7,5,0,0,2,3,1,6,5,5,0,0,0,0,0,0,0,0,0,0,0,0,0,0,0,0,0,0,0,0,0,0,0,0,0,0,0,0,0,0,0,0,0,0,0,0,0,0,0,0,0,0,0,0,0,0,0,0,0,0],"split_type":[0,0,0,0,0,0,0,0,0,0,0,0,0,0,0,0,0,0,0,0,0,0,0,0,0,0,0,0,0,0,0,0,0,0,0,0,0,0,0,0,0,0,0,0,0,0,0,0,0,0,0,0,0,0,0,0,0,0,0,0,0,0,0,0,0,0,0,0,0,0,0,0,0,0,0,0,0,0,0,0,0,0,0,0,0,0,0,0,0,0,0,0,0,0,0,0,0,0,0,0,0,0,0,0,0],"sum_hessian":[4.114E3,2.935E3,1.179E3,1.846E3,1.089E3,9.48E2,2.31E2,9.44E2,9.02E2,7.1E1,1.018E3,6.76E2,2.72E2,2.29E2,2E0,9.42E2,2E0,5.12E2,3.9E2,1.3E1,5.8E1,8.71E2,1.47E2,6.31E2,4.5E1,7.6E1,1.96E2,1.85E2,4.4E1,8.36E2,1.06E2,1.01E2,4.11E2,3.88E2,2E0,3E0,1E1,1E1,4.8E1,4.42E2,4.29E2,1.2E2,2.7E1,5.84E2,4.7E1,1.6E1,2.9E1,6.8E1,8E0,7E0,1.89E2,1.64E2,2.1E1,1.7E1,2.7E1,2.43E2,5.93E2,8.5E1,2.1E1,5.7E1,4.4E1,3.23E2,8.8E1,3E1,3.58E2,1E0,1E0,1E0,2E0,6E0,4E0,6E0,4E0,2.5E1,2.3E1,8.4E1,3.58E2,2.83E2,1.46E2,1.1E2,1E1,1E1,1.7E1,2.75E2,3.09E2,1.9E1,2.8E1,4E0,1.2E1,1.6E1,1.3E1,9E0,5.9E1,4E0,3E0,3.4E1,1.55E2,1.3E1,1.51E2,1.5E1,6E0,1.2E1,5E0,2.6E1,1E0],"tree_param":{"num_deleted":"0","num_feature":"8","num_nodes":"105","size_leaf_vector":"1"}},{"base_weights":[2.6496358E-2,-1.2943484E0,2.2729552E0,-2.3283648E0,-8.102556E-1,1.580019E0,5.6670523E0,-3.844007E0,-2.121422E0,-4.2934382E-1,-1.9511577E0,2.5670524E0,5.555945E-1,4.5145483E0,9.315064E0,-3.479203E0,-6.706363E0,-2.877279E-1,-2.309627E0,-5.8192307E-1,2.275851E0,-2.2962344E0,9.9781096E-1,2.2412713E0,6.4838734E0,1.4521205E0,-1.4797529E0,5.95394E0,7.583428E-1,8.415515E0,7.170351E0,7.1361893E-1,-3.737271E0,-7.155914E0,-3.9906108E-1,-7.558272E-1,7.507843E0,-1.8320167E0,-2.9944925E0,4.001648E-2,-1.1960533E0,1.1440146E0,3.1752038E0,7.694567E-1,-2.4873345E0,-1.9380184E0,2.434544E0,2.1063796E-1,2.8570952E0,3.6830492E0,8.13496E0,9.853099E-1,5.0081835E0,1.0637226E0,-2.4389217E0,7.3457365E0,3.0463057E0,-2.5710614E0,4.1795707E0,9.2685795E0,7.5438553E-1,-2.4499713E-1,3.5490167E-1,-6.9898546E-1,-1.2257351E0,-5.5222267E-1,-2.2770653E0,1.4654491E0,-3.8947663E-1,4.040989E-1,3.8985577E0,7.18729E-1,-6.054882E-1,-9.828156E-1,-2.8313512E-1,-2.7865106E-2,1.8911078E0,-1.8982492E-1,-8.3206904E-1,7.1543545E-1,-1.5116861E-1,5.8648616E-1,1.7273561E0,8.9382344E-1,-6.33949E-1,1.5606061E0,-7.691221E-1,-8.364052E-1,3.9269474E-1,1.0015363E0,-2.0834771E-1,1.2013525E0,-6.439798E-1,2.6443973E0,7.864483E-1,1.7538449E0,-1.1926447E0,2.5809712E0,3.1581688E-1,5.827004E-1,-1.9647092E-2,3.9232724E0,1.0831784E0,1.7270337E0,-4.5429853E-1,-1.0108358E0,3.6205956E-1,2.625145E0,6.668796E-1,2.547453E0,3.593883E-1,7.526942E-1,-1.3877373E0,-1.5014006E0,1.7756416E0,3.6878989E0,1.6965098E0,-3.1527202E0,2.208474E0],"categories":[],"categories_nodes":[],"categories_segments":[],"categories_sizes":[],"default_left":[1,0,0,1,0,0,0,0,0,0,0,0,0,0,0,0,0,0,0,0,0,0,0,0,0,0,0,0,0,0,0,0,0,0,0,0,0,0,0,0,0,0,0,0,0,0,0,0,0,0,0,0,0,0,0,0,0,0,0,0,0,0,0,0,0,0,0,0,0,0,0,0,0,0,0,0,0,0,0,0,0,0,0,0,0,0,0,0,0,0,0,0,0,0,0,0,0,0,0,0,0,0,0,0,0,0,0,0,0,0,0,0,0,0,0,0,0,0,0],"id":4,"left_children":[1,3,5,7,9,11,13,15,17,19,21,23,25,27,29,31,33,35,37,39,41,43,45,47,49,51,53,55,57,59,-1,61,63,65,-1,67,69,71,73,75,77,79,81,83,85,87,89,91,93,95,97,99,101,103,105,107,109,111,113,115,117,-1,-1,-1,-1,-1,-1,-1,-1,-1,-1,-1,-1,-1,-1,-1,-1,-1,-1,-1,-1,-1,-1,-1,-1,-1,-1,-1,-1,-1,-1,-1,-1,-1,-1,-1,-1,-1,-1,-1,-1,-1,-1,-1,-1,-1,-1,-1,-1,-1,-1,-1,-1,-1,-1,-1,-1,-1,-1],"loss_changes":[1.2213066E4,1.295565E3,3.5753306E3,2.509209E2,7.670707E2,1.2796897E3,1.042668E3,7.899878E1,2.5092114E2,5.486395E2,4.5207935E2,8.085049E2,1.1389629E3,1.0660015E3,5.9923535E2,9.8967896E1,1.464975E1,2.5746265E2,2.1072632E2,4.7977936E2,6.863983E1,2.3391187E2,2.0296436E2,7.4595435E2,1.9663452E2,7.138489E2,4.6856216E2,5.563203E2,6.486223E2,3.7859863E2,0E0,5.275856E0,3.1679688E1,6.8039856E0,0E0,2.0827875E2,1.1772238E2,3.1355078E2,1.5280518E2,5.208627E2,5.59851E2,6.867603E1,1.11651306E2,1.59187E2,2.3247803E2,4.7808613E1,9.282626E1,1.2606234E3,6.197451E2,3.5456473E2,9.043652E1,3.862936E2,5.1666675E2,6.499613E2,4.756261E2,6.713872E2,4.7292886E2,3.1431122E2,4.768808E2,5.097129E2,5.9830194E2,0E0,0E0,0E0,0E0,0E0,0E0,0E0,0E0,0E0,0E0,0E0,0E0,0E0,0E0,0E0,0E0,0E0,0E0,0E0,0E0,0E0,0E0,0E0,0E0,0E0,0E0,0E0,0E0,0E0,0E0,0E0,0E0,0E0,0E0,0E0,0E0,0E0,0E0,0E0,0E0,0E0,0E0,0E0,0E0,0E0,0E0,0E0,0E0,0E0,0E0,0E0,0E0,0E0,0E0,0E0,0E0,0E0,0E0],"parents":[2147483647,0,0,1,1,2,2,3,3,4,4,5,5,6,6,7,7,8,8,9,9,10,10,11,11,12,12,13,13,14,14,15,15,16,16,17,17,18,18,19,19,20,20,21,21,22,22,23,23,24,24,25,25,26,26,27,27,28,28,29,29,31,31,32,32,33,33,35,35,36,36,37,37,38,38,39,39,40,40,41,41,42,42,43,43,44,44,45,45,46,46,47,47,48,48,49,49,50,50,51,51,52,52,53,53,54,54,55,55,56,56,57,57,58,58,59,59,60,60],"right_children":[2,4,6,8,10,12,14,16,18,20,22,24,26,28,30,32,34,36,38,40,42,44,46,48,50,52,54,56,58,60,-1,62,64,66,-1,68,70,72,74,76,78,80,82,84,86,88,90,92,94,96,98,100,102,104,106,108,110,112,114,116,118,-1,-1,-1,-1,-1,-1,-1,-1,-1,-1,-1,-1,-1,-1,-1,-1,-1,-1,-1,-1,-1,-1,-1,-1,-1,-1,-1,-1,-1,-1,-1,-1,-1,-1,-1,-1,-1,-1,-1,-1,-1,-1,-1,-1,-1,-1,-1,-1,-1,-1,-1,-1,-1,-1,-1,-1,-1,-1],"split_conditions":[2.4E1,1.4E1,4.7E1,1E1,2.6257242E2,2.0130981E2,6E1,3.725261E1,1.731746E1,1.7353666E1,3.478859E2,1.9849083E1,1.5E0,2.661323E1,9.8E1,-1.8046666E0,2.7631958E2,3.3E1,2E1,2.7155552E1,2.1749483E1,1.3397612E1,1.4E1,7.066523E1,9.3080864E1,4E1,1.7E1,4.4E1,4.1E1,7.7E1,7.170351E0,-4.4005E0,2.6099164E0,8E0,-3.9906108E-1,1.6740128E1,1.1E1,-4.4005E0,3.93439E1,2.7E1,3.0999997E0,2E-1,1.830575E1,4.9745E0,-8.285916E0,2E-1,1.0000001E0,-3.892167E0,1.4E1,3.5E1,4.8E1,2.3664352E1,2.3E1,2.5E0,1.70745E1,2.3720508E2,1.3570615E1,9.9999994E-2,2.81169E1,2E-1,1.4685176E1,-2.4499713E-1,3.5490167E-1,-6.9898546E-1,-1.2257351E0,-5.5222267E-1,-2.2770653E0,1.4654491E0,-3.8947663E-1,4.040989E-1,3.8985577E0,7.18729E-1,-6.054882E-1,-9.828156E-1,-2.8313512E-1,-2.7865106E-2,1.8911078E0,-1.8982492E-1,-8.3206904E-1,7.1543545E-1,-1.5116861E-1,5.8648616E-1,1.7273561E0,8.9382344E-1,-6.33949E-1,1.5606061E0,-7.691221E-1,-8.364052E-1,3.9269474E-1,1.0015363E0,-2.0834771E-1,1.2013525E0,-6.439798E-1,2.6443973E0,7.864483E-1,1.7538449E0,-1.1926447E0,2.5809712E0,3.1581688E-1,5.827004E-1,-1.9647092E-2,3.9232724E0,1.0831784E0,1.7270337E0,-4.5429853E-1,-1.0108358E0,3.6205956E-1,2.625145E0,6.668796E-1,2.547453E0,3.593883E-1,7.526942E-1,-1.3877373E0,-1.5014006E0,1.7756416E0,3.6878989E0,1.6965098E0,-3.1527202E0,2.208474E0],"split_indices":[0,0,0,2,6,6,0,5,5,3,6,3,4,5,0,3,6,1,2,5,5,5,2,6,6,0,2,2,1,0,0,3,3,0,0,6,0,3,5,5,7,4,3,3,3,4,7,3,1,2,1,5,1,7,3,6,5,7,5,4,5,0,0,0,0,0,0,0,0,0,0,0,0,0,0,0,0,0,0,0,0,0,0,0,0,0,0,0,0,0,0,0,0,0,0,0,0,0,0,0,0,0,0,0,0,0,0,0,0,0,0,0,0,0,0,0,0,0,0],"split_type":[0,0,0,0,0,0,0,0,0,0,0,0,0,0,0,0,0,0,0,0,0,0,0,0,0,0,0,0,0,0,0,0,0,0,0,0,0,0,0,0,0,0,0,0,0,0,0,0,0,0,0,0,0,0,0,0,0,0,0,0,0,0,0,0,0,0,0,0,0,0,0,0,0,0,0,0,0,0,0,0,0,0,0,0,0,0,0,0,0,0,0,0,0,0,0,0,0,0,0,0,0,0,0,0,0,0,0,0,0,0,0,0,0,0,0,0,0,0,0],"sum_hessian":[4.114E3,2.591E3,1.523E3,8.25E2,1.766E3,1.266E3,2.57E2,9.7E1,7.28E2,1.325E3,4.41E2,6.44E2,6.22E2,1.97E2,6E1,8.8E1,9E0,6.8E1,6.6E2,1.255E3,7E1,3.95E2,4.6E1,5.96E2,4.8E1,4.32E2,1.9E2,1.42E2,5.5E1,5.8E1,2E0,5E0,8.3E1,8E0,1E0,6.5E1,3E0,3.91E2,2.69E2,6.24E2,6.31E2,3.2E1,3.8E1,2.3E1,3.72E2,1.5E1,3.1E1,1.39E2,4.57E2,1.9E1,2.9E1,3.83E2,4.9E1,5.2E1,1.38E2,9.5E1,4.7E1,2.8E1,2.7E1,5.2E1,6E0,1E0,4E0,1.8E1,6.5E1,1E0,7E0,5E0,6E1,2E0,1E0,1.6E1,3.75E2,2.36E2,3.3E1,6.12E2,1.2E1,4.66E2,1.65E2,1.8E1,1.4E1,2.7E1,1.1E1,1.3E1,1E1,3E0,3.69E2,1.2E1,3E0,2.4E1,7E0,5.3E1,8.6E1,1.6E1,4.41E2,1.5E1,4E0,2.7E1,2E0,2E2,1.83E2,6E0,4.3E1,1.8E1,3.4E1,1.1E2,2.8E1,7.4E1,2.1E1,1.1E1,3.6E1,8E0,2E1,4E0,2.3E1,2.7E1,2.5E1,2E0,4E0],"tree_param":{"num_deleted":"0","num_feature":"8","num_nodes":"119","size_leaf_vector":"1"}},{"base_weights":[2.7147943E-2,-6.399049E-1,2.3972216E0,-1.1684833E0,7.435663E-2,1.946949E0,5.6634583E0,-4.9590313E-1,-1.5751092E0,2.5737746E0,-9.7536445E-2,3.8742964E0,8.878055E-1,5.2332163E0,5.736281E0,-1.41932E0,7.7294536E-2,-1.1623243E0,-2.092659E0,6.163142E0,1.7518069E0,2.0594658E-1,-1.5214499E0,4.943555E0,2.3681393E0,3.8926651E0,2.679096E-1,6.4374423E0,2.073261E0,-4.7520682E-1,-2.2224498E0,-1.1303476E-1,6.2058086E0,-1.8204918E0,-5.537336E-1,-2.3342025E0,-1.3631022E-1,6.730365E0,-3.5177967E-1,6.454547E0,1.0737073E0,8.6878926E-1,-7.0965815E-1,-1.6447425E0,8.150446E0,7.413103E0,3.6638393E0,1.2696242E0,4.768372E0,5.433984E0,-1.6195165E0,-7.3347665E-2,5.7719107E0,-7.1771705E-1,7.2774277E0,-5.22095E0,7.6313553E0,3.4288245E-1,-4.642909E-1,-8.692685E-1,9.9573374E-2,-8.857993E-2,2.4664311E0,4.872049E0,-1.7510034E-2,-8.4482205E-1,-4.5638454E-1,-2.2819455E-1,4.4997135E-1,-7.7615684E-1,-4.3482608E-1,-1.2837813E0,1.3050124E-1,2.164798E0,-1.02647785E-2,2.327312E0,-5.956098E-1,1.9305024E-1,2.9250426E0,2.3215608E-1,4.538782E0,-2.3769903E-1,3.5121696E0,-2.4571045E-1,-1.0095179E0,6.377658E-1,3.0299351E0,-5.703773E-1,2.5147696E0,-7.7813524E-1,1.4037565E0,8.2002467E-1,-5.6028736E-1,-1.6091707E0,1.8477206E0,5.480373E-1,2.7941236E0,-1.9232438E0,2.6754338E-1,4.80331E-2,-2.1322086E0,1.0732994E0,3.2709486E0,-1.9245385E0,2.4023488E0,1.7905315E0,3.5980709E0,1.2529358E-1,-2.255446E0,-4.489844E-1,3.6960177E0],"categories":[],"categories_nodes":[],"categories_segments":[],"categories_sizes":[],"default_left":[1,0,0,0,0,0,0,0,0,0,0,0,0,0,0,0,0,0,0,0,0,0,1,0,0,0,0,0,0,0,0,0,0,0,0,0,0,0,0,0,0,0,0,1,0,0,0,0,0,0,0,0,0,0,0,0,0,0,0,0,0,0,0,0,0,0,0,0,0,0,0,0,0,0,0,0,0,0,0,0,0,0,0,0,0,0,0,0,0,0,0,0,0,0,0,0,0,0,0,0,0,0,0,0,0,0,0,0,0,0,0],"id":5,"left_children":[1,3,5,7,9,11,13,15,17,19,21,23,25,27,-1,29,31,33,35,37,39,41,43,45,47,49,51,53,55,57,59,61,63,65,67,69,71,73,-1,75,77,79,81,83,85,87,89,91,93,95,97,99,101,103,105,107,109,-1,-1,-1,-1,-1,-1,-1,-1,-1,-1,-1,-1,-1,-1,-1,-1,-1,-1,-1,-1,-1,-1,-1,-1,-1,-1,-1,-1,-1,-1,-1,-1,-1,-1,-1,-1,-1,-1,-1,-1,-1,-1,-1,-1,-1,-1,-1,-1,-1,-1,-1,-1,-1,-1],"loss_changes":[6.5072026E3,1.2127559E3,1.3184839E3,5.040786E2,5.875589E2,1.6214651E3,5.310427E2,3.6903204E2,2.4325E2,2.4883368E2,5.5344434E2,4.424458E2,9.5824786E2,3.9382056E2,0E0,2.0139551E2,5.034353E2,2.561479E2,2.402063E2,7.446796E1,2.2586131E2,6.415049E2,2.8171173E2,4.9113232E2,3.0771222E2,7.564509E2,8.0432733E2,4.6801074E2,1.2966423E3,2.1695222E2,2.4928668E2,6.3880664E2,8.180884E2,8.7465515E1,1.434919E2,9.764868E1,1.3677667E2,4.952301E1,0E0,1.14388885E2,2.3634859E2,8.181886E2,4.6505475E2,3.1401068E2,1.3760712E1,5.125825E2,7.110408E2,3.8626398E2,5.544007E2,9.4864404E2,2.4636752E2,6.645653E2,2.424729E2,4.9878845E2,3.5438037E2,1.844819E2,7.888085E2,0E0,0E0,0E0,0E0,0E0,0E0,0E0,0E0,0E0,0E0,0E0,0E0,0E0,0E0,0E0,0E0,0E0,0E0,0E0,0E0,0E0,0E0,0E0,0E0,0E0,0E0,0E0,0E0,0E0,0E0,0E0,0E0,0E0,0E0,0E0,0E0,0E0,0E0,0E0,0E0,0E0,0E0,0E0,0E0,0E0,0E0,0E0,0E0,0E0,0E0,0E0,0E0,0E0,0E0],"parents":[2147483647,0,0,1,1,2,2,3,3,4,4,5,5,6,6,7,7,8,8,9,9,10,10,11,11,12,12,13,13,15,15,16,16,17,17,18,18,19,19,20,20,21,21,22,22,23,23,24,24,25,25,26,26,27,27,28,28,29,29,30,30,31,31,32,32,33,33,34,34,35,35,36,36,37,37,39,39,40,40,41,41,42,42,43,43,44,44,45,45,46,46,47,47,48,48,49,49,50,50,51,51,52,52,53,53,54,54,55,55,56,56],"right_children":[2,4,6,8,10,12,14,16,18,20,22,24,26,28,-1,30,32,34,36,38,40,42,44,46,48,50,52,54,56,58,60,62,64,66,68,70,72,74,-1,76,78,80,82,84,86,88,90,92,94,96,98,100,102,104,106,108,110,-1,-1,-1,-1,-1,-1,-1,-1,-1,-1,-1,-1,-1,-1,-1,-1,-1,-1,-1,-1,-1,-1,-1,-1,-1,-1,-1,-1,-1,-1,-1,-1,-1,-1,-1,-1,-1,-1,-1,-1,-1,-1,-1,-1,-1,-1,-1,-1,-1,-1,-1,-1,-1,-1],"split_conditions":[3.1E1,1.9E1,5.5E1,2.193659E2,-4.0025835E0,1.9602652E1,9.8E1,9.179651E1,4E-1,1.972869E1,2.6257242E2,2.005402E2,2.1E1,4.0000004E-1,5.736281E0,3.338667E0,4.1E1,1.4E1,1.5122415E1,3.5386093E2,-1.1173833E1,1.0000001E0,6E1,2.8345E0,4.3E1,3.964906E1,2.0124083E1,7.308105E1,1.7000002E0,2.2828087E1,1.4314082E1,4.1E1,1.6E1,9E0,3.4897724E1,2.9913663E2,2.2541931E2,4.3E1,-3.5177967E-1,3E1,1.00000024E-1,4.7900295E1,6E1,2.5E1,2.5E1,1.1298495E1,9.866167E0,4E-1,2.7E1,2.736947E1,1.4E0,5.3E1,4.6E1,6.6E1,6.1E1,1.2815231E2,7.6745E0,3.4288245E-1,-4.642909E-1,-8.692685E-1,9.9573374E-2,-8.857993E-2,2.4664311E0,4.872049E0,-1.7510034E-2,-8.4482205E-1,-4.5638454E-1,-2.2819455E-1,4.4997135E-1,-7.7615684E-1,-4.3482608E-1,-1.2837813E0,1.3050124E-1,2.164798E0,-1.02647785E-2,2.327312E0,-5.956098E-1,1.9305024E-1,2.9250426E0,2.3215608E-1,4.538782E0,-2.3769903E-1,3.5121696E0,-2.4571045E-1,-1.0095179E0,6.377658E-1,3.0299351E0,-5.703773E-1,2.5147696E0,-7.7813524E-1,1.4037565E0,8.2002467E-1,-5.6028736E-1,-1.6091707E0,1.8477206E0,5.480373E-1,2.7941236E0,-1.9232438E0,2.6754338E-1,4.80331E-2,-2.1322086E0,1.0732994E0,3.2709486E0,-1.9245385E0,2.4023488E0,1.7905315E0,3.5980709E0,1.2529358E-1,-2.255446E0,-4.489844E-1,3.6960177E0],"split_indices":[0,0,0,6,3,5,0,6,4,5,6,6,1,7,0,3,2,0,3,6,3,4,2,3,0,5,3,6,7,5,3,1,1,0,5,6,6,1,0,1,7,5,1,2,0,5,3,4,1,5,7,0,0,0,1,6,3,0,0,0,0,0,0,0,0,0,0,0,0,0,0,0,0,0,0,0,0,0,0,0,0,0,0,0,0,0,0,0,0,0,0,0,0,0,0,0,0,0,0,0,0,0,0,0,0,0,0,0,0,0,0],"split_type":[0,0,0,0,0,0,0,0,0,0,0,0,0,0,0,0,0,0,0,0,0,0,0,0,0,0,0,0,0,0,0,0,0,0,0,0,0,0,0,0,0,0,0,0,0,0,0,0,0,0,0,0,0,0,0,0,0,0,0,0,0,0,0,0,0,0,0,0,0,0,0,0,0,0,0,0,0,0,0,0,0,0,0,0,0,0,0,0,0,0,0,0,0,0,0,0,0,0,0,0,0,0,0,0,0,0,0,0,0,0,0],"sum_hessian":[4.114E3,3.211E3,9.03E2,1.845E3,1.366E3,7.95E2,1.08E2,6.96E2,1.149E3,8.7E1,1.279E3,2.81E2,5.14E2,1.06E2,2E0,2.66E2,4.3E2,6.41E2,5.08E2,1.5E1,7.2E1,1.055E3,2.24E2,1.63E2,1.18E2,8.7E1,4.27E2,7.6E1,3E1,1.23E2,1.43E2,4.18E2,1.2E1,3.07E2,3.34E2,4.52E2,5.6E1,1.4E1,1E0,8E0,6.4E1,6.12E2,4.43E2,2.22E2,2E0,5.4E1,1.09E2,8.2E1,3.6E1,6.8E1,1.9E1,4.03E2,2.4E1,8E0,6.8E1,1.3E1,1.7E1,4.9E1,7.4E1,1.13E2,3E1,4.1E2,8E0,4E0,8E0,6.9E1,2.38E2,3.04E2,3E1,3.5E2,1.02E2,6E0,5E1,1.3E1,1E0,7E0,1E0,6.2E1,2E0,6.09E2,3E0,4.41E2,2E0,1.51E2,7.1E1,1E0,1E0,5E0,4.9E1,1.5E1,9.4E1,5.6E1,2.6E1,4E0,3.2E1,3.6E1,3.2E1,6E0,1.3E1,3.91E2,1.2E1,1.8E1,6E0,5E0,3E0,5.5E1,1.3E1,4E0,9E0,6E0,1.1E1],"tree_param":{"num_deleted":"0","num_feature":"8","num_nodes":"111","size_leaf_vector":"1"}},{"base_weights":[2.8661374E-2,-3.867229E-1,1.994465E0,-6.5364015E-1,4.6967477E-1,2.7251782E0,3.9165053E-1,-1.617188E-1,-9.776E-1,7.905102E-1,-1.8097451E0,-2.3240313E-1,3.359518E0,1.2431077E0,-1.5236413E0,-3.848465E-1,1.502091E0,-8.875119E-1,-2.6575134E0,5.747698E-1,4.0380692E0,-3.0453355E0,5.3949566E0,3.0648856E0,-2.9193246E0,2.8102894E0,6.1462984E0,2.0083323E0,-2.2036881E0,3.2983508E0,-2.578163E0,-2.1918762E-1,-4.395986E0,4.8649483E0,1.4752184E-1,-1.4905137E0,-6.2781376E-1,-2.956341E0,3.6845906E0,9.359199E-1,-1.2793267E0,5.8944225E0,2.3914638E0,2.2854848E0,-3.6981E0,-5.29894E0,8.510009E0,-2.82846E0,3.970527E0,-6.232378E0,2.196222E0,7.7828813E0,2.2701411E0,4.1849256E0,1.0777856E1,-3.4700043E0,2.5484316E0,5.956365E-1,-5.694829E0,1.4886908E-1,4.1241E0,-4.661431E0,1.6514485E-1,-7.446844E-2,3.7699754E0,-1.7046331E0,-1.4515555E-1,-1.5025537E0,1.8901525E0,1.1562923E0,-3.9082393E-1,-1.4259503E0,-4.1680503E-1,-3.968694E-2,-2.996451E-1,3.0648708E-1,-9.935712E-1,-4.5227148E-2,2.2785952E0,2.2823854E-1,1.8442187E0,9.695943E-1,-8.636076E-1,3.033352E0,1.0095052E0,2.314676E-1,1.9340135E0,-8.477294E-1,2.3885663E0,-1.6705769E0,-4.5763406E-1,-8.724976E-3,-2.1137595E0,4.9008122E-1,3.9565065E0,4.1121042E-1,2.2378857E0,-7.316206E-1,-2.8198185E0,-1.5721737E0,2.2772412E0,1.3734574E0,6.4322867E0,9.600415E-1,-1.0301678E-1,1.915757E0,-1.1396213E0,5.3552904E0,2.0930026E0,9.508824E-1,-1.5344664E0,1.3505247E0,2.6594073E-1,-2.0333307E0,7.9793346E-1,-2.5894454E0,-5.8338803E-1,2.0992448E0,-6.4516294E-1,6.5599096E-1,-2.1961699E0,1.4065917E0,-5.2445287E-1],"categories":[],"categories_nodes":[],"categories_segments":[],"categories_sizes":[],"default_left":[1,0,0,0,1,0,0,0,0,0,0,0,0,0,0,0,0,0,1,0,0,0,0,0,0,0,0,0,0,0,0,0,0,0,0,0,0,0,0,0,0,0,0,0,0,0,0,0,0,0,0,0,0,0,0,0,0,0,0,0,0,0,0,0,0,0,0,0,0,0,0,0,0,0,0,0,0,0,0,0,0,0,0,0,0,0,0,0,0,0,0,0,0,0,0,0,0,0,0,0,0,0,0,0,0,0,0,0,0,0,0,0,0,0,0,0,0,0,0,0,0,0,0],"id":6,"left_children":[1,3,5,7,9,11,13,15,17,19,21,23,25,27,29,31,33,35,37,39,41,43,45,47,49,51,53,55,57,59,61,63,65,67,69,71,73,75,77,79,81,83,85,87,89,91,93,-1,95,97,99,101,103,105,107,109,111,113,115,117,-1,119,121,-1,-1,-1,-1,-1,-1,-1,-1,-1,-1,-1,-1,-1,-1,-1,-1,-1,-1,-1,-1,-1,-1,-1,-1,-1,-1,-1,-1,-1,-1,-1,-1,-1,-1,-1,-1,-1,-1,-1,-1,-1,-1,-1,-1,-1,-1,-1,-1,-1,-1,-1,-1,-1,-1,-1,-1,-1,-1,-1,-1],"loss_changes":[3.3609316E3,7.770467E2,8.398528E2,4.1275073E2,5.9233606E2,9.257036E2,3.704524E2,3.829574E2,2.3403491E2,4.9442545E2,9.066355E2,7.885883E2,6.041426E2,4.1852472E2,3.6444632E2,6.0304956E2,5.550194E2,2.314563E2,1.606134E2,4.471557E2,1.20397705E2,3.0771222E2,5.447748E2,4.9000513E2,8.4414355E2,8.982363E2,5.5445337E2,3.9053406E2,2.8680432E2,4.257553E2,3.322425E2,3.2764014E2,1.783844E2,5.276442E2,4.780945E2,1.4060376E2,1.9087866E2,1.1087921E2,6.114103E1,5.0458643E2,7.9576373E2,1.7929315E2,1.592539E2,3.1263348E2,3.044276E2,3.6619255E1,3.6449786E2,0E0,3.3447418E2,3.375133E2,8.421488E2,1.3462455E3,7.521467E2,8.6768976E2,3.8629688E2,1.4726884E2,3.7907745E2,2.7676315E2,1.2638464E2,1.8827402E2,0E0,6.1693536E2,2.3322386E2,0E0,0E0,0E0,0E0,0E0,0E0,0E0,0E0,0E0,0E0,0E0,0E0,0E0,0E0,0E0,0E0,0E0,0E0,0E0,0E0,0E0,0E0,0E0,0E0,0E0,0E0,0E0,0E0,0E0,0E0,0E0,0E0,0E0,0E0,0E0,0E0,0E0,0E0,0E0,0E0,0E0,0E0,0E0,0E0,0E0,0E0,0E0,0E0,0E0,0E0,0E0,0E0,0E0,0E0,0E0,0E0,0E0,0E0,0E0,0E0],"parents":[2147483647,0,0,1,1,2,2,3,3,4,4,5,5,6,6,7,7,8,8,9,9,10,10,11,11,12,12,13,13,14,14,15,15,16,16,17,17,18,18,19,19,20,20,21,21,22,22,23,23,24,24,25,25,26,26,27,27,28,28,29,29,30,30,31,31,32,32,33,33,34,34,35,35,36,36,37,37,38,38,39,39,40,40,41,41,42,42,43,43,44,44,45,45,46,46,48,48,49,49,50,50,51,51,52,52,53,53,54,54,55,55,56,56,57,57,58,58,59,59,61,61,62,62],"right_children":[2,4,6,8,10,12,14,16,18,20,22,24,26,28,30,32,34,36,38,40,42,44,46,48,50,52,54,56,58,60,62,64,66,68,70,72,74,76,78,80,82,84,86,88,90,92,94,-1,96,98,100,102,104,106,108,110,112,114,116,118,-1,120,122,-1,-1,-1,-1,-1,-1,-1,-1,-1,-1,-1,-1,-1,-1,-1,-1,-1,-1,-1,-1,-1,-1,-1,-1,-1,-1,-1,-1,-1,-1,-1,-1,-1,-1,-1,-1,-1,-1,-1,-1,-1,-1,-1,-1,-1,-1,-1,-1,-1,-1,-1,-1,-1,-1,-1,-1,-1,-1,-1,-1],"split_conditions":[3.4E1,2.4E1,2.2467151E2,2.1461894E2,3.7E1,7.308105E1,2.8227304E1,2.0219032E2,3.5E1,1.865325E1,5.5E1,-2.5442498E0,5.6E1,5.1E1,2.1E1,4.533428E1,9.9999994E-2,1.3E1,6.6E1,3.5320385E1,2.1485697E1,-4.4005E0,6.696761E1,1.4E1,9.9999994E-2,2E1,1.9507773E2,2.2E1,1.944E1,2E1,9.9574175E0,6E1,2.4E1,-1.0025834E0,2.0512775E2,6E0,1E-1,-1.6692499E0,1.3E1,3.3948975E1,-1.3525834E0,2.8E1,2.0584917E1,2E-1,3.7E1,5.7E1,4.3E1,-2.82846E0,-8.285916E0,1.7208603E1,5.1515827E0,2.1461894E2,1.9257092E2,6.6E1,2.9E1,1E1,2.5697232E2,5.4E1,9.9999994E-2,1.3E1,4.1241E0,4.5533335E-1,1.3870334E1,-7.446844E-2,3.7699754E0,-1.7046331E0,-1.4515555E-1,-1.5025537E0,1.8901525E0,1.1562923E0,-3.9082393E-1,-1.4259503E0,-4.1680503E-1,-3.968694E-2,-2.996451E-1,3.0648708E-1,-9.935712E-1,-4.5227148E-2,2.2785952E0,2.2823854E-1,1.8442187E0,9.695943E-1,-8.636076E-1,3.033352E0,1.0095052E0,2.314676E-1,1.9340135E0,-8.477294E-1,2.3885663E0,-1.6705769E0,-4.5763406E-1,-8.724976E-3,-2.1137595E0,4.9008122E-1,3.9565065E0,4.1121042E-1,2.2378857E0,-7.316206E-1,-2.8198185E0,-1.5721737E0,2.2772412E0,1.3734574E0,6.4322867E0,9.600415E-1,-1.0301678E-1,1.915757E0,-1.1396213E0,5.3552904E0,2.0930026E0,9.508824E-1,-1.5344664E0,1.3505247E0,2.6594073E-1,-2.0333307E0,7.9793346E-1,-2.5894454E0,-5.8338803E-1,2.0992448E0,-6.4516294E-1,6.5599096E-1,-2.1961699E0,1.4065917E0,-5.2445287E-1],"split_indices":[0,0,6,6,1,6,5,6,1,3,2,3,0,1,1,5,7,0,2,5,5,3,6,1,7,1,6,1,5,1,3,1,2,3,6,0,4,3,0,5,3,0,3,4,2,1,1,0,3,5,3,6,6,0,2,2,6,1,7,2,0,3,3,0,0,0,0,0,0,0,0,0,0,0,0,0,0,0,0,0,0,0,0,0,0,0,0,0,0,0,0,0,0,0,0,0,0,0,0,0,0,0,0,0,0,0,0,0,0,0,0,0,0,0,0,0,0,0,0,0,0,0,0],"split_type":[0,0,0,0,0,0,0,0,0,0,0,0,0,0,0,0,0,0,0,0,0,0,0,0,0,0,0,0,0,0,0,0,0,0,0,0,0,0,0,0,0,0,0,0,0,0,0,0,0,0,0,0,0,0,0,0,0,0,0,0,0,0,0,0,0,0,0,0,0,0,0,0,0,0,0,0,0,0,0,0,0,0,0,0,0,0,0,0,0,0,0,0,0,0,0,0,0,0,0,0,0,0,0,0,0,0,0,0,0,0,0,0,0,0,0,0,0,0,0,0,0,0,0],"sum_hessian":[4.114E3,3.397E3,7.17E2,2.59E3,8.07E2,4.92E2,2.25E2,1.029E3,1.561E3,7.08E2,9.9E1,8.7E1,4.05E2,1.56E2,6.9E1,9.08E2,1.21E2,1.483E3,7.8E1,6.65E2,4.3E1,8.5E1,1.4E1,3.9E1,4.8E1,3.4E2,6.5E1,1.28E2,2.8E1,1.2E1,5.7E1,8.73E2,3.5E1,3.4E1,8.7E1,4.45E2,1.038E3,7.5E1,3E0,5.57E2,1.08E2,1.9E1,2.4E1,9E0,7.6E1,3E0,1.1E1,2E0,3.7E1,2.9E1,1.9E1,3.2E1,3.08E2,4.7E1,1.8E1,1.1E1,1.17E2,1.6E1,1.2E1,1E1,2E0,3.2E1,2.5E1,8.72E2,1E0,2.6E1,9E0,4E0,3E1,2.4E1,6.3E1,1.2E1,4.33E2,4.45E2,5.93E2,6E0,6.9E1,2E0,1E0,5.4E2,1.7E1,2.8E1,8E1,6E0,1.3E1,1.8E1,6E0,5E0,4E0,4E1,3.6E1,1E0,2E0,5E0,6E0,2.2E1,1.5E1,1.4E1,1.5E1,8E0,1.1E1,2.7E1,5E0,2.27E2,8.1E1,3.7E1,1E1,5E0,1.3E1,2E0,9E0,5.3E1,6.4E1,3E0,1.3E1,6E0,6E0,2E0,8E0,9E0,2.3E1,7E0,1.8E1],"tree_param":{"num_deleted":"0","num_feature":"8","num_nodes":"123","size_leaf_vector":"1"}},{"base_weights":[2.6841158E-2,-2.5629622E-1,1.5201771E0,-3.3156806E-1,2.565901E0,5.6533366E-1,2.4503095E0,1.0129957E0,-4.7292283E-1,2.1236749E0,8.403121E0,2.9228756E0,-1.0213501E0,1.0901302E1,2.0993307E0,8.525697E-1,6.479699E0,-2.3701023E-1,-1.2119863E0,4.6160793E0,1.336224E0,8.5782707E-1,3.1380346E0,2.1454802E0,1.04532585E1,-2.3324007E-1,-5.1831822E0,6.075137E0,2.5267756E0,1.841525E0,6.8825455E0,2.313352E0,1.5589556E-1,2.376807E0,3.3042338E0,-1.689431E0,-8.59064E-2,-1.1543195E0,-9.435076E0,1.7039388E0,6.415511E0,7.4152815E-1,1.6665233E0,2.737189E0,-3.9666538E0,-1.4685984E0,1.4590389E1,-5.747337E-1,7.556863E0,-1.3280167E1,-1.2671359E0,5.3151927E0,-1.1676953E0,2.7448459E0,3.039887E-1,4.8023443E0,3.5767689E0,5.587658E-1,3.1788573E0,9.0937454E-1,-6.2438224E-2,-2.4075367E-1,9.51952E-1,-2.740236E-1,-1.0506023E0,2.6158348E-2,-5.1306903E-1,-2.4237636E-1,-7.0041585E-1,-8.269478E-1,-3.1246796E0,1.679657E0,-6.2619455E-2,2.4515038E0,9.892191E-1,3.1814188E-1,-1.6696789E0,8.9812005E-1,-1.4428995E0,-2.0594645E0,1.8150742E0,1.4771233E-1,-6.859143E-1,1.4167076E0,5.6212034E0,2.4859802E-1,-8.351194E-1,1.2789991E0,3.1581392E0,-4.619609E0,-1.8758098E0,3.3401912E-1,-1.6716729E0,2.4419461E-1,1.8157916E0,6.071683E-1,2.5557227E0,-2.3476908E0,3.2260305E-1,1.7466776E0,-1.6143686E-1],"categories":[],"categories_nodes":[],"categories_segments":[],"categories_sizes":[],"default_left":[1,0,0,0,0,0,0,0,0,0,0,0,0,0,0,0,0,0,0,0,0,0,0,0,0,0,0,0,0,0,0,0,0,0,0,0,0,1,0,0,0,0,0,0,0,0,0,0,0,0,0,0,0,0,0,0,0,0,0,0,0,0,0,0,0,0,0,0,0,0,0,0,0,0,0,0,0,0,0,0,0,0,0,0,0,0,0,0,0,0,0,0,0,0,0,0,0,0,0,0,0],"id":7,"left_children":[1,3,5,7,9,11,13,15,17,19,21,23,25,27,29,31,33,35,37,39,41,-1,-1,43,45,47,49,-1,51,53,55,57,59,61,-1,63,65,67,69,71,73,75,-1,77,79,81,83,85,87,89,91,93,-1,95,97,99,-1,-1,-1,-1,-1,-1,-1,-1,-1,-1,-1,-1,-1,-1,-1,-1,-1,-1,-1,-1,-1,-1,-1,-1,-1,-1,-1,-1,-1,-1,-1,-1,-1,-1,-1,-1,-1,-1,-1,-1,-1,-1,-1,-1,-1],"loss_changes":[1.7402908E3,7.3586566E2,5.812285E2,6.4117303E2,2.1447797E2,1.2187041E3,9.618661E2,2.7599295E2,5.316681E2,1.6065677E2,3.8510193E1,7.4445825E2,6.383875E2,9.666631E2,3.8193066E2,3.181762E2,1.4125949E2,5.076999E2,3.39068E2,9.3872345E1,1.6147043E2,0E0,0E0,4.4485004E2,6.1329456E2,4.4328775E2,9.661255E2,0E0,1.6388129E2,4.227766E2,1.104917E2,3.5738776E2,2.235768E2,1.7737923E1,0E0,3.0343866E2,5.8976654E2,2.9823798E2,4.0319824E0,6.8215904E1,3.876587E1,1.2458796E2,0E0,2.2737E2,3.608781E2,7.54035E0,2.7981604E2,4.9522162E2,2.3598083E1,5.259558E1,2.3167E2,1.4989655E1,0E0,7.820426E2,7.232893E2,7.394171E1,0E0,0E0,0E0,0E0,0E0,0E0,0E0,0E0,0E0,0E0,0E0,0E0,0E0,0E0,0E0,0E0,0E0,0E0,0E0,0E0,0E0,0E0,0E0,0E0,0E0,0E0,0E0,0E0,0E0,0E0,0E0,0E0,0E0,0E0,0E0,0E0,0E0,0E0,0E0,0E0,0E0,0E0,0E0,0E0,0E0],"parents":[2147483647,0,0,1,1,2,2,3,3,4,4,5,5,6,6,7,7,8,8,9,9,10,10,11,11,12,12,13,13,14,14,15,15,16,16,17,17,18,18,19,19,20,20,23,23,24,24,25,25,26,26,28,28,29,29,30,30,31,31,32,32,33,33,35,35,36,36,37,37,38,38,39,39,40,40,41,41,43,43,44,44,45,45,46,46,47,47,48,48,49,49,50,50,51,51,53,53,54,54,55,55],"right_children":[2,4,6,8,10,12,14,16,18,20,22,24,26,28,30,32,34,36,38,40,42,-1,-1,44,46,48,50,-1,52,54,56,58,60,62,-1,64,66,68,70,72,74,76,-1,78,80,82,84,86,88,90,92,94,-1,96,98,100,-1,-1,-1,-1,-1,-1,-1,-1,-1,-1,-1,-1,-1,-1,-1,-1,-1,-1,-1,-1,-1,-1,-1,-1,-1,-1,-1,-1,-1,-1,-1,-1,-1,-1,-1,-1,-1,-1,-1,-1,-1,-1,-1,-1,-1],"split_conditions":[3.5E1,1.865325E1,8.1995E0,-2.1796668E0,3.4E1,2.124305E1,8.974083E0,8.4E0,2.6766083E2,1.5696165E1,3.2E1,6.6E1,5.2E1,3.1E1,2.3141165E1,2.0948164E1,-3.292167E0,5.7902287E1,1.8153666E1,2.5E1,2.1530748E1,8.5782707E-1,3.1380346E0,5.359916E0,4.1E1,5.1E1,5.5E1,6.075137E0,4E-1,1.7862E1,4.9E1,2.0833395E1,-9.123417E0,1.5E1,3.3042338E0,2.2E1,8.099999E0,2.3E1,1E1,1.1605042E2,1.9597418E1,4.6E1,1.6665233E0,6.6E1,5.3E1,6.7E1,1.5696165E1,3.6E1,5.1E1,2.6880335E1,2.484916E0,3.6E1,-1.1676953E0,1.71495E1,1.8153666E1,4.8E1,3.5767689E0,5.587658E-1,3.1788573E0,9.0937454E-1,-6.2438224E-2,-2.4075367E-1,9.51952E-1,-2.740236E-1,-1.0506023E0,2.6158348E-2,-5.1306903E-1,-2.4237636E-1,-7.0041585E-1,-8.269478E-1,-3.1246796E0,1.679657E0,-6.2619455E-2,2.4515038E0,9.892191E-1,3.1814188E-1,-1.6696789E0,8.9812005E-1,-1.4428995E0,-2.0594645E0,1.8150742E0,1.4771233E-1,-6.859143E-1,1.4167076E0,5.6212034E0,2.4859802E-1,-8.351194E-1,1.2789991E0,3.1581392E0,-4.619609E0,-1.8758098E0,3.3401912E-1,-1.6716729E0,2.4419461E-1,1.8157916E0,6.071683E-1,2.5557227E0,-2.3476908E0,3.2260305E-1,1.7466776E0,-1.6143686E-1],"split_indices":[0,3,3,3,0,5,3,4,6,5,1,0,0,2,3,5,3,6,3,0,3,0,0,3,1,0,0,0,4,3,1,5,3,1,0,1,4,1,0,6,3,1,0,1,0,0,5,1,1,5,3,0,0,3,3,0,0,0,0,0,0,0,0,0,0,0,0,0,0,0,0,0,0,0,0,0,0,0,0,0,0,0,0,0,0,0,0,0,0,0,0,0,0,0,0,0,0,0,0,0,0],"split_type":[0,0,0,0,0,0,0,0,0,0,0,0,0,0,0,0,0,0,0,0,0,0,0,0,0,0,0,0,0,0,0,0,0,0,0,0,0,0,0,0,0,0,0,0,0,0,0,0,0,0,0,0,0,0,0,0,0,0,0,0,0,0,0,0,0,0,0,0,0,0,0,0,0,0,0,0,0,0,0,0,0,0,0,0,0,0,0,0,0,0,0,0,0,0,0,0,0,0,0,0,0],"sum_hessian":[4.114E3,3.459E3,6.55E2,3.37E3,8.9E1,3.24E2,3.31E2,3.2E2,3.05E3,8.4E1,5E0,1.3E2,1.94E2,1.2E1,3.19E2,3.12E2,8E0,2.313E3,7.37E2,1.9E1,6.5E1,2E0,3E0,1.19E2,1.1E1,1.64E2,3E1,5E0,7E0,3.04E2,1.5E1,1E2,2.12E2,5E0,3E0,2.17E2,2.096E3,7.33E2,4E0,8E0,1.1E1,5.8E1,7E0,1.09E2,1E1,3E0,8E0,1.58E2,6E0,9E0,2.1E1,5E0,2E0,1.91E2,1.13E2,1.2E1,3E0,9.6E1,4E0,2.3E1,1.89E2,1E0,4E0,1.53E2,6.4E1,1.895E3,2.01E2,5.68E2,1.65E2,1E0,3E0,2E0,6E0,6E0,5E0,5.6E1,2E0,1.06E2,3E0,8E0,2E0,1E0,2E0,3E0,5E0,9.7E1,6.1E1,4E0,2E0,6E0,3E0,1.4E1,7E0,1E0,4E0,1.71E2,2E1,9E0,1.04E2,1E1,2E0],"tree_param":{"num_deleted":"0","num_feature":"8","num_nodes":"101","size_leaf_vector":"1"}},{"base_weights":[2.5169533E-2,-3.5051474E-1,6.641121E-1,-2.037006E0,-2.911288E-1,1.027334E0,-3.9831525E-1,1.0990218E0,-2.2121713E0,1.2407556E-1,-5.492002E-1,1.1682976E0,-1.875154E0,5.000649E-1,-1.7578057E0,-2.499859E0,5.2692044E-1,7.9554796E-1,-1.4626038E-1,-5.732788E-1,5.7225027E0,1.0813992E0,5.3139653E0,4.5573535E0,-3.1199853E0,3.1968303E0,3.2280537E-1,-3.7196606E-1,-4.20113E0,-2.0772173E0,-4.6512876E0,7.3741096E-1,-1.5095797E0,6.720917E-1,1.1806037E1,-3.5007304E-1,1.359263E0,-5.878659E-1,3.2814395E0,-7.6076034E-3,2.0631442E0,5.812674E0,1.0127143E0,-1.9013634E0,8.138549E0,2.795909E-1,4.89403E0,-4.0067244E0,2.266131E0,3.140017E0,-2.983763E-1,2.4041224E0,-1.7751757E0,-5.0166183E0,5.1778603E-2,-3.2290804E-1,-9.827189E-1,-1.5743926E0,2.8684074E-1,-5.3273314E-1,-6.671849E-2,1.4968581E-1,1.4298985E0,-6.430235E-1,5.95574E0,-2.0319657E-1,1.2975794E-1,-1.1259894E0,5.6594384E-1,-1.2537341E-1,-3.524535E-1,3.0478022E0,2.2182713E-1,-1.0633073E-1,3.750434E-1,-1.301534E0,8.382689E-1,9.3867876E-2,3.216308E0,3.9501718E-1,1.5650913E0,4.494181E-1,-1.4580938E0,-1.1774764E0,1.6582608E0,2.63592E-1,2.145576E0,-4.4163078E-1,3.4553373E-1,-1.6455346E0,1.003361E0,-6.965214E-1,1.2505494E0,-1.9739103E0,-8.304164E-1,-6.499674E-1,1.1762769E0],"categories":[],"categories_nodes":[],"categories_segments":[],"categories_sizes":[],"default_left":[1,1,0,0,0,0,0,0,0,0,0,0,0,0,0,0,0,0,0,0,0,0,0,0,0,0,0,0,0,0,0,0,0,0,0,0,0,0,0,0,0,0,0,0,0,0,0,0,0,0,0,0,0,0,0,0,0,0,0,0,0,0,0,0,0,0,0,0,0,0,0,0,0,0,0,0,0,0,0,0,0,0,0,0,0,0,0,0,0,0,0,0,0,0,0,0,0],"id":8,"left_children":[1,3,5,7,9,11,13,-1,15,17,19,21,23,25,27,29,31,33,35,37,39,41,43,45,47,-1,49,51,53,55,57,-1,59,61,63,65,67,69,-1,-1,-1,71,73,75,77,-1,79,81,83,85,87,89,91,93,95,-1,-1,-1,-1,-1,-1,-1,-1,-1,-1,-1,-1,-1,-1,-1,-1,-1,-1,-1,-1,-1,-1,-1,-1,-1,-1,-1,-1,-1,-1,-1,-1,-1,-1,-1,-1,-1,-1,-1,-1,-1,-1],"loss_changes":[9.8800006E2,2.590057E2,5.885161E2,9.597342E1,2.684848E2,4.669796E2,4.7597995E2,0E0,6.908551E1,1.7456009E2,2.3659674E2,3.8476636E2,4.3861038E2,4.196198E2,5.23276E2,6.126239E1,3.9105064E1,3.6723584E2,2.1097131E2,2.6502396E2,3.9994797E1,3.3955383E2,4.6384088E2,6.4241486E0,2.2400336E2,0E0,4.0693695E2,3.9381116E2,1.9447882E2,7.684326E1,4.5168304E1,0E0,1.3183022E0,1.9185275E2,3.7928177E2,1.5523633E2,2.2810541E2,1.5303925E2,0E0,0E0,0E0,3.2326376E2,3.4095142E2,9.222746E1,3.1999866E2,0E0,2.3727417E0,1.9053491E2,1.6303584E2,3.7475784E2,3.2679385E2,2.705962E2,2.2733357E2,1.4697754E2,9.432555E1,0E0,0E0,0E0,0E0,0E0,0E0,0E0,0E0,0E0,0E0,0E0,0E0,0E0,0E0,0E0,0E0,0E0,0E0,0E0,0E0,0E0,0E0,0E0,0E0,0E0,0E0,0E0,0E0,0E0,0E0,0E0,0E0,0E0,0E0,0E0,0E0,0E0,0E0,0E0,0E0,0E0,0E0],"parents":[2147483647,0,0,1,1,2,2,3,3,4,4,5,5,6,6,8,8,9,9,10,10,11,11,12,12,13,13,14,14,15,15,16,16,17,17,18,18,19,19,20,20,21,21,22,22,23,23,24,24,26,26,27,27,28,28,29,29,30,30,32,32,33,33,34,34,35,35,36,36,37,37,41,41,42,42,43,43,44,44,46,46,47,47,48,48,49,49,50,50,51,51,52,52,53,53,54,54],"right_children":[2,4,6,8,10,12,14,-1,16,18,20,22,24,26,28,30,32,34,36,38,40,42,44,46,48,-1,50,52,54,56,58,-1,60,62,64,66,68,70,-1,-1,-1,72,74,76,78,-1,80,82,84,86,88,90,92,94,96,-1,-1,-1,-1,-1,-1,-1,-1,-1,-1,-1,-1,-1,-1,-1,-1,-1,-1,-1,-1,-1,-1,-1,-1,-1,-1,-1,-1,-1,-1,-1,-1,-1,-1,-1,-1,-1,-1,-1,-1,-1,-1],"split_conditions":[2.4E1,8E0,2.3815372E2,-9.123417E0,2.3664352E1,1.1E1,2.4248611E1,1.0990218E0,1.4057836E1,2.3828332E0,6E1,6.6E1,2.0730501E1,-1.2829667E1,1.1528252E1,3.725261E1,2.2624142E2,2.6999998E0,2.2E1,6E1,1.3E1,9.290511E0,4.8E1,2.5E1,1.6664083E1,3.1968303E0,1.8E1,2.8227304E1,4.3E1,4.8661666E0,5.2E0,7.3741096E-1,1.4E1,2.1661665E0,1.2E1,1.4374501E1,3.4265835E0,2.702682E2,3.2814395E0,-7.6076034E-3,2.0631442E0,1.3870334E1,7.066523E1,1.9E0,1.2974168E0,2.795909E-1,1.1500002E1,8E-1,3.2E1,3.1E1,3.2E1,2.3975319E2,5.1E1,2.8277763E1,2.5516745E2,-3.2290804E-1,-9.827189E-1,-1.5743926E0,2.8684074E-1,-5.3273314E-1,-6.671849E-2,1.4968581E-1,1.4298985E0,-6.430235E-1,5.95574E0,-2.0319657E-1,1.2975794E-1,-1.1259894E0,5.6594384E-1,-1.2537341E-1,-3.524535E-1,3.0478022E0,2.2182713E-1,-1.0633073E-1,3.750434E-1,-1.301534E0,8.382689E-1,9.3867876E-2,3.216308E0,3.9501718E-1,1.5650913E0,4.494181E-1,-1.4580938E0,-1.1774764E0,1.6582608E0,2.63592E-1,2.145576E0,-4.4163078E-1,3.4553373E-1,-1.6455346E0,1.003361E0,-6.965214E-1,1.2505494E0,-1.9739103E0,-8.304164E-1,-6.499674E-1,1.1762769E0],"split_indices":[0,2,6,3,5,4,5,0,3,3,2,1,5,3,3,5,6,7,0,1,0,5,2,0,3,0,2,5,0,3,4,0,0,3,0,3,3,6,0,0,0,3,6,4,3,0,4,7,1,0,2,6,2,5,6,0,0,0,0,0,0,0,0,0,0,0,0,0,0,0,0,0,0,0,0,0,0,0,0,0,0,0,0,0,0,0,0,0,0,0,0,0,0,0,0,0,0],"split_type":[0,0,0,0,0,0,0,0,0,0,0,0,0,0,0,0,0,0,0,0,0,0,0,0,0,0,0,0,0,0,0,0,0,0,0,0,0,0,0,0,0,0,0,0,0,0,0,0,0,0,0,0,0,0,0,0,0,0,0,0,0,0,0,0,0,0,0,0,0,0,0,0,0,0,0,0,0,0,0,0,0,0,0,0,0,0,0,0,0,0,0,0,0,0,0,0,0],"sum_hessian":[4.114E3,2.591E3,1.523E3,8.7E1,2.504E3,1.135E3,3.88E2,2E0,8.5E1,9.6E2,1.544E3,1.083E3,5.2E1,2.34E2,1.54E2,7.7E1,8E0,2.75E2,6.85E2,1.539E3,5E0,1.062E3,2.1E1,8E0,4.4E1,3E0,2.31E2,9.9E1,5.5E1,6.6E1,1.1E1,4E0,4E0,2.73E2,2E0,6.04E2,8.1E1,1.538E3,1E0,1E0,4E0,1.4E1,1.048E3,6E0,1.5E1,1E0,7E0,3.8E1,6E0,4.1E1,1.9E2,3.3E1,6.6E1,4.6E1,9E0,3.7E1,2.9E1,1E1,1E0,3E0,1E0,2.63E2,1E1,1E0,1E0,4.26E2,1.78E2,7E0,7.4E1,1.194E3,3.44E2,7E0,7E0,1.55E2,8.93E2,4E0,2E0,4E0,1.1E1,1E0,6E0,5E0,3.3E1,2E0,4E0,2.7E1,1.4E1,1.05E2,8.5E1,3E0,3E1,6.1E1,5E0,2.6E1,2E1,6E0,3E0],"tree_param":{"num_deleted":"0","num_feature":"8","num_nodes":"97","size_leaf_vector":"1"}},{"base_weights":[2.272284E-2,-1.0781739E-2,3.9287076E0,-2.4566644E-1,3.9653727E-1,-1.8116393E0,4.3994813E0,4.7986332E-1,-3.1762242E-1,4.347426E0,3.344931E-1,5.0533714E0,-1.2125535E0,6.7217916E-1,-4.40272E0,-1.6458966E0,-2.4685289E-1,1.5472472E0,7.8329334E0,4.6738768E-1,-1.282213E0,4.340451E0,2.6876116E0,-7.403483E-1,1.297687E0,-1.1584345E-1,-5.610993E0,2.2147074E0,-2.267104E0,-9.690127E-1,-1.39273E-1,4.56465E0,-1.286386E0,8.938744E0,-3.1790316E-1,6.7385244E-1,-6.113802E-1,9.7849643E-1,-2.159503E0,2.420832E0,4.841201E0,3.4811497E-2,-8.6613506E-1,8.194369E-1,1.8656683E-1,-1.9776936E-1,1.456398E-1,-2.0178409E0,-5.646273E-1,1.1521466E0,-2.830732E-2,-7.6637495E-1,1.1635207E0,2.0543885E-1,-3.6183205E-1,2.4830025E-1,-1.0945966E-1,1.4915962E0,3.180937E-1,-1.563914E0,1.1830608E0,2.9039688E0,4.514288E-1,1.8106453E-1,1.6751335E0,1.8372508E0,-2.4895981E-1,-8.954055E-1,1.1541706E0,-7.358632E-1,1.8857565E0,1.1480498E0,1.7436935E-2,1.5137507E0,8.158093E-2],"categories":[],"categories_nodes":[],"categories_segments":[],"categories_sizes":[],"default_left":[0,0,0,0,0,0,0,0,0,0,0,0,0,0,0,0,0,0,0,0,0,0,0,0,0,0,0,0,0,0,0,0,0,0,0,0,0,0,0,0,0,0,0,0,0,0,0,0,0,0,0,0,0,0,0,0,0,0,0,0,0,0,0,0,0,0,0,0,0,0,0,0,0,0,0],"id":9,"left_children":[1,3,5,7,9,-1,11,13,15,17,19,21,-1,23,25,27,29,31,33,35,37,39,-1,41,43,45,47,49,51,53,55,57,59,61,-1,63,65,67,69,71,73,-1,-1,-1,-1,-1,-1,-1,-1,-1,-1,-1,-1,-1,-1,-1,-1,-1,-1,-1,-1,-1,-1,-1,-1,-1,-1,-1,-1,-1,-1,-1,-1,-1,-1],"loss_changes":[5.3856573E2,3.9053897E2,1.9080286E2,1.3531427E2,3.6452435E2,0E0,2.0809485E2,2.2268503E2,2.210609E2,2.1236151E2,3.1664578E2,5.020941E1,0E0,2.006424E2,4.5967438E1,2.9041104E2,1.7373495E2,1.2557488E2,1.07807556E2,3.0332147E2,2.2424243E2,1.6156494E1,0E0,1.2902747E2,1.5042459E2,1.3002669E0,1.6448608E1,6.418096E1,1.9187823E2,1.1453735E2,4.254462E2,4.720276E0,1.8484685E2,3.5021484E1,0E0,3.9083417E2,3.2736734E2,3.753014E2,2.1610818E2,2.6353329E1,1.9198486E1,0E0,0E0,0E0,0E0,0E0,0E0,0E0,0E0,0E0,0E0,0E0,0E0,0E0,0E0,0E0,0E0,0E0,0E0,0E0,0E0,0E0,0E0,0E0,0E0,0E0,0E0,0E0,0E0,0E0,0E0,0E0,0E0,0E0,0E0],"parents":[2147483647,0,0,1,1,2,2,3,3,4,4,6,6,7,7,8,8,9,9,10,10,11,11,13,13,14,14,15,15,16,16,17,17,18,18,19,19,20,20,21,21,23,23,24,24,25,25,26,26,27,27,28,28,29,29,30,30,31,31,32,32,33,33,35,35,36,36,37,37,38,38,39,39,40,40],"right_children":[2,4,6,8,10,-1,12,14,16,18,20,22,-1,24,26,28,30,32,34,36,38,40,-1,42,44,46,48,50,52,54,56,58,60,62,-1,64,66,68,70,72,74,-1,-1,-1,-1,-1,-1,-1,-1,-1,-1,-1,-1,-1,-1,-1,-1,-1,-1,-1,-1,-1,-1,-1,-1,-1,-1,-1,-1,-1,-1,-1,-1,-1,-1],"split_conditions":[2.2374083E1,2.4E1,7.470848E1,-1.9321667E0,9.290511E0,-1.8116393E0,5.4E1,3.8E1,-5.6925005E-1,3.7E1,4.057633E1,4.9E1,-1.2125535E0,1.4E1,1.5517629E1,4.1476723E1,9.005141E1,1.2914083E1,1.5345333E1,2.5798422E2,1.9E1,1.210157E1,2.6876116E0,1.7E1,2.1385939E1,1.9E1,1.9E1,1.8E1,6E-1,1.2E1,1.9121011E2,3.9E1,1E-1,5.5E1,-3.1790316E-1,2.5516745E2,-1.1173833E1,1.9257092E2,1.7600002E1,1.1592895E1,2.4739456E2,3.4811497E-2,-8.6613506E-1,8.194369E-1,1.8656683E-1,-1.9776936E-1,1.456398E-1,-2.0178409E0,-5.646273E-1,1.1521466E0,-2.830732E-2,-7.6637495E-1,1.1635207E0,2.0543885E-1,-3.6183205E-1,2.4830025E-1,-1.0945966E-1,1.4915962E0,3.180937E-1,-1.563914E0,1.1830608E0,2.9039688E0,4.514288E-1,1.8106453E-1,1.6751335E0,1.8372508E0,-2.4895981E-1,-8.954055E-1,1.1541706E0,-7.358632E-1,1.8857565E0,1.1480498E0,1.7436935E-2,1.5137507E0,8.158093E-2],"split_indices":[3,0,6,3,5,0,1,1,3,2,5,1,0,2,5,6,6,3,3,6,1,5,0,1,5,0,0,0,7,2,6,1,4,1,0,6,3,6,7,5,6,0,0,0,0,0,0,0,0,0,0,0,0,0,0,0,0,0,0,0,0,0,0,0,0,0,0,0,0,0,0,0,0,0,0],"split_type":[0,0,0,0,0,0,0,0,0,0,0,0,0,0,0,0,0,0,0,0,0,0,0,0,0,0,0,0,0,0,0,0,0,0,0,0,0,0,0,0,0,0,0,0,0,0,0,0,0,0,0,0,0,0,0,0,0,0,0,0,0,0,0,0,0,0,0,0,0,0,0,0,0,0,0],"sum_hessian":[4.114E3,4.08E3,3.4E1,2.588E3,1.492E3,1E0,3.3E1,2.33E2,2.355E3,2.2E1,1.47E3,3.1E1,2E0,2.25E2,8E0,1.18E2,2.237E3,1.3E1,9E0,1.359E3,1.11E2,2.8E1,3E0,6.9E1,1.56E2,2E0,6E0,1.6E1,1.02E2,2.89E2,1.948E3,6E0,7E0,8E0,1E0,1.141E3,2.18E2,3.1E1,8E1,7E0,2.1E1,5E1,1.9E1,4.9E1,1.07E2,1E0,1E0,4E0,2E0,9E0,7E0,9.8E1,4E0,3.6E1,2.53E2,3.68E2,1.58E3,5E0,1E0,4E0,3E0,7E0,1E0,1.126E3,1.5E1,6E0,2.12E2,1.3E1,1.8E1,7.8E1,2E0,4E0,3E0,2E1,1E0],"tree_param":{"num_deleted":"0","num_feature":"8","num_nodes":"75","size_leaf_vector":"1"}},{"base_weights":[1.8527249E-2,2.5973755E-1,-3.1151685E-1,7.089928E-1,-7.41852E-2,-3.604672E-1,3.3541498E0,2.7287188E-1,2.8725998E0,-4.1721177E0,-1.6327064E-2,-3.2272732E-1,-3.714248E0,3.5397775E0,1.9879843E0,1.0806855E0,-3.9914823E-1,3.0661273E0,-2.6767435E0,1.9710717E0,-5.447158E0,-6.405388E-2,5.2986193E0,-1.2820491E-1,-8.924893E-1,-2.3856278E-1,-4.625193E0,4.7742887E0,-4.9960136E-1,6.974147E-1,5.27487E0,-1.1716574E0,1.0946143E0,2.497638E0,1.0248351E1,6.804602E-1,1.619528E-1,-2.6477747E0,-3.9550092E0,6.88054E0,-8.484482E-2,8.962421E0,-1.623188E0,2.5351572E-1,-8.123291E-1,-1.1140615E0,9.0329707E-1,4.5049313E-1,-1.0490253E0,-2.039107E0,-8.578728E-1,6.7231026E0,1.7029238E-1,1.6905566E0,-2.9715188E0,3.1906196E-1,-7.9784423E-1,4.0592706E-1,3.7916687E0,-5.7563925E-1,1.9034909E-1,9.39681E-1,1.2697634E-1,4.1667363E-1,1.1674609E0,4.051993E0,1.06532484E-1,-1.5819323E0,1.3732505E0,5.0250036E-1,2.4172158E0,1.5777636E-2,-3.2569325E-1,5.150719E0,1.0096091E0,-2.4981995E0,1.6866056E0,-2.740401E-1,2.0537372E-1,-3.7072158E-1,3.5146195E-2,-2.4578561E-1,-7.9096067E-1,-4.8129275E-2,5.9211296E-1,-9.1298394E-2,-3.5874453E-1,2.2086148E0,4.3341354E-1,-3.1656477E-1,5.7702255E-1,-2.0215303E-1,8.313256E-1,-7.960701E-2,-1.2774782E0],"categories":[],"categories_nodes":[],"categories_segments":[],"categories_sizes":[],"default_left":[0,0,0,0,0,0,0,0,0,0,1,0,0,0,0,0,0,0,0,0,0,0,0,0,0,0,0,0,0,0,0,0,0,0,0,0,0,0,0,0,0,0,0,0,0,0,0,0,0,0,0,0,0,0,0,0,0,0,0,0,0,0,0,0,0,0,0,0,0,0,0,0,0,0,0,0,0,0,0,0,0,0,0,0,0,0,0,0,0,0,0,0,0,0,0],"id":10,"left_children":[1,3,5,7,9,11,13,15,17,19,21,23,25,-1,27,29,31,33,-1,35,37,39,41,43,45,47,49,51,53,55,57,59,61,63,65,-1,-1,67,-1,69,71,73,75,77,79,81,83,-1,85,-1,-1,87,89,91,93,-1,-1,-1,-1,-1,-1,-1,-1,-1,-1,-1,-1,-1,-1,-1,-1,-1,-1,-1,-1,-1,-1,-1,-1,-1,-1,-1,-1,-1,-1,-1,-1,-1,-1,-1,-1,-1,-1,-1,-1],"loss_changes":[3.2767624E2,3.5679196E2,3.130683E2,9.560207E2,3.2357166E2,2.159976E2,2.4190384E2,4.5915393E2,4.1541187E2,1.5956018E2,3.420268E2,1.8807742E2,5.905362E1,0E0,1.4793983E2,6.136044E2,5.344053E2,6.603502E2,0E0,4.765663E-1,3.115991E2,1.9348163E2,3.188693E2,3.3107578E2,1.7289746E2,8.627123E0,3.8082733E1,8.857846E1,6.99902E1,4.366809E2,9.0706116E2,4.1279977E2,2.1481825E2,2.372309E2,3.820244E2,0E0,0E0,2.7073148E2,0E0,1.1008347E1,1.8340697E2,3.0968433E2,2.896809E2,4.101027E2,1.7881735E2,1.7062369E2,5.4970783E1,0E0,7.3336124E-2,0E0,0E0,1.29721985E1,1.0623444E1,1.975089E1,1.9762836E1,0E0,0E0,0E0,0E0,0E0,0E0,0E0,0E0,0E0,0E0,0E0,0E0,0E0,0E0,0E0,0E0,0E0,0E0,0E0,0E0,0E0,0E0,0E0,0E0,0E0,0E0,0E0,0E0,0E0,0E0,0E0,0E0,0E0,0E0,0E0,0E0,0E0,0E0,0E0,0E0],"parents":[2147483647,0,0,1,1,2,2,3,3,4,4,5,5,6,6,7,7,8,8,9,9,10,10,11,11,12,12,14,14,15,15,16,16,17,17,19,19,20,20,21,21,22,22,23,23,24,24,25,25,26,26,27,27,28,28,29,29,30,30,31,31,32,32,33,33,34,34,37,37,39,39,40,40,41,41,42,42,43,43,44,44,45,45,46,46,48,48,51,51,52,52,53,53,54,54],"right_children":[2,4,6,8,10,12,14,16,18,20,22,24,26,-1,28,30,32,34,-1,36,38,40,42,44,46,48,50,52,54,56,58,60,62,64,66,-1,-1,68,-1,70,72,74,76,78,80,82,84,-1,86,-1,-1,88,90,92,94,-1,-1,-1,-1,-1,-1,-1,-1,-1,-1,-1,-1,-1,-1,-1,-1,-1,-1,-1,-1,-1,-1,-1,-1,-1,-1,-1,-1,-1,-1,-1,-1,-1,-1,-1,-1,-1,-1,-1,-1],"split_conditions":[2.7257967E1,1.940612E2,5.9E1,1.9E0,1.964718E2,5.6137207E1,2.8406372E1,4.5578337E0,6E1,1.1885453E1,6.6E1,2.5177692E2,1.3E1,3.5397775E0,5.5E1,1.7962114E2,1.641408E1,1.8413216E2,-2.6767435E0,1.3416167E1,3.2E1,-1.2829667E1,4.0000004E-1,3.5E0,3.298871E2,3.2E0,1.6E1,9.9999994E-2,3.1072817E1,1.5571474E2,1.2974168E0,2.6E1,2.2E1,2.1385939E1,1.3870334E1,6.804602E-1,1.619528E-1,1.5222416E1,-3.9550092E0,3.1E1,3.7E1,2.1346481E2,7.2E1,1.3467262E2,1.0287E1,2.3E1,9.9999994E-2,4.5049313E-1,9E0,-2.039107E0,-8.578728E-1,6.4E1,6.1E1,7.53075E0,1E-1,3.1906196E-1,-7.9784423E-1,4.0592706E-1,3.7916687E0,-5.7563925E-1,1.9034909E-1,9.39681E-1,1.2697634E-1,4.1667363E-1,1.1674609E0,4.051993E0,1.06532484E-1,-1.5819323E0,1.3732505E0,5.0250036E-1,2.4172158E0,1.5777636E-2,-3.2569325E-1,5.150719E0,1.0096091E0,-2.4981995E0,1.6866056E0,-2.740401E-1,2.0537372E-1,-3.7072158E-1,3.5146195E-2,-2.4578561E-1,-7.9096067E-1,-4.8129275E-2,5.9211296E-1,-9.1298394E-2,-3.5874453E-1,2.2086148E0,4.3341354E-1,-3.1656477E-1,5.7702255E-1,-2.0215303E-1,8.313256E-1,-7.960701E-2,-1.2774782E0],"split_indices":[5,6,0,7,6,5,5,3,2,5,0,6,0,0,1,6,3,6,0,3,1,3,7,4,6,4,1,7,5,6,3,2,1,5,3,0,0,3,0,0,1,6,0,6,3,0,7,0,0,0,0,0,0,3,4,0,0,0,0,0,0,0,0,0,0,0,0,0,0,0,0,0,0,0,0,0,0,0,0,0,0,0,0,0,0,0,0,0,0,0,0,0,0,0,0],"split_type":[0,0,0,0,0,0,0,0,0,0,0,0,0,0,0,0,0,0,0,0,0,0,0,0,0,0,0,0,0,0,0,0,0,0,0,0,0,0,0,0,0,0,0,0,0,0,0,0,0,0,0,0,0,0,0,0,0,0,0,0,0,0,0,0,0,0,0,0,0,0,0,0,0,0,0,0,0,0,0,0,0,0,0,0,0,0,0,0,0,0,0,0,0,0,0],"sum_hessian":[4.114E3,2.377E3,1.737E3,1.013E3,1.364E3,1.715E3,2.2E1,8.44E2,1.69E2,1.8E1,1.346E3,1.697E3,1.8E1,2E0,2E1,3.83E2,4.61E2,1.67E2,2E0,3E0,1.5E1,1.335E3,1.1E1,1.266E3,4.31E2,4E0,1.4E1,9E0,1.1E1,3.52E2,3.1E1,3.04E2,1.57E2,1.56E2,1.1E1,2E0,1E0,1.2E1,3E0,3E0,1.332E3,7E0,4E0,8.13E2,4.53E2,3.84E2,4.7E1,1E0,3E0,5E0,9E0,6E0,3E0,6E0,5E0,3.18E2,3.4E1,2.1E1,1E1,2.15E2,8.9E1,3.8E1,1.19E2,8.8E1,6.8E1,8E0,3E0,9E0,3E0,1E0,2E0,1.172E3,1.6E2,2E0,5E0,2E0,2E0,2.19E2,5.94E2,3.11E2,1.42E2,3.23E2,6.1E1,2.4E1,2.3E1,1E0,2E0,5E0,1E0,2E0,1E0,2E0,4E0,2E0,3E0],"tree_param":{"num_deleted":"0","num_feature":"8","num_nodes":"95","size_leaf_vector":"1"}},{"base_weights":[1.6377255E-2,9.790481E-1,-5.2550327E-2,-1.2990402E0,1.3276263E0,-7.983504E-2,2.4173183E0,-4.014403E0,5.283286E-1,1.4076461E0,-2.657558E0,-9.7378924E-2,5.038323E0,3.0315347E0,-8.202569E-1,-1.6524916E0,-1.4169161E0,-2.1858215E0,1.0447422E0,2.3000028E0,4.332121E-1,-8.7583624E-2,-6.2570853E0,6.2310963E0,-3.0438608E-1,-7.233712E-1,3.758185E0,-5.894575E-1,-6.04537E-2,-6.717968E-2,-8.295422E-1,1.7033232E0,2.158288E-1,6.930202E-1,3.7016995E0,1.1959988E0,-3.0381188E0,1.2674816E0,-1.2547663E-1,-1.619339E-3,-3.7536037E0,7.3896255E0,6.784757E-1,-2.4220169E0,7.046486E-1,5.8725233E0,2.37103E0,6.551728E-1,-9.186297E-2,4.0480855E-1,-2.2942607E-1,5.401359E-1,-2.991014E-1,4.2610455E0,9.4547683E-1,6.050094E-1,-1.690207E-1,-1.9675853E0,4.4708756E-1,5.535018E-1,-5.2879256E-1,-4.2487076E-1,-2.4699474E-2,9.0216523E-1,-1.3542194E0,2.9451363E0,5.702932E-1,-1.6672726E-1,4.7204134E-1,4.286402E-1,-1.1225765E0,8.4491735E-3,1.9203806E0,-7.1040505E-1,1.0876186E0],"categories":[],"categories_nodes":[],"categories_segments":[],"categories_sizes":[],"default_left":[0,0,0,0,0,1,0,0,0,0,0,1,0,0,0,0,0,0,0,0,0,0,0,0,0,0,0,0,0,0,0,0,0,0,0,0,0,0,0,0,0,0,0,0,0,0,0,0,0,0,0,0,0,0,0,0,0,0,0,0,0,0,0,0,0,0,0,0,0,0,0,0,0,0,0],"id":11,"left_children":[1,3,5,7,9,11,13,15,17,19,-1,21,23,25,-1,27,-1,29,31,33,35,37,39,41,-1,43,45,-1,-1,-1,-1,47,49,51,53,55,57,59,61,63,-1,65,67,69,-1,71,73,-1,-1,-1,-1,-1,-1,-1,-1,-1,-1,-1,-1,-1,-1,-1,-1,-1,-1,-1,-1,-1,-1,-1,-1,-1,-1,-1,-1],"loss_changes":[2.7310052E2,2.201E2,2.590367E2,1.8571378E2,2.0727673E2,3.417015E2,1.4118266E2,1.7301758E1,3.4520973E1,2.0595477E2,0E0,2.2800539E2,1.00179474E2,1.064017E2,0E0,1.870245E0,0E0,3.9270344E0,1.05505085E1,2.7674493E2,3.0814035E2,1.9440659E2,2.3474458E2,6.5747925E1,0E0,4.2218956E1,7.992938E1,0E0,0E0,0E0,0E0,1.1292028E1,1.2147154E1,1.12218796E2,3.365277E2,1.383104E2,3.4456183E2,1.83499E2,2.0487784E2,6.788362E1,0E0,1.0125079E2,4.188368E0,3.0760017E1,0E0,3.6901794E1,1.3341939E2,0E0,0E0,0E0,0E0,0E0,0E0,0E0,0E0,0E0,0E0,0E0,0E0,0E0,0E0,0E0,0E0,0E0,0E0,0E0,0E0,0E0,0E0,0E0,0E0,0E0,0E0,0E0,0E0],"parents":[2147483647,0,0,1,1,2,2,3,3,4,4,5,5,6,6,7,7,8,8,9,9,11,11,12,12,13,13,15,15,17,17,18,18,19,19,20,20,21,21,22,22,23,23,25,25,26,26,31,31,32,32,33,33,34,34,35,35,36,36,37,37,38,38,39,39,41,41,42,42,43,43,45,45,46,46],"right_children":[2,4,6,8,10,12,14,16,18,20,-1,22,24,26,-1,28,-1,30,32,34,36,38,40,42,-1,44,46,-1,-1,-1,-1,48,50,52,54,56,58,60,62,64,-1,66,68,70,-1,72,74,-1,-1,-1,-1,-1,-1,-1,-1,-1,-1,-1,-1,-1,-1,-1,-1,-1,-1,-1,-1,-1,-1,-1,-1,-1,-1,-1,-1],"split_conditions":[1.3276144E1,1.5E1,2.1530748E1,1.1298495E1,7.1E1,7.4E1,5.5E1,1.2E1,8E0,2.0219032E2,-2.657558E0,6.8E1,2.4525717E2,8.516864E1,-8.202569E-1,1.4E1,-1.4169161E0,1.3E1,1.2594856E1,2.7E1,1.0000001E0,-6.786333E0,8.734917E0,8.1E1,-3.0438608E-1,4.2E1,1.1605042E2,-5.894575E-1,-6.04537E-2,-6.717968E-2,-8.295422E-1,1.5E1,1.7161666E0,1.279325E1,1.2E1,3.5E1,2.5516745E2,1.2000002E0,1.44E1,7.2E1,-3.7536037E0,2.8406372E1,9.8E1,3.4E1,7.046486E-1,2.4E1,1.46444E2,6.551728E-1,-9.186297E-2,4.0480855E-1,-2.2942607E-1,5.401359E-1,-2.991014E-1,4.2610455E0,9.4547683E-1,6.050094E-1,-1.690207E-1,-1.9675853E0,4.4708756E-1,5.535018E-1,-5.2879256E-1,-4.2487076E-1,-2.4699474E-2,9.0216523E-1,-1.3542194E0,2.9451363E0,5.702932E-1,-1.6672726E-1,4.7204134E-1,4.286402E-1,-1.1225765E0,8.4491735E-3,1.9203806E0,-7.1040505E-1,1.0876186E0],"split_indices":[5,1,3,5,0,0,1,1,2,6,0,0,6,6,0,0,0,0,5,0,4,3,3,1,0,1,6,0,0,0,0,2,3,3,2,0,6,4,5,0,0,5,0,1,0,1,6,0,0,0,0,0,0,0,0,0,0,0,0,0,0,0,0,0,0,0,0,0,0,0,0,0,0,0,0],"split_type":[0,0,0,0,0,0,0,0,0,0,0,0,0,0,0,0,0,0,0,0,0,0,0,0,0,0,0,0,0,0,0,0,0,0,0,0,0,0,0,0,0,0,0,0,0,0,0,0,0,0,0,0,0,0,0,0,0,0,0,0,0,0,0,0,0,0,0,0,0,0,0,0,0,0,0],"sum_hessian":[4.114E3,2.74E2,3.84E3,3.6E1,2.38E2,3.799E3,4.1E1,1.4E1,2.2E1,2.37E2,1E0,3.787E3,1.2E1,3.7E1,4E0,4E0,1E1,3E0,1.9E1,1.23E2,1.14E2,3.782E3,5E0,1E1,2E0,6E0,3.1E1,3E0,1E0,1E0,2E0,1E1,9E0,5.8E1,6.5E1,9.4E1,2E1,1.02E2,3.68E3,3E0,2E0,8E0,2E0,4E0,2E0,1.1E1,2E1,8E0,2E0,4E0,5E0,3.5E1,2.3E1,2E0,6.3E1,6.4E1,3E1,1.1E1,9E0,8.6E1,1.6E1,1.18E2,3.562E3,2E0,1E0,5E0,3E0,1E0,1E0,1E0,3E0,1E0,1E1,4E0,1.6E1],"tree_param":{"num_deleted":"0","num_feature":"8","num_nodes":"75","size_leaf_vector":"1"}},{"base_weights":[1.1431186E-2,-1.3646379E0,4.4640258E-2,-1.153908E0,-1.7926887E0,2.6019755E-1,-1.5884739E-1,-1.3537194E0,2.0022779E0,-5.430179E-1,4.0927085E-1,-1.8961953E-1,4.0654726E0,2.874855E0,-1.4839723E0,9.800864E-1,-3.5138354E-1,-1.3384651E0,1.2652084E0,7.8535444E-1,-2.1014318E-1,1.9054964E0,-2.4284372E-1,-1.4965851E0,6.2240925E0,2.608601E-1,1.0328248E0,-1.8160964E0,-1.9973333E-1,-3.1522065E-1,1.5709805E-1,9.219277E-1,-1.8345613E0,1.9890151E0,-2.6794415E0,4.817495E-1,1.5174605E0,2.3576197E-1,-8.990734E-1,-2.5131707E0,2.6655836E0,-2.2674099E-1,-6.6353707E0,3.838687E-1,-1.3527601E0,3.1720612E0,2.2281904E0,-4.1122183E-1,-1.291989E0,-8.3989537E-1,2.0406646E-1,1.4650373E0,9.889621E-2,-4.3157554E-1,-2.6934848E0,6.766517E-1,-2.859561E0,6.770002E-1,-1.4038625E0,3.0099887E-1,-2.1909764E-1,-5.5631506E-1,5.573197E-1,1.8910442E-1,-2.802033E-1,-2.0208484E-1,-2.0208657E0,-1.3908985E0,2.3072055E-1,1.206888E0,2.5067532E-1,-7.208022E-1,-5.4672364E-2,-2.6907268E0,4.0492517E-1,1.6503125E-1,-1.7225647E-2,-1.6746934E-1,1.3372693E0],"categories":[],"categories_nodes":[],"categories_segments":[],"categories_sizes":[],"default_left":[1,1,0,0,0,0,0,0,0,0,0,0,0,0,0,0,0,0,0,0,0,0,0,0,0,0,0,0,0,0,0,0,0,0,0,0,0,0,0,0,0,0,0,0,0,0,0,0,0,0,0,0,0,0,0,0,0,0,0,0,0,0,0,0,0,0,0,0,0,0,0,0,0,0,0,0,0,0,0],"id":12,"left_children":[1,3,5,7,-1,9,11,13,15,17,19,21,23,25,27,-1,29,31,33,35,37,39,41,43,45,-1,-1,47,49,-1,-1,51,53,55,57,59,61,63,65,67,69,71,73,75,-1,-1,77,-1,-1,-1,-1,-1,-1,-1,-1,-1,-1,-1,-1,-1,-1,-1,-1,-1,-1,-1,-1,-1,-1,-1,-1,-1,-1,-1,-1,-1,-1,-1,-1],"loss_changes":[1.881081E2,8.735698E1,1.7632773E2,6.1990837E1,0E0,2.3395078E2,2.69593E2,5.328598E1,1.9007673E1,4.4182806E2,3.8383606E2,2.2950604E2,1.8941039E2,4.2284393E-1,3.6745117E1,0E0,2.386119E0,2.405437E2,2.7371487E2,2.2709674E2,1.9159602E2,1.7798628E2,2.0478162E2,3.0056358E1,1.6761966E2,0E0,0E0,7.062991E1,4.5372776E1,0E0,0E0,8.9896225E1,4.821142E2,2.6711575E2,1.5865085E2,4.597057E2,3.4764783E2,1.755261E2,3.1788904E2,5.9315346E1,1.05934326E2,1.9321918E2,1.0528113E2,3.250168E-1,0E0,0E0,4.5972187E1,0E0,0E0,0E0,0E0,0E0,0E0,0E0,0E0,0E0,0E0,0E0,0E0,0E0,0E0,0E0,0E0,0E0,0E0,0E0,0E0,0E0,0E0,0E0,0E0,0E0,0E0,0E0,0E0,0E0,0E0,0E0,0E0],"parents":[2147483647,0,0,1,1,2,2,3,3,5,5,6,6,7,7,8,8,9,9,10,10,11,11,12,12,13,13,14,14,16,16,17,17,18,18,19,19,20,20,21,21,22,22,23,23,24,24,27,27,28,28,31,31,32,32,33,33,34,34,35,35,36,36,37,37,38,38,39,39,40,40,41,41,42,42,43,43,46,46],"right_children":[2,4,6,8,-1,10,12,14,16,18,20,22,24,26,28,-1,30,32,34,36,38,40,42,44,46,-1,-1,48,50,-1,-1,52,54,56,58,60,62,64,66,68,70,72,74,76,-1,-1,78,-1,-1,-1,-1,-1,-1,-1,-1,-1,-1,-1,-1,-1,-1,-1,-1,-1,-1,-1,-1,-1,-1,-1,-1,-1,-1,-1,-1,-1,-1,-1,-1],"split_conditions":[8E0,3.2E1,1E-1,2.6E1,-1.7926887E0,7.066523E1,6.6E1,-9.123417E0,2.9E1,1E-1,2.5798422E2,-1.3525834E0,4E1,1.6E1,1.5000002E0,9.800864E-1,3E1,-6.786333E0,3.8E1,3.2E1,5.497416E0,1.3E1,6.7E1,2.9E1,7.1E1,2.608601E-1,1.0328248E0,1.7000002E0,1E1,-3.1522065E-1,1.5709805E-1,1.6E1,4.2E1,5.1E1,2.0390114E1,2.4E1,-2.727584E0,1E-1,4.6E1,1.2000002E0,2.5999997E0,-2.6508334E-1,7.6E1,8.8411665E0,-1.3527601E0,3.1720612E0,1.3000002E0,-4.1122183E-1,-1.291989E0,-8.3989537E-1,2.0406646E-1,1.4650373E0,9.889621E-2,-4.3157554E-1,-2.6934848E0,6.766517E-1,-2.859561E0,6.770002E-1,-1.4038625E0,3.0099887E-1,-2.1909764E-1,-5.5631506E-1,5.573197E-1,1.8910442E-1,-2.802033E-1,-2.0208484E-1,-2.0208657E0,-1.3908985E0,2.3072055E-1,1.206888E0,2.5067532E-1,-7.208022E-1,-5.4672364E-2,-2.6907268E0,4.0492517E-1,1.6503125E-1,-1.7225647E-2,-1.6746934E-1,1.3372693E0],"split_indices":[2,0,7,0,0,6,1,3,0,4,6,3,0,0,7,0,0,3,1,0,3,1,0,0,1,0,0,4,1,0,0,2,0,0,5,1,3,4,0,4,4,3,0,3,0,0,4,0,0,0,0,0,0,0,0,0,0,0,0,0,0,0,0,0,0,0,0,0,0,0,0,0,0,0,0,0,0,0,0],"split_type":[0,0,0,0,0,0,0,0,0,0,0,0,0,0,0,0,0,0,0,0,0,0,0,0,0,0,0,0,0,0,0,0,0,0,0,0,0,0,0,0,0,0,0,0,0,0,0,0,0,0,0,0,0,0,0,0,0,0,0,0,0,0,0,0,0,0,0,0,0,0,0,0,0,0,0,0,0,0,0],"sum_hessian":[4.114E3,9.6E1,4.018E3,9.3E1,3E0,1.951E3,2.067E3,8.8E1,5E0,3.05E2,1.646E3,2.053E3,1.4E1,2E0,8.6E1,3E0,2E0,2.12E2,9.3E1,1.024E3,6.22E2,5E1,2.003E3,4E0,1E1,1E0,1E0,6.8E1,1.8E1,1E0,1E0,3.8E1,1.74E2,7.9E1,1.4E1,7.25E2,2.99E2,3.78E2,2.44E2,7E0,4.3E1,1.999E3,4E0,3E0,1E0,4E0,6E0,5.9E1,9E0,4E0,1.4E1,4E0,3.4E1,1.66E2,8E0,7.8E1,1E0,4E0,1E1,5.07E2,2.18E2,2.7E1,2.72E2,2.83E2,9.5E1,2.36E2,8E0,4E0,3E0,2.4E1,1.9E1,3.9E1,1.96E3,3E0,1E0,2E0,1E0,3E0,3E0],"tree_param":{"num_deleted":"0","num_feature":"8","num_nodes":"79","size_leaf_vector":"1"}},{"base_weights":[5.973833E-3,2.3425397E-2,-2.0290492E0,2.3028101E-1,-1.5652981E-1,-5.547785E0,-7.8098726E-1,1.8184288E-1,5.58197E0,3.8502367E0,-1.7303757E-1,-1.8042831E0,-2.7237684E-1,-1.4356483E0,4.9348507E0,-2.357964E-1,4.8129618E-1,1.2286659E1,8.078979E-1,4.8503566E0,2.3321152E-1,-1.0259309E-1,-1.0477422E0,-1.9617443E-1,-2.1205916E0,2.3800254E0,-1.593424E-1,-5.1424545E-1,6.3577354E-1,2.7297318E-1,1.8049017E0,1.5192032E-1,1.711017E1,-4.7290093E-1,1.8990278E0,5.3165183E0,3.0800802E-1,-1.6456032E-2,1.2140122E-1,-1.7093715E-1,1.3109539E0,-3.687207E0,-7.128587E-1,-1.0737273E0,8.961239E-1,-8.775159E-1,-8.3360565E-1,-9.870974E-2,-1.4767487E0,7.831429E-1,-4.8489284E-2,1.21756814E-1,-8.7701964E-1,2.4517233E0,4.3003747E-1,-4.5678437E-1,5.251485E-1,5.6841326E0,1.4643643E0,1.5850939E0,-3.2935813E-2,3.2304525E-1,1.7847285E0,-1.698883E-2,-2.5835454E-1,2.1412225E-1,1.584799E0,-1.2292075E0,4.928049E-1,-5.508075E-1,-2.5184764E-2,-4.4191143E-1,1.3842402E-1,5.9538805E-1,-1.473261E-1,1.7778054E-1,-6.3847643E-1],"categories":[],"categories_nodes":[],"categories_segments":[],"categories_sizes":[],"default_left":[0,0,0,0,0,0,0,0,0,0,0,0,0,0,0,0,0,0,0,0,0,0,0,0,0,0,0,0,0,0,0,0,0,0,0,0,0,0,0,0,0,0,0,0,0,0,0,0,0,0,0,0,0,0,0,0,0,0,0,0,0,0,0,0,0,0,0,0,0,0,0,0,0,0,0,0,0],"id":13,"left_children":[1,3,5,7,9,11,13,15,17,19,21,-1,-1,23,25,27,29,31,33,35,37,39,41,43,45,-1,-1,47,49,51,53,55,57,-1,59,61,-1,-1,-1,63,65,67,69,71,73,75,-1,-1,-1,-1,-1,-1,-1,-1,-1,-1,-1,-1,-1,-1,-1,-1,-1,-1,-1,-1,-1,-1,-1,-1,-1,-1,-1,-1,-1,-1,-1],"loss_changes":[1.4618901E2,1.5195024E2,1.4937325E2,4.912548E2,1.450558E2,1.4019623E1,1.0811699E2,2.3560802E2,5.34221E2,3.142598E1,1.3391193E2,0E0,0E0,2.080822E1,5.3384193E1,1.9132225E2,3.0199124E2,4.07125E2,3.161011E1,7.0186768E0,1.7037173E-1,1.9479166E2,1.4056549E2,1.0547688E1,1.0650627E1,0E0,0E0,4.8580994E2,3.0117758E2,4.042676E2,3.4069556E2,1.0695935E1,1.9834106E1,0E0,5.497262E1,9.685532E0,0E0,0E0,0E0,1.5159758E2,2.168215E2,4.6079773E1,1.02269485E2,4.3576694E0,8.52454E0,1.41323395E1,0E0,0E0,0E0,0E0,0E0,0E0,0E0,0E0,0E0,0E0,0E0,0E0,0E0,0E0,0E0,0E0,0E0,0E0,0E0,0E0,0E0,0E0,0E0,0E0,0E0,0E0,0E0,0E0,0E0,0E0,0E0],"parents":[2147483647,0,0,1,1,2,2,3,3,4,4,5,5,6,6,7,7,8,8,9,9,10,10,13,13,14,14,15,15,16,16,17,17,18,18,19,19,20,20,21,21,22,22,23,23,24,24,27,27,28,28,29,29,30,30,31,31,32,32,34,34,35,35,39,39,40,40,41,41,42,42,43,43,44,44,45,45],"right_children":[2,4,6,8,10,12,14,16,18,20,22,-1,-1,24,26,28,30,32,34,36,38,40,42,44,46,-1,-1,48,50,52,54,56,58,-1,60,62,-1,-1,-1,64,66,68,70,72,74,76,-1,-1,-1,-1,-1,-1,-1,-1,-1,-1,-1,-1,-1,-1,-1,-1,-1,-1,-1,-1,-1,-1,-1,-1,-1,-1,-1,-1,-1,-1,-1],"split_conditions":[5.364121E1,2.1346481E2,2.0427324E2,2.1281425E2,-1.1173833E1,1.3316166E1,1.81E1,1.019761E2,1.9849167E0,1E-1,4.2E1,-1.8042831E0,-2.7237684E-1,1.4E1,2.2E1,1.3416167E1,4E1,1.5E1,1.5978484E1,3.2E1,3.1E1,3.7E1,2.2294427E2,1.5E1,5.6137207E1,2.3800254E0,-1.593424E-1,9.781934E1,1.8E1,4.5E1,1.6E1,1.3E1,2.9E1,-4.7290093E-1,2.0056877E1,2E1,3.0800802E-1,-1.6456032E-2,1.2140122E-1,2.8E1,2.5000002E0,6.5E1,3E1,1.165575E1,2.4E1,1.9E1,-8.3360565E-1,-9.870974E-2,-1.4767487E0,7.831429E-1,-4.8489284E-2,1.21756814E-1,-8.7701964E-1,2.4517233E0,4.3003747E-1,-4.5678437E-1,5.251485E-1,5.6841326E0,1.4643643E0,1.5850939E0,-3.2935813E-2,3.2304525E-1,1.7847285E0,-1.698883E-2,-2.5835454E-1,2.1412225E-1,1.584799E0,-1.2292075E0,4.928049E-1,-5.508075E-1,-2.5184764E-2,-4.4191143E-1,1.3842402E-1,5.9538805E-1,-1.473261E-1,1.7778054E-1,-6.3847643E-1],"split_indices":[5,6,6,6,3,3,4,6,3,4,2,0,0,0,1,3,2,0,5,1,0,2,6,2,5,0,0,6,2,1,1,0,2,0,5,0,0,0,0,2,7,1,1,3,2,2,0,0,0,0,0,0,0,0,0,0,0,0,0,0,0,0,0,0,0,0,0,0,0,0,0,0,0,0,0,0,0],"split_type":[0,0,0,0,0,0,0,0,0,0,0,0,0,0,0,0,0,0,0,0,0,0,0,0,0,0,0,0,0,0,0,0,0,0,0,0,0,0,0,0,0,0,0,0,0,0,0,0,0,0,0,0,0,0,0,0,0,0,0,0,0,0,0,0,0,0,0,0,0,0,0,0,0,0,0,0,0],"sum_hessian":[4.114E3,4.08E3,3.4E1,1.898E3,2.182E3,8E0,2.6E1,1.882E3,1.6E1,8E0,2.174E3,7E0,1E0,2.4E1,2E0,7.86E2,1.096E3,6E0,1E1,6E0,2E0,2.013E3,1.61E2,9E0,1.5E1,1E0,1E0,5.96E2,1.9E2,9.48E2,1.48E2,2E0,4E0,3E0,7E0,5E0,1E0,1E0,1E0,1.921E3,9.2E1,1.7E1,1.44E2,5E0,4E0,6E0,9E0,5.73E2,2.3E1,5.4E1,1.36E2,9.11E2,3.7E1,7E0,1.41E2,1E0,1E0,3E0,1E0,2E0,5E0,1E0,4E0,1.649E3,2.72E2,8.1E1,1.1E1,1.6E1,1E0,5.1E1,9.3E1,4E0,1E0,2E0,2E0,3E0,3E0],"tree_param":{"num_deleted":"0","num_feature":"8","num_nodes":"77","size_leaf_vector":"1"}},{"base_weights":[6.9294022E-3,4.2070308E-1,-7.424007E-2,3.2270846E-1,4.4366875E0,-2.3945003E0,-4.0016238E-2,2.0291169E-1,2.5926983E0,5.3098845E0,-1.2991905E0,-2.9785705E0,2.3246377E0,-7.139855E-2,1.330183E0,-1.6239077E-1,8.357498E-1,9.117169E-2,5.244872E0,-1.8929693E-1,6.272403E0,-6.4858994E0,-1.3436146E0,-5.194508E-2,-2.2752283E0,5.3275876E0,3.4161448E-1,-2.9088497E-1,1.550546E0,1.3232038E0,-9.455485E-1,5.583519E-1,-1.1776338E0,7.829218E0,1.6818736E0,1.9704352E-1,6.6856346E0,1.2286555E0,-7.7672663E0,-4.15649E0,1.8239059E-1,-2.7822597E0,-3.942396E-2,-7.366E0,1.2450212E0,9.196783E0,-4.0817642E-1,-3.0851183E0,1.9274992E0,-5.9895065E-2,-9.8006815E-1,1.4036816E-1,1.2596071E0,5.805573E-1,-6.269949E-1,-1.3058764E0,-5.7865255E-2,4.3807146E-1,-1.2167206E-1,2.9134583E0,2.4822675E-1,1.0006467E0,-2.4168421E-1,2.7912164E0,1.4337133E0,8.3752446E-2,4.6914256E-1,-1.8855953E-1,-2.7024236E0,-1.5156052E0,6.42294E-2,1.2958457E0,-2.7477545E-1,-4.1602454E-1,-2.3706167E0,-1.997214E-2,4.5671874E-1,1.2459968E0,-3.0255594E0,1.5735632E0,-1.0013909E0,3.270867E0,6.4508176E-1,4.429107E-1,-6.572033E-1,3.7078142E-1,-1.652074E0,-6.64436E-1,9.267382E-1],"categories":[],"categories_nodes":[],"categories_segments":[],"categories_sizes":[],"default_left":[0,0,0,0,0,0,0,0,0,0,0,0,0,0,0,0,0,0,0,0,0,0,0,0,0,0,0,0,0,0,0,0,0,0,0,0,0,0,0,0,0,0,1,0,0,0,0,0,0,0,0,0,0,0,0,0,0,0,0,0,0,0,0,0,0,0,0,0,0,0,0,0,0,0,0,0,0,0,0,0,0,0,0,0,0,0,0,0,0],"id":14,"left_children":[1,3,5,7,9,11,13,15,17,19,-1,21,-1,23,25,27,29,31,33,-1,35,37,39,41,43,45,47,49,51,53,55,57,-1,59,61,-1,63,65,67,69,71,73,75,77,79,81,83,85,87,-1,-1,-1,-1,-1,-1,-1,-1,-1,-1,-1,-1,-1,-1,-1,-1,-1,-1,-1,-1,-1,-1,-1,-1,-1,-1,-1,-1,-1,-1,-1,-1,-1,-1,-1,-1,-1,-1,-1,-1],"loss_changes":[1.3823677E2,2.64211E2,2.731478E2,1.7895262E2,1.454848E2,3.1930014E2,1.4595103E2,1.4531508E2,2.1845976E2,8.9730804E1,0E0,2.6653317E2,0E0,1.420887E2,2.985099E2,8.8271904E1,2.0096034E2,3.596849E1,1.3416058E2,0E0,2.5775787E1,1.5782098E2,1.4670181E2,1.1233001E2,5.2887366E2,3.3664572E2,3.4287955E2,1.00351494E2,7.831199E1,3.821221E2,1.2739078E2,1.5371202E1,0E0,1.1058038E2,3.5593895E1,0E0,1.5442566E1,5.1808786E-1,1.0948999E2,4.8049377E1,1.0846387E2,9.621284E1,1.3897168E2,4.1776678E2,3.4749936E2,8.475476E1,2.6748678E1,2.1610046E2,2.1374896E2,0E0,0E0,0E0,0E0,0E0,0E0,0E0,0E0,0E0,0E0,0E0,0E0,0E0,0E0,0E0,0E0,0E0,0E0,0E0,0E0,0E0,0E0,0E0,0E0,0E0,0E0,0E0,0E0,0E0,0E0,0E0,0E0,0E0,0E0,0E0,0E0,0E0,0E0,0E0,0E0],"parents":[2147483647,0,0,1,1,2,2,3,3,4,4,5,5,6,6,7,7,8,8,9,9,11,11,13,13,14,14,15,15,16,16,17,17,18,18,20,20,21,21,22,22,23,23,24,24,25,25,26,26,27,27,28,28,29,29,30,30,31,31,33,33,34,34,36,36,37,37,38,38,39,39,40,40,41,41,42,42,43,43,44,44,45,45,46,46,47,47,48,48],"right_children":[2,4,6,8,10,12,14,16,18,20,-1,22,-1,24,26,28,30,32,34,-1,36,38,40,42,44,46,48,50,52,54,56,58,-1,60,62,-1,64,66,68,70,72,74,76,78,80,82,84,86,88,-1,-1,-1,-1,-1,-1,-1,-1,-1,-1,-1,-1,-1,-1,-1,-1,-1,-1,-1,-1,-1,-1,-1,-1,-1,-1,-1,-1,-1,-1,-1,-1,-1,-1,-1,-1,-1,-1,-1,-1],"split_conditions":[1.680857E1,1.6704155E1,1.7208603E1,3.4532355E2,4.8E1,5.5E1,5.5E1,2.9E1,1.4512064E1,-1.8046666E0,-1.2991905E0,1.1605042E2,2.3246377E0,5.2E1,3.7E1,1.7989082E1,2.4894522E2,3.5E1,1.5517629E1,-1.8929693E-1,1.2E1,-9.123417E0,5.976583E0,1.9346422E0,4.9745E0,1E-1,5.3E1,7.599999E0,3E-1,5.3E1,2.6163852E2,1.8E1,-1.1776338E0,1.0000001E-1,3.5386093E2,1.9704352E-1,2E1,2.3E1,1.2E1,2.6635013E2,2.0130981E2,3E1,5.5E1,2.0240198E1,4.1E1,2.780403E1,1.9E1,2.3261669E0,2.0620804E1,-5.9895065E-2,-9.8006815E-1,1.4036816E-1,1.2596071E0,5.805573E-1,-6.269949E-1,-1.3058764E0,-5.7865255E-2,4.3807146E-1,-1.2167206E-1,2.9134583E0,2.4822675E-1,1.0006467E0,-2.4168421E-1,2.7912164E0,1.4337133E0,8.3752446E-2,4.6914256E-1,-1.8855953E-1,-2.7024236E0,-1.5156052E0,6.42294E-2,1.2958457E0,-2.7477545E-1,-4.1602454E-1,-2.3706167E0,-1.997214E-2,4.5671874E-1,1.2459968E0,-3.0255594E0,1.5735632E0,-1.0013909E0,3.270867E0,6.4508176E-1,4.429107E-1,-6.572033E-1,3.7078142E-1,-1.652074E0,-6.64436E-1,9.267382E-1],"split_indices":[5,5,5,6,0,1,0,0,5,3,0,6,0,0,1,3,6,0,5,0,2,3,3,6,3,4,1,4,4,1,6,1,0,7,6,0,2,0,0,6,6,1,2,5,2,5,2,3,5,0,0,0,0,0,0,0,0,0,0,0,0,0,0,0,0,0,0,0,0,0,0,0,0,0,0,0,0,0,0,0,0,0,0,0,0,0,0,0,0],"split_type":[0,0,0,0,0,0,0,0,0,0,0,0,0,0,0,0,0,0,0,0,0,0,0,0,0,0,0,0,0,0,0,0,0,0,0,0,0,0,0,0,0,0,0,0,0,0,0,0,0,0,0,0,0,0,0,0,0,0,0,0,0,0,0,0,0,0,0,0,0,0,0,0,0,0,0,0,0,0,0,0,0,0,0,0,0,0,0,0,0],"sum_hessian":[4.114E3,6.74E2,3.44E3,6.59E2,1.5E1,4.9E1,3.391E3,6.27E2,3.2E1,1.4E1,1E0,4.7E1,2E0,3.316E3,7.5E1,3.98E2,2.29E2,1.7E1,1.5E1,2E0,1.2E1,1.4E1,3.3E1,3.288E3,2.8E1,1.4E1,6.1E1,3.71E2,2.7E1,1.8E2,4.9E1,1.6E1,1E0,8E0,7E0,1E0,1.1E1,2E0,1.2E1,1.1E1,2.2E1,1.4E1,3.274E3,1.1E1,1.7E1,8E0,6E0,1.9E1,4.2E1,3.61E2,1E1,2E1,7E0,1.53E2,2.7E1,8E0,4.1E1,8E0,8E0,6E0,2E0,4E0,3E0,3E0,8E0,1E0,1E0,2E0,1E1,9E0,2E0,4E0,1.8E1,1.2E1,2E0,3.219E3,5.5E1,2E0,9E0,9E0,8E0,6E0,2E0,3E0,3E0,7E0,1.2E1,9E0,3.3E1],"tree_param":{"num_deleted":"0","num_feature":"8","num_nodes":"89","size_leaf_vector":"1"}},{"base_weights":[5.73118E-3,4.9275126E-2,-6.8830764E-1,2.0163406E-2,1.6779507E0,-5.052957E0,-5.182219E-1,1.5740748E-2,2.5272555E0,1.0194523E1,1.1280394E0,-1.7088102E0,-5.604376E-1,2.4605584E0,-6.895489E-1,-6.9451284E-1,5.8680087E-2,3.775446E-1,3.826113E0,3.8220525E0,-4.3825483E-1,-3.0700297E0,5.2597117E0,-2.2183821E0,-1.0018339E-1,-4.3059617E-1,-2.3252404E0,1.2258943E0,2.2114439E-2,-3.4198985E-1,4.9358525E0,-2.6662505E0,6.524415E-1,-1.0212605E0,-2.6000148E-1,7.5762463E0,-1.8987719E0,-2.516917E0,4.491773E0,1.8174502E0,-7.649803E-1,1.2446047E-1,-2.549733E-1,-8.237948E-1,7.1303016E-1,1.913632E-1,1.7777627E0,-1.5098788E-3,3.8686693E-1,4.8367855E-1,-5.166544E-1,2.6510675E0,7.3668367E-1,5.3818705E-3,-1.01998E0,-1.542184E-1,1.9063402E0,2.1546517E-1,3.0527446E0,-1.1376286E-1,-7.406845E-1,-8.988371E-1,6.885887E-1,-6.485653E-3,2.0277836E0,9.973507E-1,-1.7830849E-1,-1.1187725E0,-1.4804518E-1],"categories":[],"categories_nodes":[],"categories_segments":[],"categories_sizes":[],"default_left":[0,0,0,0,0,0,0,1,0,0,0,0,0,0,0,0,0,0,0,0,0,0,0,0,0,0,0,0,0,0,0,0,0,0,0,0,0,0,0,0,0,0,0,0,0,0,0,0,0,0,0,0,0,0,0,0,0,0,0,0,0,0,0,0,0,0,0,0,0],"id":15,"left_children":[1,3,5,7,9,11,13,15,-1,17,19,-1,-1,21,23,25,27,-1,-1,29,31,33,35,37,39,41,43,45,47,49,51,53,55,-1,-1,57,59,61,63,65,67,-1,-1,-1,-1,-1,-1,-1,-1,-1,-1,-1,-1,-1,-1,-1,-1,-1,-1,-1,-1,-1,-1,-1,-1,-1,-1,-1,-1],"loss_changes":[1.2439412E2,1.8359885E2,1.7777606E2,1.4132916E2,3.069687E2,7.791931E0,1.2162785E2,1.1608495E2,0E0,7.542566E1,2.7595013E2,0E0,0E0,2.1740002E2,2.0071002E2,9.23904E1,1.5315121E2,0E0,0E0,1.12997894E2,1.0380237E2,7.3117447E-1,1.6363142E2,1.3550473E2,2.079139E2,6.700156E1,6.587654E1,2.974599E2,1.1977973E2,1.8960052E1,1.6213474E2,2.7631813E1,1.9615804E2,0E0,0E0,1.1748691E2,1.6630068E0,1.452396E2,3.0848553E1,1.5463443E2,9.553882E1,0E0,0E0,0E0,0E0,0E0,0E0,0E0,0E0,0E0,0E0,0E0,0E0,0E0,0E0,0E0,0E0,0E0,0E0,0E0,0E0,0E0,0E0,0E0,0E0,0E0,0E0,0E0,0E0],"parents":[2147483647,0,0,1,1,2,2,3,3,4,4,5,5,6,6,7,7,9,9,10,10,13,13,14,14,15,15,16,16,19,19,20,20,21,21,22,22,23,23,24,24,25,25,26,26,27,27,28,28,29,29,30,30,31,31,32,32,35,35,36,36,37,37,38,38,39,39,40,40],"right_children":[2,4,6,8,10,12,14,16,-1,18,20,-1,-1,22,24,26,28,-1,-1,30,32,34,36,38,40,42,44,46,48,50,52,54,56,-1,-1,58,60,62,64,66,68,-1,-1,-1,-1,-1,-1,-1,-1,-1,-1,-1,-1,-1,-1,-1,-1,-1,-1,-1,-1,-1,-1,-1,-1,-1,-1,-1,-1],"split_conditions":[7.999999E0,6.6999993E0,2.6099164E0,1.56E1,1.1E1,2.2499998E1,3.5703335E0,1E1,2.5272555E0,1.6E1,2.6518099E1,-1.7088102E0,-5.604376E-1,8.6E0,9.387E0,4.057633E1,1.1E1,3.775446E-1,3.826113E0,1.5E1,1.7E1,1.5E1,2.193659E2,3.9E1,1.4183217E2,2.3005388E2,2.6635013E2,1.5122415E1,3.5016214E2,1.2E1,1.46444E2,1.7606358E2,4.0271755E1,-1.0212605E0,-2.6000148E-1,2.661323E1,1.7E1,2.6563898E2,2.1E1,2.9035288E1,1.623834E2,1.2446047E-1,-2.549733E-1,-8.237948E-1,7.1303016E-1,1.913632E-1,1.7777627E0,-1.5098788E-3,3.8686693E-1,4.8367855E-1,-5.166544E-1,2.6510675E0,7.3668367E-1,5.3818705E-3,-1.01998E0,-1.542184E-1,1.9063402E0,2.1546517E-1,3.0527446E0,-1.1376286E-1,-7.406845E-1,-8.988371E-1,6.885887E-1,-6.485653E-3,2.0277836E0,9.973507E-1,-1.7830849E-1,-1.1187725E0,-1.4804518E-1],"split_indices":[7,7,3,4,2,4,3,2,0,0,5,0,0,7,3,5,2,0,0,0,2,1,6,1,6,6,6,3,6,0,6,6,5,0,0,5,0,6,0,5,6,0,0,0,0,0,0,0,0,0,0,0,0,0,0,0,0,0,0,0,0,0,0,0,0,0,0,0,0],"split_type":[0,0,0,0,0,0,0,0,0,0,0,0,0,0,0,0,0,0,0,0,0,0,0,0,0,0,0,0,0,0,0,0,0,0,0,0,0,0,0,0,0,0,0,0,0,0,0,0,0,0,0,0,0,0,0,0,0,0,0,0,0,0,0,0,0,0,0,0,0],"sum_hessian":[4.114E3,3.872E3,2.42E2,3.805E3,6.7E1,8E0,2.34E2,3.804E3,1E0,3E0,6.4E1,6E0,2E0,1.2E1,2.22E2,2.16E2,3.588E3,1E0,2E0,2.3E1,4.1E1,4E0,8E0,6.1E1,1.61E2,1.87E2,2.9E1,1.08E2,3.48E3,5E0,1.8E1,1.3E1,2.8E1,3E0,1E0,6E0,2E0,5.9E1,2E0,4.1E1,1.2E2,6.2E1,1.25E2,2.7E1,2E0,9.7E1,1.1E1,3.408E3,7.2E1,2E0,3E0,6E0,1.2E1,3E0,1E1,2.4E1,4E0,2E0,4E0,1E0,1E0,5.4E1,5E0,1E0,1E0,2.5E1,1.6E1,9E0,1.11E2],"tree_param":{"num_deleted":"0","num_feature":"8","num_nodes":"69","size_leaf_vector":"1"}},{"base_weights":[7.211034E-3,-8.6451894E-1,3.7677027E-2,-1.8429681E0,-2.7652034E-1,1.7407885E0,2.2985479E-2,1.5225891E0,-2.1551518E0,5.048723E-1,-1.3179547E0,3.7521577E-1,4.9806414E0,6.126363E-1,-1.742748E-2,4.541588E-2,7.476698E-1,-6.456244E-1,-3.3053167E0,3.4989762E0,1.7560865E-1,-3.507511E0,-7.1039325E-1,7.704732E-1,-1.3666444E0,5.7068653E0,-2.3330556E-1,-1.21315815E-1,1.63162E0,-9.827586E-1,5.8113005E-2,-8.6054996E-2,1.0649214E-1,3.309571E-1,-1.8506179E0,-5.329442E0,-2.3304005E0,1.3043123E0,1.5607453E-2,-2.7832282E0,6.7649275E-1,-4.0729127E0,6.7545034E-2,6.073719E-1,-9.688245E-1,-7.0802903E-1,2.911179E0,6.099545E0,3.848139E-1,1.0282153E0,-1.3489906E0,5.8359036E0,1.2288632E0,9.938708E-2,-2.065646E0,3.1986523E-1,-1.3147911E-1,2.3977251E-1,-2.7674806E-1,-7.5528365E-1,-6.621716E-2,-1.7269483E0,-3.5101175E-1,-8.511634E-1,-7.275799E-2,-2.0970155E-2,-9.671398E-1,-5.242595E-2,8.2447E-1,-1.4413761E0,4.7569945E-2,6.8532616E-1,-3.4997946E-1,6.0934767E-2,-5.335062E-1,1.1355284E0,-7.431092E-1,1.9490235E0,4.9787238E-1,-1.8429643E-1,4.4073462E-1,-8.915851E-1,1.3548681E-1,2.1771417E0,1.7231598E-1,3.0790898E-1,2.1897724E0,-3.8753143E-1,1.9730827E-1,-7.0790064E-1,8.580516E-1,8.169667E-2,1.2842035E0,1.8052239E-2,-1.569287E-1],"categories":[],"categories_nodes":[],"categories_segments":[],"categories_sizes":[],"default_left":[0,0,0,0,0,0,0,0,0,0,0,0,0,0,0,0,0,0,0,0,0,0,0,0,0,0,0,0,0,0,0,0,0,0,0,0,0,0,0,0,0,0,0,0,0,0,0,0,0,0,0,0,0,0,0,0,0,0,0,0,0,0,0,0,0,0,0,0,0,0,0,0,0,0,0,0,0,0,0,0,0,0,0,0,0,0,0,0,0,0,0,0,0,0,0],"id":16,"left_children":[1,3,5,7,9,11,13,15,17,19,21,23,25,27,29,31,-1,33,35,37,39,41,43,45,-1,47,-1,49,51,53,55,-1,-1,57,59,61,63,-1,-1,65,67,69,-1,-1,71,73,75,77,-1,79,81,83,85,87,89,91,93,-1,-1,-1,-1,-1,-1,-1,-1,-1,-1,-1,-1,-1,-1,-1,-1,-1,-1,-1,-1,-1,-1,-1,-1,-1,-1,-1,-1,-1,-1,-1,-1,-1,-1,-1,-1,-1,-1],"loss_changes":[1.0931924E2,7.946079E1,9.946987E1,5.791635E1,7.2277084E1,1.4855585E2,9.399436E1,7.0484705E0,8.120387E1,4.966388E1,4.8059303E1,5.2232235E1,4.625647E1,1.894129E2,2.6928357E2,4.103908E-1,0E0,2.6501513E1,4.086078E1,1.4401497E1,7.153845E1,1.7800636E1,2.3872276E1,7.8022125E1,0E0,7.8115234E0,0E0,2.102521E2,1.723187E2,3.142589E2,1.7001164E2,0E0,0E0,8.367924E0,1.0315598E1,7.4749146E0,2.0475029E1,0E0,0E0,8.142551E0,7.278624E1,2.2434303E1,0E0,0E0,2.1323786E1,1.4989531E1,5.6464195E1,3.3265991E0,0E0,5.6665504E1,2.1174942E2,6.3132263E1,1.12974945E2,1.0570324E2,2.008216E2,2.6981082E2,1.4916493E2,0E0,0E0,0E0,0E0,0E0,0E0,0E0,0E0,0E0,0E0,0E0,0E0,0E0,0E0,0E0,0E0,0E0,0E0,0E0,0E0,0E0,0E0,0E0,0E0,0E0,0E0,0E0,0E0,0E0,0E0,0E0,0E0,0E0,0E0,0E0,0E0,0E0,0E0],"parents":[2147483647,0,0,1,1,2,2,3,3,4,4,5,5,6,6,7,7,8,8,9,9,10,10,11,11,12,12,13,13,14,14,15,15,17,17,18,18,19,19,20,20,21,21,22,22,23,23,25,25,27,27,28,28,29,29,30,30,33,33,34,34,35,35,36,36,39,39,40,40,41,41,44,44,45,45,46,46,47,47,49,49,50,50,51,51,52,52,53,53,54,54,55,55,56,56],"right_children":[2,4,6,8,10,12,14,16,18,20,22,24,26,28,30,32,-1,34,36,38,40,42,44,46,-1,48,-1,50,52,54,56,-1,-1,58,60,62,64,-1,-1,66,68,70,-1,-1,72,74,76,78,-1,80,82,84,86,88,90,92,94,-1,-1,-1,-1,-1,-1,-1,-1,-1,-1,-1,-1,-1,-1,-1,-1,-1,-1,-1,-1,-1,-1,-1,-1,-1,-1,-1,-1,-1,-1,-1,-1,-1,-1,-1,-1,-1,-1],"split_conditions":[9E0,1.4E1,9.290511E0,8.925514E1,2.4E1,3.7E1,-3.892167E0,-3.055084E0,1E1,1.2427965E2,1.623834E2,2.0124083E1,1.5345333E1,2E-1,5.7902287E1,7E0,7.476698E-1,9.9999994E-2,2.3351912E2,2E1,2.1461894E2,4.2E1,2.1461894E2,2.1861038E2,-1.3666444E0,5.5E1,-2.3330556E-1,-6.786333E0,1.6520823E1,1.9E1,2.1346481E2,-8.6054996E-2,1.0649214E-1,2.4315327E1,2.8036118E1,4.464083E0,3.4488674E1,1.3043123E0,1.5607453E-2,1.5E1,9.000001E-1,9.230749E0,6.7545034E-2,6.073719E-1,2.5E1,1.2914083E1,5.1E1,5.8E1,3.848139E-1,1.9566406E1,-5.0838337E0,4.3E1,2E-1,1.9130875E1,1.7989082E1,2.1281425E2,2.4E1,2.3977251E-1,-2.7674806E-1,-7.5528365E-1,-6.621716E-2,-1.7269483E0,-3.5101175E-1,-8.511634E-1,-7.275799E-2,-2.0970155E-2,-9.671398E-1,-5.242595E-2,8.2447E-1,-1.4413761E0,4.7569945E-2,6.8532616E-1,-3.4997946E-1,6.0934767E-2,-5.335062E-1,1.1355284E0,-7.431092E-1,1.9490235E0,4.9787238E-1,-1.8429643E-1,4.4073462E-1,-8.915851E-1,1.3548681E-1,2.1771417E0,1.7231598E-1,3.0790898E-1,2.1897724E0,-3.8753143E-1,1.9730827E-1,-7.0790064E-1,8.580516E-1,8.169667E-2,1.2842035E0,1.8052239E-2,-1.569287E-1],"split_indices":[0,2,5,6,2,2,3,3,2,6,6,3,3,4,6,0,0,7,6,2,6,2,6,6,0,1,0,3,5,1,6,0,0,5,5,3,5,0,0,2,4,3,0,0,2,3,0,0,0,6,3,1,7,5,3,6,1,0,0,0,0,0,0,0,0,0,0,0,0,0,0,0,0,0,0,0,0,0,0,0,0,0,0,0,0,0,0,0,0,0,0,0,0,0,0],"split_type":[0,0,0,0,0,0,0,0,0,0,0,0,0,0,0,0,0,0,0,0,0,0,0,0,0,0,0,0,0,0,0,0,0,0,0,0,0,0,0,0,0,0,0,0,0,0,0,0,0,0,0,0,0,0,0,0,0,0,0,0,0,0,0,0,0,0,0,0,0,0,0,0,0,0,0,0,0,0,0,0,0,0,0,0,0,0,0,0,0,0,0,0,0,0,0],"sum_hessian":[4.114E3,1.38E2,3.976E3,5.1E1,8.7E1,3.3E1,3.943E3,4E0,4.7E1,5E1,3.7E1,2.4E1,9E0,2.52E2,3.691E3,2E0,2E0,2.1E1,2.6E1,4E0,4.6E1,7E0,3E1,2.3E1,1E0,8E0,1E0,1.47E2,1.05E2,2.67E2,3.424E3,1E0,1E0,1.2E1,9E0,7E0,1.9E1,3E0,1E0,6E0,4E1,6E0,1E0,2E0,2.8E1,1.4E1,9E0,7E0,1E0,7.6E1,7.1E1,8E0,9.7E1,1.34E2,1.33E2,1.438E3,1.986E3,9E0,3E0,6E0,3E0,6E0,1E0,1.5E1,4E0,1E0,5E0,2.9E1,1.1E1,5E0,1E0,1E0,2.7E1,8E0,6E0,8E0,1E0,6E0,1E0,1.6E1,6E1,3.7E1,3.4E1,6E0,2E0,9.5E1,2E0,3.8E1,9.6E1,1.26E2,7E0,1.422E3,1.6E1,1.334E3,6.52E2],"tree_param":{"num_deleted":"0","num_feature":"8","num_nodes":"95","size_leaf_vector":"1"}},{"base_weights":[6.095979E-3,-3.9020765E-3,2.1616716E0,1.7650338E-1,-1.11609496E-1,1.4728634E0,1.6033082E0,1.22671604E-1,1.8032347E0,-5.258997E-1,-4.78526E-3,2.0744834E0,-6.0785717E-1,8.8056214E-2,2.7870657E0,2.482078E-2,7.2846093E0,-1.2086334E0,1.3087058E-1,1.1076081E0,-1.3297215E-1,2.8717992E0,-9.4508365E-2,-9.115055E-3,9.4063294E-1,3.7132616E0,1.6143084E-1,-5.5698806E-1,6.9982533E0,1.0586542E1,5.4459536E-1,-9.422656E-1,-5.7837396E0,-3.9130202E-1,3.0442035E0,3.4640062E0,-2.7229238E-1,4.3540603E-1,-2.4330053E-1,1.4127314E0,1.3020405E0,-4.3700907E-1,3.897549E-1,3.2840014E-2,-2.075933E-1,6.6140324E-1,-9.574683E-2,2.1309228E0,8.7183493E-1,-8.530498E-1,7.124312E-1,6.921114E-1,-5.2418065E-1,-1.4338732E-1,3.2926016E0,1.945343E-2,4.22489E0,2.1354413E0,-1.8631436E0,-2.055838E-1,-1.6427308E0,-7.0914453E-1,-2.659793E0,1.9504932E-1,-4.181455E-1,5.278161E0,4.2976475E-1,8.418293E-1,5.6929064E0,-1.5639323E-1,1.1144735E0,-4.935414E-2,5.6067073E-1,-3.8591796E-1,-2.8995847E-2,6.11665E-1,-3.0529594E-2],"categories":[],"categories_nodes":[],"categories_segments":[],"categories_sizes":[],"default_left":[0,0,0,0,0,0,0,0,0,0,0,0,0,0,0,0,0,0,0,0,0,0,0,0,1,0,0,0,0,0,0,0,0,0,0,0,0,0,0,0,0,0,0,0,0,0,0,0,0,0,0,0,0,0,0,0,0,0,0,0,0,0,0,0,0,0,0,0,0,0,0,0,0,0,0,0,0],"id":17,"left_children":[1,3,5,7,9,11,-1,13,15,17,19,21,-1,23,25,27,29,31,33,35,37,39,41,43,45,47,49,51,53,55,57,59,61,63,65,67,69,71,73,75,-1,-1,-1,-1,-1,-1,-1,-1,-1,-1,-1,-1,-1,-1,-1,-1,-1,-1,-1,-1,-1,-1,-1,-1,-1,-1,-1,-1,-1,-1,-1,-1,-1,-1,-1,-1,-1],"loss_changes":[8.869313E1,7.962852E1,3.3781456E1,1.3393576E2,1.1355899E2,3.9990005E1,0E0,1.3662247E2,4.774787E2,2.3601616E2,2.9118216E2,2.621199E1,0E0,1.2146075E2,4.5605774E1,1.5807173E2,2.6129547E2,3.0896478E2,4.1041086E2,6.870297E2,1.1492471E2,1.743496E1,1.1384866E1,1.067199E2,2.3956802E2,1.7662659E1,4.6658245E1,1.2675482E2,9.4446335E1,2.9339337E2,2.6623087E2,2.8168442E2,1.2661679E2,2.4000209E2,9.362064E2,7.427955E2,1.349835E2,2.5658237E2,2.3452728E2,6.845621E0,0E0,0E0,0E0,0E0,0E0,0E0,0E0,0E0,0E0,0E0,0E0,0E0,0E0,0E0,0E0,0E0,0E0,0E0,0E0,0E0,0E0,0E0,0E0,0E0,0E0,0E0,0E0,0E0,0E0,0E0,0E0,0E0,0E0,0E0,0E0,0E0,0E0],"parents":[2147483647,0,0,1,1,2,2,3,3,4,4,5,5,7,7,8,8,9,9,10,10,11,11,13,13,14,14,15,15,16,16,17,17,18,18,19,19,20,20,21,21,22,22,23,23,24,24,25,25,26,26,27,27,28,28,29,29,30,30,31,31,32,32,33,33,34,34,35,35,36,36,37,37,38,38,39,39],"right_children":[2,4,6,8,10,12,-1,14,16,18,20,22,-1,24,26,28,30,32,34,36,38,40,42,44,46,48,50,52,54,56,58,60,62,64,66,68,70,72,74,76,-1,-1,-1,-1,-1,-1,-1,-1,-1,-1,-1,-1,-1,-1,-1,-1,-1,-1,-1,-1,-1,-1,-1,-1,-1,-1,-1,-1,-1,-1,-1,-1,-1,-1,-1,-1,-1],"split_conditions":[2.3141165E1,2.238378E1,5.1E1,2.2148045E1,2.549908E1,4.8E1,1.6033082E0,1.13E1,3.2E1,6.997416E0,2.6712873E1,4.5E1,-6.0785717E-1,4.6E1,2.3246452E2,2.8E1,3.8E1,5.6999993E0,3.4E1,4.3095E0,-1.0466668E-1,3.7E1,4.8E1,3.4E1,3.6E1,1.5E1,2.9827704E2,1.6E1,1.8E1,-6.6508335E-1,3.6E1,2.5346148E1,1.9121011E2,1.8E1,8.3619995E0,4.08075E0,5.4E1,2.6E1,1.4724168E0,1E-1,1.3020405E0,-4.3700907E-1,3.897549E-1,3.2840014E-2,-2.075933E-1,6.6140324E-1,-9.574683E-2,2.1309228E0,8.7183493E-1,-8.530498E-1,7.124312E-1,6.921114E-1,-5.2418065E-1,-1.4338732E-1,3.2926016E0,1.945343E-2,4.22489E0,2.1354413E0,-1.8631436E0,-2.055838E-1,-1.6427308E0,-7.0914453E-1,-2.659793E0,1.9504932E-1,-4.181455E-1,5.278161E0,4.2976475E-1,8.418293E-1,5.6929064E0,-1.5639323E-1,1.1144735E0,-4.935414E-2,5.6067073E-1,-3.8591796E-1,-2.8995847E-2,6.11665E-1,-3.0529594E-2],"split_indices":[3,5,0,5,5,0,0,4,0,3,5,1,0,0,6,2,0,4,0,3,3,1,1,0,2,1,6,0,0,3,1,5,6,1,3,3,2,2,3,4,0,0,0,0,0,0,0,0,0,0,0,0,0,0,0,0,0,0,0,0,0,0,0,0,0,0,0,0,0,0,0,0,0,0,0,0,0],"split_type":[0,0,0,0,0,0,0,0,0,0,0,0,0,0,0,0,0,0,0,0,0,0,0,0,0,0,0,0,0,0,0,0,0,0,0,0,0,0,0,0,0,0,0,0,0,0,0,0,0,0,0,0,0,0,0,0,0,0,0,0,0,0,0,0,0,0,0,0,0,0,0,0,0,0,0,0,0],"sum_hessian":[4.114E3,4.096E3,1.8E1,1.531E3,2.565E3,1.6E1,2E0,1.483E3,4.8E1,5.25E2,2.04E3,1.4E1,2E0,1.465E3,1.8E1,3.7E1,1.1E1,2.57E2,2.68E2,2.1E2,1.83E3,1E1,4E0,1.316E3,1.49E2,1.3E1,5E0,3.5E1,2E0,7E0,4E0,2.44E2,1.3E1,2.28E2,4E1,7.7E1,1.33E2,2.97E2,1.533E3,6E0,4E0,2E0,2E0,1.122E3,1.94E2,7.4E1,7.5E1,1E0,1.2E1,2E0,3E0,1E1,2.5E1,1E0,1E0,2E0,5E0,2E0,2E0,2.32E2,1.2E1,7E0,6E0,1.12E2,1.16E2,3E0,3.7E1,7.5E1,2E0,1.26E2,7E0,2.1E2,8.7E1,1.88E2,1.345E3,4E0,2E0],"tree_param":{"num_deleted":"0","num_feature":"8","num_nodes":"77","size_leaf_vector":"1"}},{"base_weights":[9.55851E-3,4.2478263E-2,-5.151648E-1,2.2824282E-2,1.5758252E0,-3.3019733E0,-3.68799E-1,-1.3852524E-2,9.8120165E-1,-2.164013E-1,4.185374E0,-2.1428547E0,-1.3488505E0,2.6241255E0,-5.01357E-1,3.513291E-2,-2.0889432E0,6.6103806E0,6.820501E-1,2.36674E0,-1.0771228E0,1.30673E0,7.5585237E0,-7.5935835E-1,-1.9556715E-1,-1.4923941E0,5.617204E0,-5.9868884E-1,3.862046E0,-1.4468682E-3,8.017558E-1,-1.0999869E0,-5.7089477E0,8.839661E0,2.0743638E-1,2.5808585E0,-4.6525905E-1,9.898953E-2,-5.406033E0,-2.3213074E0,4.2298007E0,3.6765141E0,3.1677544E0,-7.657658E-1,6.5229096E-2,2.262871E0,-6.0169315E-1,-3.1257898E-1,-3.0232518E0,1.503211E0,-1.0988732E-1,3.5909276E-2,-7.20219E-2,5.16524E-1,-4.7869495E-1,1.2082944E-1,-9.7834784E-1,-1.612608E-1,-2.296981E0,3.206964E0,2.1581756E-1,1.4453981E0,2.1527514E-1,-3.7858424E-1,4.491813E-1,9.678582E-1,-2.1875072E-1,-2.0538027E0,2.6907694E-1,3.1720048E-1,-9.6255094E-1,1.8062357E0,-4.9532034E-2,1.949941E-1,1.6406606E0,9.8162845E-2,-6.880975E-2,-1.22404955E-1,1.3182857E0,-3.0910425E0,-4.2481342E-1],"categories":[],"categories_nodes":[],"categories_segments":[],"categories_sizes":[],"default_left":[0,0,0,0,0,0,0,0,0,0,0,0,0,0,0,0,0,0,0,0,0,0,0,0,0,0,0,0,0,0,0,0,0,0,0,0,0,0,0,0,0,0,0,0,0,0,0,0,0,0,0,0,0,0,0,0,0,0,0,0,0,0,0,0,0,0,0,0,0,0,0,0,0,0,0,0,0,0,0,0,0],"id":18,"left_children":[1,3,5,7,9,11,13,15,17,19,21,23,-1,25,27,29,31,33,35,-1,37,39,41,-1,-1,43,45,47,49,51,53,55,57,59,-1,61,63,65,67,69,71,-1,73,-1,75,-1,-1,77,79,-1,-1,-1,-1,-1,-1,-1,-1,-1,-1,-1,-1,-1,-1,-1,-1,-1,-1,-1,-1,-1,-1,-1,-1,-1,-1,-1,-1,-1,-1,-1,-1],"loss_changes":[7.110341E1,1.166822E2,9.790035E1,1.3446318E2,2.300739E2,6.9759216E0,9.335844E1,3.7465076E2,2.3293222E2,2.1779579E2,1.8432501E2,2.9819412E0,0E0,1.3159377E2,9.701975E1,1.00983635E2,2.980224E2,8.625235E1,2.95301E2,0E0,1.430911E2,1.3707878E2,1.4677112E2,0E0,0E0,8.423138E0,1.0320421E2,1.5097339E2,2.6119926E1,9.941524E1,3.6446414E2,2.2215747E2,1.7718262E2,6.743118E1,0E0,2.0913095E2,1.3478908E2,6.1918324E1,6.0596985E1,2.1377556E1,5.6092552E1,0E0,3.1207447E1,0E0,3.0658492E-1,0E0,0E0,9.0287605E1,2.5452876E2,0E0,0E0,0E0,0E0,0E0,0E0,0E0,0E0,0E0,0E0,0E0,0E0,0E0,0E0,0E0,0E0,0E0,0E0,0E0,0E0,0E0,0E0,0E0,0E0,0E0,0E0,0E0,0E0,0E0,0E0,0E0,0E0],"parents":[2147483647,0,0,1,1,2,2,3,3,4,4,5,5,6,6,7,7,8,8,9,9,10,10,11,11,13,13,14,14,15,15,16,16,17,17,18,18,20,20,21,21,22,22,25,25,26,26,27,27,28,28,29,29,30,30,31,31,32,32,33,33,35,35,36,36,37,37,38,38,39,39,40,40,42,