{"learner":{"attributes":{"scikit_learn":"{\"_estimator_type\": \"regressor\"}"},"feature_names":["pm25_lag_1d","pm25_lag_2d","pm25_lag_3d","temperature_2m_mean","precipitation_sum","wind_speed_10m_max","wind_direction_10m_dominant","rain_sum"],"feature_types":["float","float","float","float","float","float","float","float"],"gradient_booster":{"model":{"gbtree_model_param":{"num_parallel_tree":"1","num_trees":"100"},"iteration_indptr":[0,1,2,3,4,5,6,7,8,9,10,11,12,13,14,15,16,17,18,19,20,21,22,23,24,25,26,27,28,29,30,31,32,33,34,35,36,37,38,39,40,41,42,43,44,45,46,47,48,49,50,51,52,53,54,55,56,57,58,59,60,61,62,63,64,65,66,67,68,69,70,71,72,73,74,75,76,77,78,79,80,81,82,83,84,85,86,87,88,89,90,91,92,93,94,95,96,97,98,99,100],"tree_info":[0,0,0,0,0,0,0,0,0,0,0,0,0,0,0,0,0,0,0,0,0,0,0,0,0,0,0,0,0,0,0,0,0,0,0,0,0,0,0,0,0,0,0,0,0,0,0,0,0,0,0,0,0,0,0,0,0,0,0,0,0,0,0,0,0,0,0,0,0,0,0,0,0,0,0,0,0,0,0,0,0,0,0,0,0,0,0,0,0,0,0,0,0,0,0,0,0,0,0,0],"trees":[{"base_weights":[7.548861E-7,-5.3329935E0,1.0842578E1,-9.208018E0,-1.9724333E0,7.14781E0,2.081005E1,-5.9269657E0,-1.2117928E1,7.200599E-1,-4.9856663E0,1.05797415E1,2.932119E0,2.3721144E1,1.1586783E1,-8.975633E0,-4.6043606E0,-1.5293669E1,-1.0467842E1,-3.8318402E-1,4.472002E0,-3.5333643E0,-6.939511E0,1.2579404E1,5.954285E0,6.7733383E0,3.975062E-2,2.8446539E1,1.8578108E1,1.802625E1,4.746732E0,-8.392991E0,-4.14536E0,-4.8091426E0,7.7209234E0,-1.1733653E1,-1.6319277E1,-1.1124277E1,-7.1434994E0,9.867415E-1,-2.0802755E0,6.3798065E0,1.70455E0,-4.9132986E0,-1.9878775E-1,-4.16449E0,-7.9963436E0,1.0847644E1,1.8959555E1,3.1185663E0,1.0036898E1,3.4445705E0,1.1103352E1,4.216241E0,-3.618779E0,2.6607677E1,4.2364307E1,1.1313303E1,2.3522055E1,7.2769203E0,2.081004E1,-2.8734217E0,9.475876E0,-2.0622275E0,-3.011881E0,-1.0868721E0,-1.9015747E0,-3.8848953E0,-8.912893E-1,-4.9567423E0,-2.715957E0,1.440692E0,-3.3539553E0,-6.672866E-1,-2.432388E0,-1.3564155E-1,5.79505E-1,-1.7474307E0,-4.2199895E-1,-1.3016713E0,2.121976E0,1.3940691E0,-1.9436353E-1,3.5041174E-1,-1.6204399E0,8.768736E-2,-2.8488472E0,-5.6086415E-1,-2.4083385E0,-2.446623E0,8.510697E-2,2.87684E0,4.5862856E0,5.9235272E0,2.3840432E0,-2.758814E0,1.2007308E0,4.521342E0,1.543012E0,6.8982303E-1,3.3398564E0,1.0443542E0,3.7027729E0,1.9227017E0,-6.8575776E-1,-3.8980314E-1,-1.94618E0,4.2162685E0,8.297644E0,9.616269E0,1.8811039E1,4.853841E0,1.4667152E0,5.5776825E0,9.100716E0,4.5251074E0,1.983289E-1,3.271211E0,6.8475432E0,1.5697576E0,-2.2087317E0,-2.4139624E0,3.5701284E0],"categories":[],"categories_nodes":[],"categories_segments":[],"categories_sizes":[],"default_left":[1,1,0,0,0,0,0,0,0,0,0,0,0,0,0,0,0,0,0,0,0,0,0,0,0,0,0,0,0,0,0,0,0,0,0,0,0,0,0,0,0,0,0,0,0,0,0,0,0,0,0,0,0,0,0,0,0,0,0,0,0,0,0,0,0,0,0,0,0,0,0,0,0,0,0,0,0,0,0,0,0,0,0,0,0,0,0,0,0,0,0,0,0,0,0,0,0,0,0,0,0,0,0,0,0,0,0,0,0,0,0,0,0,0,0,0,0,0,0,0,0,0,0],"id":0,"left_children":[1,3,5,7,9,11,13,15,17,19,21,23,25,27,29,31,33,35,37,39,41,43,45,47,49,51,53,55,57,59,61,63,-1,65,-1,67,69,71,73,75,77,79,81,83,85,87,89,91,93,95,97,99,101,103,105,107,109,111,113,115,117,119,121,-1,-1,-1,-1,-1,-1,-1,-1,-1,-1,-1,-1,-1,-1,-1,-1,-1,-1,-1,-1,-1,-1,-1,-1,-1,-1,-1,-1,-1,-1,-1,-1,-1,-1,-1,-1,-1,-1,-1,-1,-1,-1,-1,-1,-1,-1,-1,-1,-1,-1,-1,-1,-1,-1,-1,-1,-1,-1,-1,-1],"loss_changes":[2.3834808E5,3.5962312E4,4.9899797E4,1.2177711E4,1.2019104E4,1.4335668E4,9.579016E3,2.3981445E3,3.3980234E3,3.2427913E3,1.9589414E3,4.9844883E3,4.9659995E3,6.2277188E3,3.8786006E3,3.9750098E2,2.7581846E3,6.4828516E2,9.0253125E2,1.4109353E3,9.289221E2,1.8534268E3,8.377217E2,4.003961E3,1.9020815E3,2.729167E3,3.9268894E3,2.5325547E3,4.6185703E3,1.2250654E3,1.6488843E3,3.436582E2,0E0,7.4266016E2,0E0,5.475742E2,1.1027344E2,3.8471484E2,3.4728345E2,4.5771838E2,6.7536E2,8.1113965E2,5.152135E2,8.523911E2,5.46099E2,7.2974084E2,2.8416797E2,1.5404531E3,5.351621E2,1.1252574E3,1.5976763E3,9.42876E2,7.410156E2,1.7255596E3,9.030687E2,1.3134844E3,1.1355605E3,1.7028018E3,2.1231836E3,5.581586E2,4.6973145E2,6.935033E2,1.2853096E3,0E0,0E0,0E0,0E0,0E0,0E0,0E0,0E0,0E0,0E0,0E0,0E0,0E0,0E0,0E0,0E0,0E0,0E0,0E0,0E0,0E0,0E0,0E0,0E0,0E0,0E0,0E0,0E0,0E0,0E0,0E0,0E0,0E0,0E0,0E0,0E0,0E0,0E0,0E0,0E0,0E0,0E0,0E0,0E0,0E0,0E0,0E0,0E0,0E0,0E0,0E0,0E0,0E0,0E0,0E0,0E0,0E0,0E0,0E0,0E0],"parents":[2147483647,0,0,1,1,2,2,3,3,4,4,5,5,6,6,7,7,8,8,9,9,10,10,11,11,12,12,13,13,14,14,15,15,16,16,17,17,18,18,19,19,20,20,21,21,22,22,23,23,24,24,25,25,26,26,27,27,28,28,29,29,30,30,31,31,33,33,35,35,36,36,37,37,38,38,39,39,40,40,41,41,42,42,43,43,44,44,45,45,46,46,47,47,48,48,49,49,50,50,51,51,52,52,53,53,54,54,55,55,56,56,57,57,58,58,59,59,60,60,61,61,62,62],"right_children":[2,4,6,8,10,12,14,16,18,20,22,24,26,28,30,32,34,36,38,40,42,44,46,48,50,52,54,56,58,60,62,64,-1,66,-1,68,70,72,74,76,78,80,82,84,86,88,90,92,94,96,98,100,102,104,106,108,110,112,114,116,118,120,122,-1,-1,-1,-1,-1,-1,-1,-1,-1,-1,-1,-1,-1,-1,-1,-1,-1,-1,-1,-1,-1,-1,-1,-1,-1,-1,-1,-1,-1,-1,-1,-1,-1,-1,-1,-1,-1,-1,-1,-1,-1,-1,-1,-1,-1,-1,-1,-1,-1,-1,-1,-1,-1,-1,-1,-1,-1,-1,-1,-1],"split_conditions":[3.2E1,2.1E1,4.9E1,2.3859856E2,2.2629875E2,2.0694356E2,2.287254E2,1.5E1,1.4E1,2.9E1,2.7402597E1,2.2000003E0,2.3708124E1,2.1218632E1,1.972212E1,2.3353256E2,6.4E1,2.0945072E1,3.219025E2,2.7248457E1,2.6674032E1,2.8E1,2.3975319E2,4.4E1,6.847416E0,4E1,2.3664561E2,7.1E1,5.9724164E0,3.7E1,9.93075E0,1.4000001E0,-4.14536E0,1.1000001E0,7.7209234E0,3.3222946E2,1.5932836E1,-1.12005005E1,-2.727584E0,2.4E1,4.4650246E1,9.983952E0,1.5886666E0,1.3684735E1,4.6E1,2.2000003E0,3.4281674E2,1.62495E1,5.5E1,1.3E1,2.5264202E1,4.6E1,2.2866671E-1,4.9E0,6E-1,3.4263935E1,1.9829433E1,1.00000024E-1,5.9E1,9.746631E0,5.3E1,2.7908709E1,2.0833395E1,-2.0622275E0,-3.011881E0,-1.0868721E0,-1.9015747E0,-3.8848953E0,-8.912893E-1,-4.9567423E0,-2.715957E0,1.440692E0,-3.3539553E0,-6.672866E-1,-2.432388E0,-1.3564155E-1,5.79505E-1,-1.7474307E0,-4.2199895E-1,-1.3016713E0,2.121976E0,1.3940691E0,-1.9436353E-1,3.5041174E-1,-1.6204399E0,8.768736E-2,-2.8488472E0,-5.6086415E-1,-2.4083385E0,-2.446623E0,8.510697E-2,2.87684E0,4.5862856E0,5.9235272E0,2.3840432E0,-2.758814E0,1.2007308E0,4.521342E0,1.543012E0,6.8982303E-1,3.3398564E0,1.0443542E0,3.7027729E0,1.9227017E0,-6.8575776E-1,-3.8980314E-1,-1.94618E0,4.2162685E0,8.297644E0,9.616269E0,1.8811039E1,4.853841E0,1.4667152E0,5.5776825E0,9.100716E0,4.5251074E0,1.983289E-1,3.271211E0,6.8475432E0,1.5697576E0,-2.2087317E0,-2.4139624E0,3.5701284E0],"split_indices":[0,0,0,6,6,6,6,0,0,0,5,4,5,5,5,6,1,5,6,5,5,0,6,0,3,0,6,0,3,1,3,4,0,7,0,6,3,3,3,0,6,6,3,5,1,4,6,3,1,2,5,2,3,4,4,6,5,7,0,5,0,5,5,0,0,0,0,0,0,0,0,0,0,0,0,0,0,0,0,0,0,0,0,0,0,0,0,0,0,0,0,0,0,0,0,0,0,0,0,0,0,0,0,0,0,0,0,0,0,0,0,0,0,0,0,0,0,0,0,0,0,0,0],"split_type":[0,0,0,0,0,0,0,0,0,0,0,0,0,0,0,0,0,0,0,0,0,0,0,0,0,0,0,0,0,0,0,0,0,0,0,0,0,0,0,0,0,0,0,0,0,0,0,0,0,0,0,0,0,0,0,0,0,0,0,0,0,0,0,0,0,0,0,0,0,0,0,0,0,0,0,0,0,0,0,0,0,0,0,0,0,0,0,0,0,0,0,0,0,0,0,0,0,0,0,0,0,0,0,0,0,0,0,0,0,0,0,0,0,0,0,0,0,0,0,0,0,0,0],"sum_hessian":[4.12E3,2.762E3,1.358E3,1.282E3,1.48E3,9.92E2,3.66E2,6.04E2,6.78E2,7.82E2,6.98E2,5.46E2,4.46E2,2.77E2,8.9E1,1.81E2,4.23E2,2.29E2,4.49E2,6.05E2,1.77E2,4.02E2,2.96E2,3.8E2,1.66E2,1.91E2,2.55E2,1.42E2,1.35E2,4.5E1,4.4E1,1.64E2,1.7E1,4.21E2,2E0,5.4E1,1.75E2,3.73E2,7.6E1,3.35E2,2.7E2,1.04E2,7.3E1,2.84E2,1.18E2,8.3E1,2.13E2,3.01E2,7.9E1,9.9E1,6.7E1,1.09E2,8.2E1,1.19E2,1.36E2,1.28E2,1.4E1,5.6E1,7.9E1,1E1,3.5E1,1.7E1,2.7E1,8.8E1,7.6E1,2.39E2,1.82E2,4.7E1,7E0,1.69E2,6E0,1E0,3.72E2,1.3E1,6.3E1,1.33E2,2.02E2,4E1,2.3E2,6E0,9.8E1,3.2E1,4.1E1,2.1E1,2.63E2,1.13E2,5E0,5.3E1,3E1,2.09E2,4E0,2.37E2,6.4E1,7.3E1,6E0,6E0,9.3E1,3.2E1,3.5E1,9.6E1,1.3E1,1.2E1,7E1,8.9E1,3E1,7.6E1,6E1,1.1E1,1.17E2,1.1E1,3E0,3.1E1,2.5E1,4.8E1,3.1E1,4E0,6E0,7E0,2.8E1,6E0,1.1E1,3E0,2.4E1],"tree_param":{"num_deleted":"0","num_feature":"8","num_nodes":"123","size_leaf_vector":"1"}},{"base_weights":[1.8015072E-2,-2.7755919E0,1.038467E1,-6.2270584E0,-3.5374537E-2,8.659193E0,1.9156631E1,-4.0510178E0,-8.282616E0,2.195371E0,-2.5211697E0,1.1570255E1,5.127675E0,6.6220107E0,2.0359154E1,-6.3335996E0,-3.2427695E0,-1.0516042E1,-6.9099894E0,2.2076628E-1,4.319737E0,-3.7724576E0,-1.1541457E0,1.3319359E1,7.461083E0,9.280373E0,2.7445571E0,1.2006531E1,-5.471431E0,2.2358746E1,1.10665245E1,-6.6161757E0,-8.116695E-1,-3.3747869E0,6.1767383E0,-4.9197807E0,-1.0906076E1,-1.7973099E0,-7.249828E0,-4.8725568E-2,6.988994E0,1.3084339E0,5.308119E0,-1.5049965E0,-4.464207E0,1.960672E-1,-3.7976995E0,1.1211347E1,1.6077162E1,9.9539585E0,1.2293811E0,8.197537E0,1.7645658E1,5.2116528E0,-1.6805943E0,2.2939907E1,8.942954E-1,-2.4169726E0,-1.0624771E0,1.8740536E1,2.6670746E1,8.043461E-1,1.6788729E1,-1.7061349E0,-2.618136E0,-2.6716669E0,6.97499E-1,-7.8493536E-1,-1.4376333E0,-2.147769E0,7.858299E-2,-3.7560499E0,-2.891683E0,-1.9698533E-1,-1.3157902E0,-1.049709E0,-2.2625625E0,4.6159267E-1,-3.3314645E-1,2.4130177E0,-3.9467773E-1,2.279078E-2,2.85594E0,2.1749544E0,1.0616955E0,2.287691E0,-6.3872725E-1,-9.8071533E-1,-1.8434268E0,1.915606E0,-7.196486E-2,-6.584188E-1,-1.9072007E0,2.5275028E0,3.856388E0,4.9839544E0,9.63978E-1,2.7524567E0,8.613166E0,-1.1107035E0,1.7510515E0,1.8480147E0,3.81098E0,6.5430093E0,1.9861975E0,-4.873811E-1,2.2189412E0,4.248021E-1,-2.0564494E0,1.5460454E0,7.8294425E0,4.461394E0,-2.9436126E0,-3.8905737E-1,-8.9057356E-2,6.1301465E0,2.4184213E0,9.019524E0,5.5281916E0,1.5146337E0,-2.0473492E0,5.642315E0,-2.0244153E0],"categories":[],"categories_nodes":[],"categories_segments":[],"categories_sizes":[],"default_left":[1,1,0,0,0,0,0,0,0,0,0,0,0,0,0,0,0,0,0,0,0,0,0,0,0,0,0,0,0,0,0,0,0,0,0,0,0,0,0,0,0,0,0,0,0,0,0,0,0,0,0,0,0,0,0,0,0,0,0,0,0,0,0,0,0,0,0,0,0,0,0,0,0,0,0,0,0,0,0,0,0,0,0,0,0,0,0,0,0,0,0,0,0,0,0,0,0,0,0,0,0,0,0,0,0,0,0,0,0,0,0,0,0,0,0,0,0,0,0,0,0,0,0],"id":1,"left_children":[1,3,5,7,9,11,13,15,17,19,21,23,25,27,29,31,33,35,37,39,41,43,45,47,49,51,53,55,57,59,61,63,65,67,-1,69,71,73,75,77,79,81,83,85,87,89,91,93,95,97,99,101,103,105,107,109,111,-1,113,115,117,119,121,-1,-1,-1,-1,-1,-1,-1,-1,-1,-1,-1,-1,-1,-1,-1,-1,-1,-1,-1,-1,-1,-1,-1,-1,-1,-1,-1,-1,-1,-1,-1,-1,-1,-1,-1,-1,-1,-1,-1,-1,-1,-1,-1,-1,-1,-1,-1,-1,-1,-1,-1,-1,-1,-1,-1,-1,-1,-1,-1,-1],"loss_changes":[1.1937446E5,3.0709152E4,1.3077969E4,6.394117E3,1.0047849E4,7.476254E3,2.0206445E3,1.2708857E3,2.189793E3,4.0050645E3,1.4615791E3,2.782754E3,3.2700205E3,9.7733606E2,2.1681562E3,2.786162E2,1.702373E3,5.553301E2,7.862129E2,9.0503577E2,1.3621611E3,6.944077E2,1.4677517E3,1.4475312E3,1.8830151E3,9.513955E2,2.3341372E3,1.1944276E3,4.8428955E1,1.153957E3,1.454553E3,2.896538E2,2.7458356E2,5.431372E2,0E0,2.3395944E2,4.110879E2,8.570593E1,4.4573242E2,8.073335E2,1.7695227E2,1.1631019E3,1.1629131E3,6.202637E2,6.668257E2,7.381457E2,5.563672E2,6.334531E2,7.671621E2,1.00794336E3,8.396277E2,9.224072E2,4.5246167E2,2.0582449E3,1.2434426E3,1.4637183E2,1.0437739E3,0E0,1.5335703E-1,9.383281E2,7.331074E2,3.5825647E2,8.8724316E2,0E0,0E0,0E0,0E0,0E0,0E0,0E0,0E0,0E0,0E0,0E0,0E0,0E0,0E0,0E0,0E0,0E0,0E0,0E0,0E0,0E0,0E0,0E0,0E0,0E0,0E0,0E0,0E0,0E0,0E0,0E0,0E0,0E0,0E0,0E0,0E0,0E0,0E0,0E0,0E0,0E0,0E0,0E0,0E0,0E0,0E0,0E0,0E0,0E0,0E0,0E0,0E0,0E0,0E0,0E0,0E0,0E0,0E0,0E0,0E0],"parents":[2147483647,0,0,1,1,2,2,3,3,4,4,5,5,6,6,7,7,8,8,9,9,10,10,11,11,12,12,13,13,14,14,15,15,16,16,17,17,18,18,19,19,20,20,21,21,22,22,23,23,24,24,25,25,26,26,27,27,28,28,29,29,30,30,31,31,32,32,33,33,35,35,36,36,37,37,38,38,39,39,40,40,41,41,42,42,43,43,44,44,45,45,46,46,47,47,48,48,49,49,50,50,51,51,52,52,53,53,54,54,55,55,56,56,58,58,59,59,60,60,61,61,62,62],"right_children":[2,4,6,8,10,12,14,16,18,20,22,24,26,28,30,32,34,36,38,40,42,44,46,48,50,52,54,56,58,60,62,64,66,68,-1,70,72,74,76,78,80,82,84,86,88,90,92,94,96,98,100,102,104,106,108,110,112,-1,114,116,118,120,122,-1,-1,-1,-1,-1,-1,-1,-1,-1,-1,-1,-1,-1,-1,-1,-1,-1,-1,-1,-1,-1,-1,-1,-1,-1,-1,-1,-1,-1,-1,-1,-1,-1,-1,-1,-1,-1,-1,-1,-1,-1,-1,-1,-1,-1,-1,-1,-1,-1,-1,-1,-1,-1,-1,-1,-1,-1,-1,-1,-1],"split_conditions":[3.8E1,2.2E1,5.9E1,2.3859856E2,2.1841165E2,1.9734221E2,3.7E1,1.5E1,1.5E1,2.9E1,2.8E1,2.6574244E1,2.1566975E1,2.1344235E2,2.9237675E1,3.7E1,6.4E1,1.5496736E1,1.420062E1,1.7691168E1,7.620001E1,1.9829433E1,2.890107E1,4.7E1,3.7E0,2.0212965E1,2.4444902E2,3.1E1,6.5E1,6.7E1,4.9824166E0,2.1929176E2,5.6973217E1,2.9E0,6.1767383E0,3.2734238E2,1.1E1,1.1378667E1,-1.9321667E0,2.3219301E1,3.447928E1,1.405325E1,1.566364E2,-4.6613336E0,2.6507294E2,1.1592895E1,2.4958182E2,8.882824E1,6E0,1.9388165E2,3.9E1,1.714325E1,4.3E1,4.1E1,2.8772987E1,1.484318E1,6.6E1,-2.4169726E0,2.3E1,2.3294868E2,2.2363759E2,5.2E1,8.3E1,-1.7061349E0,-2.618136E0,-2.6716669E0,6.97499E-1,-7.8493536E-1,-1.4376333E0,-2.147769E0,7.858299E-2,-3.7560499E0,-2.891683E0,-1.9698533E-1,-1.3157902E0,-1.049709E0,-2.2625625E0,4.6159267E-1,-3.3314645E-1,2.4130177E0,-3.9467773E-1,2.279078E-2,2.85594E0,2.1749544E0,1.0616955E0,2.287691E0,-6.3872725E-1,-9.8071533E-1,-1.8434268E0,1.915606E0,-7.196486E-2,-6.584188E-1,-1.9072007E0,2.5275028E0,3.856388E0,4.9839544E0,9.63978E-1,2.7524567E0,8.613166E0,-1.1107035E0,1.7510515E0,1.8480147E0,3.81098E0,6.5430093E0,1.9861975E0,-4.873811E-1,2.2189412E0,4.248021E-1,-2.0564494E0,1.5460454E0,7.8294425E0,4.461394E0,-2.9436126E0,-3.8905737E-1,-8.9057356E-2,6.1301465E0,2.4184213E0,9.019524E0,5.5281916E0,1.5146337E0,-2.0473492E0,5.642315E0,-2.0244153E0],"split_indices":[0,0,0,6,6,6,1,0,0,0,0,5,5,6,5,1,1,5,5,3,6,5,5,0,7,5,6,2,0,0,3,6,6,4,0,6,0,3,3,5,5,3,6,3,6,5,6,6,4,6,1,3,2,0,5,5,0,0,1,6,6,2,0,0,0,0,0,0,0,0,0,0,0,0,0,0,0,0,0,0,0,0,0,0,0,0,0,0,0,0,0,0,0,0,0,0,0,0,0,0,0,0,0,0,0,0,0,0,0,0,0,0,0,0,0,0,0,0,0,0,0,0,0],"split_type":[0,0,0,0,0,0,0,0,0,0,0,0,0,0,0,0,0,0,0,0,0,0,0,0,0,0,0,0,0,0,0,0,0,0,0,0,0,0,0,0,0,0,0,0,0,0,0,0,0,0,0,0,0,0,0,0,0,0,0,0,0,0,0,0,0,0,0,0,0,0,0,0,0,0,0,0,0,0,0,0,0,0,0,0,0,0,0,0,0,0,0,0,0,0,0,0,0,0,0,0,0,0,0,0,0,0,0,0,0,0,0,0,0,0,0,0,0,0,0,0,0,0,0],"sum_hessian":[4.12E3,3.246E3,8.74E2,1.436E3,1.81E3,7.32E2,1.42E2,6.99E2,7.37E2,9.54E2,8.56E2,4E2,3.32E2,1.3E1,1.29E2,1.81E2,5.18E2,2.78E2,4.59E2,4.95E2,4.59E2,4.46E2,4.1E2,2.79E2,1.21E2,1.2E2,2.12E2,9E0,4E0,1.05E2,2.4E1,1.72E2,9E0,5.16E2,2E0,1.9E1,2.59E2,2.9E1,4.3E2,4.77E2,1.8E1,1.14E2,3.45E2,1.05E2,3.41E2,2.72E2,1.38E2,1.61E2,1.18E2,8.6E1,3.5E1,1.08E2,1.2E1,1.36E2,7.6E1,4E0,5E0,2E0,2E0,6E1,4.5E1,9E0,1.5E1,1.22E2,5E1,2E0,7E0,3.38E2,1.78E2,1.3E1,6E0,1.1E2,1.49E2,2.1E1,8E0,3.2E1,3.98E2,1.91E2,2.86E2,1.6E1,2E0,1E2,1.4E1,1.63E2,1.82E2,6E0,9.9E1,2.01E2,1.4E2,1.7E1,2.55E2,8.6E1,5.2E1,6.2E1,9.9E1,1.13E2,5E0,8.4E1,2E0,1.7E1,1.8E1,7.6E1,3.2E1,8E0,4E0,3.3E1,1.03E2,4.8E1,2.8E1,1E0,3E0,2E0,3E0,1E0,1E0,5.1E1,9E0,3E1,1.5E1,6E0,3E0,1.4E1,1E0],"tree_param":{"num_deleted":"0","num_feature":"8","num_nodes":"123","size_leaf_vector":"1"}},{"base_weights":[2.796703E-2,-2.523181E0,5.8094687E0,-4.3718004E0,-6.5852064E-1,3.1468203E0,9.652859E0,-2.2438223E0,-5.5166335E0,7.207475E-1,-2.3952236E0,5.4839234E0,1.7176867E0,1.1444879E1,4.0737996E0,-1.9446293E0,-6.596151E0,-8.574415E0,-4.9975595E0,4.9536416E-1,6.4515095E0,-1.53012E0,-3.6157534E0,3.8973987E0,7.8016896E0,2.754007E0,-1.6121461E0,1.1935038E1,-3.6878202E0,7.174434E0,-2.3721142E0,-3.8946416E0,-1.2330024E0,-8.79022E0,-2.2068496E0,-3.199285E0,-8.890302E0,-5.8184457E0,-4.3228984E0,3.91992E-1,1.1647862E1,9.322821E0,2.9586766E0,-4.1279233E-1,-3.084507E0,2.1219287E0,-3.6840687E0,1.4758545E0,5.458249E0,6.3964605E0,9.973197E0,5.4366302E0,1.709907E0,-6.944841E0,-8.95609E-1,1.1065138E1,1.9427164E1,5.2563562E0,-8.247049E0,5.8657618E0,1.653377E1,-6.355375E0,8.801388E-1,-5.9197646E-1,-1.8129332E0,-4.1692877E-1,3.7787435E0,-1.0857661E0,-3.053987E0,1.0593112E0,-1.6551517E0,-1.5041395E0,9.6691705E-2,-2.2428975E0,-2.9443421E0,1.3574874E0,-1.7755804E0,-1.2317975E0,-2.956495E0,2.9802603E-1,-3.9955586E-1,5.768009E0,3.4711906E-1,3.079493E0,5.455462E-1,4.1235068E-1,2.0914593E0,3.829051E-1,-4.9986365E-1,-1.1627337E0,3.555414E-1,-2.7038984E0,-1.0503011E0,9.9914277E-1,-8.500676E-1,2.0160813E0,3.7557906E-1,1.104328E0,2.579908E0,1.740924E-1,3.1989467E0,7.0734825E0,1.4458504E0,-6.893598E-1,8.287219E-1,6.513279E-1,-2.365628E0,4.1960006E0,-4.0399578E-1,5.026388E0,3.008996E0,4.6703067E0,8.603078E0,-2.2281247E-1,2.0825398E0,-3.434895E0,2.606063E0,3.7286088E0,1.410215E0,5.3369603E0,7.8433174E-1,1.2941905E0,-2.3593066E0,7.012255E-1,-2.097184E0],"categories":[],"categories_nodes":[],"categories_segments":[],"categories_sizes":[],"default_left":[1,0,0,0,0,0,0,0,0,0,0,0,0,0,0,0,0,0,0,0,0,0,0,0,0,0,0,0,0,0,0,0,0,0,0,0,0,0,0,0,0,0,0,0,0,0,0,0,0,0,0,0,0,0,0,0,0,0,0,0,0,0,0,0,0,0,0,0,0,0,0,0,0,0,0,0,0,0,0,0,0,0,0,0,0,0,0,0,0,0,0,0,0,0,0,0,0,0,0,0,0,0,0,0,0,0,0,0,0,0,0,0,0,0,0,0,0,0,0,0,0,0,0,0,0],"id":2,"left_children":[1,3,5,7,9,11,13,15,17,19,21,23,25,27,29,31,33,35,37,39,41,43,45,47,49,51,53,55,57,59,61,63,65,67,69,71,73,75,77,79,81,83,85,87,89,-1,91,93,95,97,99,101,103,105,107,109,111,113,115,117,119,121,123,-1,-1,-1,-1,-1,-1,-1,-1,-1,-1,-1,-1,-1,-1,-1,-1,-1,-1,-1,-1,-1,-1,-1,-1,-1,-1,-1,-1,-1,-1,-1,-1,-1,-1,-1,-1,-1,-1,-1,-1,-1,-1,-1,-1,-1,-1,-1,-1,-1,-1,-1,-1,-1,-1,-1,-1,-1,-1,-1,-1,-1,-1],"loss_changes":[6.0797215E4,9.855678E3,1.2884426E4,3.4859746E3,3.4151418E3,2.485585E3,5.1122305E3,6.4347485E2,1.4380215E3,1.0236406E3,6.607307E2,1.01023926E3,1.6090498E3,2.9368125E3,2.5552944E3,6.515709E2,2.8877515E2,1.9908105E2,4.1790234E2,8.785234E2,2.732871E2,6.4306445E2,2.1664258E2,6.344878E2,2.8407373E2,9.850332E2,4.1791934E2,2.2486133E3,5.734705E2,9.563711E2,5.496856E2,5.082085E2,7.71902E2,1.14069336E2,2.474124E2,5.9125725E1,9.1274414E1,3.9765234E2,4.9111328E2,7.892673E2,5.3430963E2,9.4457275E1,8.5773544E1,4.615601E2,5.2825305E2,0E0,2.2208594E2,5.5291547E2,5.3835913E2,3.9908984E2,2.724829E2,9.9474316E2,1.0904192E3,1.2858612E2,6.833782E2,1.8402617E3,9.101387E2,5.5711136E1,5.8755505E2,5.3032715E2,1.2833032E2,3.3982318E2,2.9161722E2,0E0,0E0,0E0,0E0,0E0,0E0,0E0,0E0,0E0,0E0,0E0,0E0,0E0,0E0,0E0,0E0,0E0,0E0,0E0,0E0,0E0,0E0,0E0,0E0,0E0,0E0,0E0,0E0,0E0,0E0,0E0,0E0,0E0,0E0,0E0,0E0,0E0,0E0,0E0,0E0,0E0,0E0,0E0,0E0,0E0,0E0,0E0,0E0,0E0,0E0,0E0,0E0,0E0,0E0,0E0,0E0,0E0,0E0,0E0,0E0,0E0,0E0],"parents":[2147483647,0,0,1,1,2,2,3,3,4,4,5,5,6,6,7,7,8,8,9,9,10,10,11,11,12,12,13,13,14,14,15,15,16,16,17,17,18,18,19,19,20,20,21,21,22,22,23,23,24,24,25,25,26,26,27,27,28,28,29,29,30,30,31,31,32,32,33,33,34,34,35,35,36,36,37,37,38,38,39,39,40,40,41,41,42,42,43,43,44,44,46,46,47,47,48,48,49,49,50,50,51,51,52,52,53,53,54,54,55,55,56,56,57,57,58,58,59,59,60,60,61,61,62,62],"right_children":[2,4,6,8,10,12,14,16,18,20,22,24,26,28,30,32,34,36,38,40,42,44,46,48,50,52,54,56,58,60,62,64,66,68,70,72,74,76,78,80,82,84,86,88,90,-1,92,94,96,98,100,102,104,106,108,110,112,114,116,118,120,122,124,-1,-1,-1,-1,-1,-1,-1,-1,-1,-1,-1,-1,-1,-1,-1,-1,-1,-1,-1,-1,-1,-1,-1,-1,-1,-1,-1,-1,-1,-1,-1,-1,-1,-1,-1,-1,-1,-1,-1,-1,-1,-1,-1,-1,-1,-1,-1,-1,-1,-1,-1,-1,-1,-1,-1,-1,-1,-1,-1,-1,-1,-1],"split_conditions":[3.3E1,2.2E1,4.5E1,2.1841165E2,2.2826364E2,1.566364E2,2.3353256E2,4.5281357E1,1.1E1,1.7862E1,2.7248457E1,9.609916E0,3.3000002E0,1.1E1,2.6574244E1,5.926961E1,2.2E1,1.530741E1,1.7E1,5.9E1,1.8397092E2,2.8E1,7E0,6.830849E1,3E-1,2.1841165E2,7E-1,6.8E1,3.8E1,6.9E1,3.8E1,2E-1,5.5E1,8E0,2.6E1,1E-1,2.7155552E1,-6.8504996E0,4.7900295E1,3.8000002E0,6.7E1,4.5E1,3.6E1,2.656923E2,3.2992395E2,2.1219287E0,1.1E1,2.5264202E1,3.3190357E1,1.6307833E1,8.313833E0,1.3E1,2.1E1,1.5E1,1.2000002E0,1.375558E1,7.2E1,2.2765834E0,1.6664083E1,-1.1192502E0,1.5626583E1,2.8019936E1,3.204862E2,-5.9197646E-1,-1.8129332E0,-4.1692877E-1,3.7787435E0,-1.0857661E0,-3.053987E0,1.0593112E0,-1.6551517E0,-1.5041395E0,9.6691705E-2,-2.2428975E0,-2.9443421E0,1.3574874E0,-1.7755804E0,-1.2317975E0,-2.956495E0,2.9802603E-1,-3.9955586E-1,5.768009E0,3.4711906E-1,3.079493E0,5.455462E-1,4.1235068E-1,2.0914593E0,3.829051E-1,-4.9986365E-1,-1.1627337E0,3.555414E-1,-2.7038984E0,-1.0503011E0,9.9914277E-1,-8.500676E-1,2.0160813E0,3.7557906E-1,1.104328E0,2.579908E0,1.740924E-1,3.1989467E0,7.0734825E0,1.4458504E0,-6.893598E-1,8.287219E-1,6.513279E-1,-2.365628E0,4.1960006E0,-4.0399578E-1,5.026388E0,3.008996E0,4.6703067E0,8.603078E0,-2.2281247E-1,2.0825398E0,-3.434895E0,2.606063E0,3.7286088E0,1.410215E0,5.3369603E0,7.8433174E-1,1.2941905E0,-2.3593066E0,7.012255E-1,-2.097184E0],"split_indices":[0,0,0,6,6,6,6,5,0,3,5,3,4,4,5,6,2,5,0,1,6,2,2,6,4,6,7,0,1,0,2,4,1,2,2,4,5,3,5,4,1,2,1,6,6,0,2,5,5,3,6,1,2,2,7,5,1,3,3,3,3,5,6,0,0,0,0,0,0,0,0,0,0,0,0,0,0,0,0,0,0,0,0,0,0,0,0,0,0,0,0,0,0,0,0,0,0,0,0,0,0,0,0,0,0,0,0,0,0,0,0,0,0,0,0,0,0,0,0,0,0,0,0,0,0],"split_type":[0,0,0,0,0,0,0,0,0,0,0,0,0,0,0,0,0,0,0,0,0,0,0,0,0,0,0,0,0,0,0,0,0,0,0,0,0,0,0,0,0,0,0,0,0,0,0,0,0,0,0,0,0,0,0,0,0,0,0,0,0,0,0,0,0,0,0,0,0,0,0,0,0,0,0,0,0,0,0,0,0,0,0,0,0,0,0,0,0,0,0,0,0,0,0,0,0,0,0,0,0,0,0,0,0,0,0,0,0,0,0,0,0,0,0,0,0,0,0,0,0,0,0,0,0],"sum_hessian":[4.12E3,2.859E3,1.261E3,1.435E3,1.424E3,7.46E2,5.15E2,5.03E2,9.32E2,7.94E2,6.3E2,2.82E2,4.64E2,3.89E2,1.26E2,4.72E2,3.1E1,1.33E2,7.99E2,7.65E2,2.9E1,3.7E2,2.6E2,1.69E2,1.13E2,3.54E2,1.1E2,3.77E2,1.2E1,8.5E1,4.1E1,1.25E2,3.47E2,2E1,1.1E1,8E0,1.25E2,3.57E2,4.42E2,7.59E2,6E0,1.5E1,1.4E1,2.16E2,1.54E2,1E0,2.59E2,6.7E1,1.02E2,7.1E1,4.2E1,9.8E1,2.56E2,1.2E1,9.8E1,3.4E2,3.7E1,4E0,8E0,7.6E1,9E0,1.8E1,2.3E1,6.7E1,5.8E1,3.44E2,3E0,5E0,1.5E1,4E0,7E0,5E0,3E0,5.3E1,7.2E1,3E0,3.54E2,4.27E2,1.5E1,5.63E2,1.96E2,3E0,3E0,1.3E1,2E0,1.1E1,3E0,9.2E1,1.24E2,1.3E2,2.4E1,7E0,2.52E2,4.7E1,2E1,7.8E1,2.4E1,3.3E1,3.8E1,3E0,3.9E1,2E0,9.6E1,5.3E1,2.03E2,1E0,1.1E1,2E0,9.6E1,5E1,2.9E2,2.8E1,9E0,1E0,3E0,7E0,1E0,1E1,6.6E1,8E0,1E0,2E0,1.6E1,2E1,3E0],"tree_param":{"num_deleted":"0","num_feature":"8","num_nodes":"125","size_leaf_vector":"1"}},{"base_weights":[3.0758696E-2,-1.3841498E0,5.2812467E0,-2.7226214E0,5.644083E-1,4.190932E0,9.467791E0,-1.3359025E0,-3.5893638E0,1.4960997E0,-1.0643232E0,5.0107574E0,2.926474E-1,3.869884E-1,1.04743805E1,-8.2478493E-1,-3.1182663E0,-5.112146E0,-2.994949E0,-5.957451E-1,2.0617647E0,-1.3346701E0,6.4089704E0,5.6782694E0,1.5346764E0,-1.3384508E0,5.5695643E0,7.561492E0,-2.715441E0,1.0009423E1,9.534194E0,-3.6750484E0,-4.4387943E-1,-6.865461E0,-2.5241237E0,-3.470798E0,-5.5877213E0,-2.648206E0,-5.053701E0,-9.781399E-1,2.698381E0,2.363937E0,-1.192275E0,-7.073488E-2,-2.4745026E0,3.6106172E-1,7.1912875E0,5.8487372E0,-6.7247276E0,4.6371365E0,-1.9466051E0,4.5418205E0,-2.6028888E0,7.7239327E0,-1.1928514E0,5.42118E0,-2.210711E0,-7.8714604E0,5.4711623E0,1.0318253E1,-2.8776252E0,8.571486E-1,-1.4159743E0,-8.510175E-1,-9.6576875E-3,-2.558379E0,-3.03267E-1,-8.255202E-1,1.8390521E0,-1.2130493E0,9.989756E-2,-1.7255899E0,-1.377769E-1,-1.8541189E-1,-8.99409E-1,-7.795735E-2,-1.5769037E0,-1.2413442E0,-1.5522438E-1,2.70746E0,6.6432935E-1,-7.7938795E-1,9.9322635E-1,2.5551362E0,-9.235835E-2,1.545427E0,-7.964521E-1,1.3877307E-1,2.370472E-2,2.7610602E0,7.916985E-1,1.8844155E0,4.3745032E-1,4.1974643E-1,-2.49357E0,1.6865792E0,-2.4280443E0,-1.1138096E0,2.451343E0,-1.9426209E-1,3.1382382E0,-2.6212376E-1,-1.5183682E0,3.414275E0,1.09324776E-1,7.209824E-1,-1.3649393E0,5.9160236E-3,-4.256505E0,-6.765682E-1,2.9694493E0,1.4082247E0,3.43248E0],"categories":[],"categories_nodes":[],"categories_segments":[],"categories_sizes":[],"default_left":[1,0,0,0,0,0,0,0,0,0,0,0,0,0,0,0,0,0,0,0,0,0,0,0,0,0,0,0,0,0,0,0,0,0,0,0,0,0,0,0,0,0,0,0,0,0,0,0,0,0,0,0,0,0,0,0,0,0,0,0,0,0,0,0,0,0,0,0,0,0,0,0,0,0,0,0,0,0,0,0,0,0,0,0,0,0,0,0,0,0,0,0,0,0,0,0,0,0,0,0,0,0,0,0,0,0,0,0,0,0,0,0,0],"id":3,"left_children":[1,3,5,7,9,11,13,15,17,19,21,23,25,27,29,31,33,35,37,39,41,43,45,47,49,51,53,55,57,59,-1,61,63,65,67,69,71,73,75,77,-1,79,81,83,85,87,89,91,93,95,97,99,101,103,-1,-1,105,107,109,111,-1,-1,-1,-1,-1,-1,-1,-1,-1,-1,-1,-1,-1,-1,-1,-1,-1,-1,-1,-1,-1,-1,-1,-1,-1,-1,-1,-1,-1,-1,-1,-1,-1,-1,-1,-1,-1,-1,-1,-1,-1,-1,-1,-1,-1,-1,-1,-1,-1,-1,-1,-1,-1],"loss_changes":[3.0622053E4,8.470004E3,3.9543926E3,2.308917E3,2.009212E3,2.2228906E3,1.6412607E3,6.733882E2,1.0564033E3,9.975532E2,9.823779E2,1.3254727E3,1.0575293E3,4.4344223E2,1.286748E3,6.2589246E2,3.5002136E2,2.3897949E2,5.9625195E2,6.6891174E2,6.5473315E2,6.711792E2,7.7836975E1,1.0584307E3,1.0242771E3,7.1073425E2,6.2709766E2,6.561316E2,6.340101E2,1.0675381E3,0E0,4.776045E2,5.0329666E2,2.055061E2,3.005208E2,1.6908545E2,2.1215137E2,5.187241E2,1.1715039E2,2.511581E2,0E0,5.844949E2,3.694021E2,4.5470425E2,3.5061035E2,4.9344957E-2,1.13117004E2,8.9503516E2,1.01887634E2,6.723529E2,8.3443695E2,5.289404E2,3.271416E2,6.417798E2,0E0,0E0,5.410446E1,4.4890918E2,2.2755106E2,9.4451953E2,0E0,0E0,0E0,0E0,0E0,0E0,0E0,0E0,0E0,0E0,0E0,0E0,0E0,0E0,0E0,0E0,0E0,0E0,0E0,0E0,0E0,0E0,0E0,0E0,0E0,0E0,0E0,0E0,0E0,0E0,0E0,0E0,0E0,0E0,0E0,0E0,0E0,0E0,0E0,0E0,0E0,0E0,0E0,0E0,0E0,0E0,0E0,0E0,0E0,0E0,0E0,0E0,0E0],"parents":[2147483647,0,0,1,1,2,2,3,3,4,4,5,5,6,6,7,7,8,8,9,9,10,10,11,11,12,12,13,13,14,14,15,15,16,16,17,17,18,18,19,19,20,20,21,21,22,22,23,23,24,24,25,25,26,26,27,27,28,28,29,29,31,31,32,32,33,33,34,34,35,35,36,36,37,37,38,38,39,39,41,41,42,42,43,43,44,44,45,45,46,46,47,47,48,48,49,49,50,50,51,51,52,52,53,53,56,56,57,57,58,58,59,59],"right_children":[2,4,6,8,10,12,14,16,18,20,22,24,26,28,30,32,34,36,38,40,42,44,46,48,50,52,54,56,58,60,-1,62,64,66,68,70,72,74,76,78,-1,80,82,84,86,88,90,92,94,96,98,100,102,104,-1,-1,106,108,110,112,-1,-1,-1,-1,-1,-1,-1,-1,-1,-1,-1,-1,-1,-1,-1,-1,-1,-1,-1,-1,-1,-1,-1,-1,-1,-1,-1,-1,-1,-1,-1,-1,-1,-1,-1,-1,-1,-1,-1,-1,-1,-1,-1,-1,-1,-1,-1,-1,-1,-1,-1,-1,-1],"split_conditions":[3.8E1,2.5E1,5.7E1,2.2007536E2,2.3248799E2,3.3834255E1,3.7E1,3.510323E1,1.5E1,6.963277E1,1.8639078E1,2.570259E2,4.1E1,1.7E1,1.11E2,2.1158878E1,1.1E1,2.0945072E1,3.2E1,1.6161999E1,7.999999E0,1E-1,2.3294868E2,7.1E1,2.1479664E1,-7.7383345E-1,4.138121E1,1.7807502E0,3.5724165E0,9.1E1,9.534194E0,-5.0838337E0,1.5E1,4.66575E0,2.1756058E2,3.3222946E2,4.9749084E1,1.864369E1,1.420062E1,1.9E1,2.698381E0,1.2E1,1.6400002E1,1.4E1,1.0805998E1,3.5E1,2.9111514E2,6E0,1.0948973E1,2.7999997E0,5.7000003E0,-2.1796668E0,2.2948006E2,1.3289083E1,-1.1928514E0,5.42118E0,1.1E1,1.7174677E1,6.4E1,1.0745E0,-2.8776252E0,8.571486E-1,-1.4159743E0,-8.510175E-1,-9.6576875E-3,-2.558379E0,-3.03267E-1,-8.255202E-1,1.8390521E0,-1.2130493E0,9.989756E-2,-1.7255899E0,-1.377769E-1,-1.8541189E-1,-8.99409E-1,-7.795735E-2,-1.5769037E0,-1.2413442E0,-1.5522438E-1,2.70746E0,6.6432935E-1,-7.7938795E-1,9.9322635E-1,2.5551362E0,-9.235835E-2,1.545427E0,-7.964521E-1,1.3877307E-1,2.370472E-2,2.7610602E0,7.916985E-1,1.8844155E0,4.3745032E-1,4.1974643E-1,-2.49357E0,1.6865792E0,-2.4280443E0,-1.1138096E0,2.451343E0,-1.9426209E-1,3.1382382E0,-2.6212376E-1,-1.5183682E0,3.414275E0,1.09324776E-1,7.209824E-1,-1.3649393E0,5.9160236E-3,-4.256505E0,-6.765682E-1,2.9694493E0,1.4082247E0,3.43248E0],"split_indices":[0,0,0,6,6,5,1,5,0,6,3,6,2,2,0,6,2,5,1,3,7,4,6,2,5,3,5,3,3,0,0,3,0,3,6,6,5,5,5,1,0,1,7,1,5,0,6,4,5,4,4,3,6,3,0,0,2,5,0,3,0,0,0,0,0,0,0,0,0,0,0,0,0,0,0,0,0,0,0,0,0,0,0,0,0,0,0,0,0,0,0,0,0,0,0,0,0,0,0,0,0,0,0,0,0,0,0,0,0,0,0,0,0],"split_type":[0,0,0,0,0,0,0,0,0,0,0,0,0,0,0,0,0,0,0,0,0,0,0,0,0,0,0,0,0,0,0,0,0,0,0,0,0,0,0,0,0,0,0,0,0,0,0,0,0,0,0,0,0,0,0,0,0,0,0,0,0,0,0,0,0,0,0,0,0,0,0,0,0,0,0,0,0,0,0,0,0,0,0,0,0,0,0,0,0,0,0,0,0,0,0,0,0,0,0,0,0,0,0,0,0,0,0,0,0,0,0,0,0],"sum_hessian":[4.12E3,3.246E3,8.74E2,1.924E3,1.322E3,6.95E2,1.79E2,7.41E2,1.183E3,8.41E2,4.81E2,5.74E2,1.21E2,1.8E1,1.61E2,5.77E2,1.64E2,3.3E2,8.53E2,1.79E2,6.62E2,4.65E2,1.6E1,4.81E2,9.3E1,9.3E1,2.8E1,5E0,1.3E1,1.59E2,2E0,6.7E1,5.1E2,2.1E1,1.43E2,7.6E1,2.54E2,7.32E2,1.21E2,1.73E2,6E0,6.06E2,5.6E1,2.21E2,2.44E2,2E0,1.4E1,4.75E2,6E0,4.9E1,4.4E1,1.6E1,7.7E1,2.3E1,5E0,2E0,3E0,8E0,5E0,1.57E2,2E0,9E0,5.8E1,7.4E1,4.36E2,1.6E1,5E0,1.4E2,3E0,6.6E1,1E1,2.46E2,8E0,1.08E2,6.24E2,5E0,1.16E2,2.1E1,1.52E2,1.2E1,5.94E2,4.3E1,1.3E1,5E0,2.16E2,5E0,2.39E2,1E0,1E0,9E0,5E0,4.32E2,4.3E1,1E0,5E0,4.6E1,3E0,3.8E1,6E0,9E0,7E0,4.6E1,3.1E1,1.5E1,8E0,1E0,2E0,4E0,4E0,2E0,3E0,2.7E1,1.3E2],"tree_param":{"num_deleted":"0","num_feature":"8","num_nodes":"113","size_leaf_vector":"1"}},{"base_weights":[2.6744548E-2,-1.4268901E0,2.6631136E0,-6.156807E-1,-2.443304E0,1.377016E0,5.0257683E0,-1.1177579E0,4.4790518E-1,-3.1721544E0,-1.4876099E0,2.1684263E0,-1.23392195E-1,6.0632334E0,1.800278E0,-1.2971854E0,1.454661E0,2.0892823E0,-1.7009172E-1,-2.06652E0,-3.8117745E0,2.4719596E0,-1.7655592E0,1.9681472E0,8.098423E0,5.115088E-1,-3.0987315E0,7.677675E-2,6.7092805E0,5.4958477E0,-1.5692842E-1,-9.351815E-1,-2.6934643E0,4.452138E0,-4.816575E-1,5.459128E0,3.6097792E-1,4.9303812E-1,-1.6558961E0,-3.9775224E0,-1.5112263E0,-3.554625E0,-6.1786857E0,4.8038816E0,-8.0206716E-1,-2.3694873E0,2.1095073E-2,3.211507E0,1.0416006E0,1.1628674E1,-2.0769405E0,3.2392187E0,-5.627013E-1,-2.3431091E0,-7.5284834E0,1.0365167E1,-2.9126518E0,8.331043E0,4.57006E0,1.4041878E0,7.563803E0,1.4268775E0,-2.775203E0,4.124768E-1,-3.583997E-1,-1.6606857E0,-6.5935165E-1,-3.2860148E-1,1.7475374E0,6.9974506E-1,-5.614578E-1,3.0915517E-1,2.2474387E0,-2.0403002E-1,8.099021E-1,-3.407293E-1,3.8528618E-1,-1.0643561E0,3.088926E-1,-6.3860875E-1,-1.4245832E0,-6.3265216E-1,8.641954E-2,-1.5505949E0,-9.230713E-1,-1.1906382E0,-2.5977528E0,1.9197897E0,4.4076922E-3,-1.2593925E0,1.1902228E-1,-3.909081E-1,-1.0545532E0,6.9007444E-1,-2.5494888E-1,5.720105E-1,1.5927095E0,-7.324153E-1,4.5100865E-1,1.5477129E0,4.6105604E0,5.7721454E-1,-9.7858447E-1,3.6272717E0,6.5439695E-1,8.8132486E-2,-7.126443E-1,6.5339065E-1,-1.0091304E0,-2.457982E0,-4.3124285E-1,3.5998423E0,-4.0639403E-1,1.0569352E0,-2.1488328E0,2.6598E0,4.9750358E-1,1.2385178E0,7.6273546E0,2.356879E0,-4.203578E-1,2.5204458E0,-2.3836968E0,1.1272119E0,-6.90983E-1,-1.354978E0,1.5104891E-1],"categories":[],"categories_nodes":[],"categories_segments":[],"categories_sizes":[],"default_left":[1,0,0,0,0,0,0,0,0,0,0,0,0,0,0,0,0,0,0,0,0,0,0,0,0,0,0,0,0,0,0,0,0,0,0,0,0,0,0,0,0,0,0,0,0,0,0,0,0,0,0,0,0,0,0,0,0,0,0,0,0,0,0,0,0,0,0,0,0,0,0,0,0,0,0,0,0,0,0,0,0,0,0,0,0,0,0,0,0,0,0,0,0,0,0,0,0,0,0,0,0,0,0,0,0,0,0,0,0,0,0,0,0,0,0,0,0,0,0,0,0,0,0,0,0,0,0],"id":4,"left_children":[1,3,5,7,9,11,13,15,17,19,21,23,25,27,29,31,33,35,37,39,41,43,45,47,49,51,53,55,57,59,61,63,65,67,69,71,73,75,77,79,81,83,85,87,89,91,93,95,97,99,101,103,105,107,109,111,113,115,117,119,121,123,125,-1,-1,-1,-1,-1,-1,-1,-1,-1,-1,-1,-1,-1,-1,-1,-1,-1,-1,-1,-1,-1,-1,-1,-1,-1,-1,-1,-1,-1,-1,-1,-1,-1,-1,-1,-1,-1,-1,-1,-1,-1,-1,-1,-1,-1,-1,-1,-1,-1,-1,-1,-1,-1,-1,-1,-1,-1,-1,-1,-1,-1,-1,-1,-1],"loss_changes":[1.5796781E4,2.1892578E3,4.4446357E3,7.9029004E2,8.1652246E2,1.1283341E3,1.715793E3,4.6575757E2,4.8217914E2,4.6452295E2,5.6785095E2,7.227827E2,6.230812E2,1.5078223E3,9.194525E2,4.7261206E2,3.8521304E2,7.551648E2,3.4172372E2,2.560974E2,2.348877E2,2.634354E2,5.168961E2,6.913296E2,7.4258374E2,7.9881903E2,1.7649866E2,1.2296901E3,1.183124E3,3.6167932E2,3.522943E2,4.5002002E2,2.5970178E2,2.0441235E2,1.6472803E2,3.8829834E2,2.1366052E2,3.1076785E2,5.473118E2,6.830011E1,2.0813693E2,2.7940967E2,1.848982E2,1.5272104E2,6.273113E1,4.3283594E2,2.4412123E2,6.932505E2,5.617532E2,2.8364587E2,3.472336E1,6.946663E2,3.05008E2,2.4266449E2,2.0616333E1,1.886391E2,8.731726E2,6.956494E2,1.31349E3,3.0061655E2,4.4352332E2,4.6938892E2,1.8497792E2,0E0,0E0,0E0,0E0,0E0,0E0,0E0,0E0,0E0,0E0,0E0,0E0,0E0,0E0,0E0,0E0,0E0,0E0,0E0,0E0,0E0,0E0,0E0,0E0,0E0,0E0,0E0,0E0,0E0,0E0,0E0,0E0,0E0,0E0,0E0,0E0,0E0,0E0,0E0,0E0,0E0,0E0,0E0,0E0,0E0,0E0,0E0,0E0,0E0,0E0,0E0,0E0,0E0,0E0,0E0,0E0,0E0,0E0,0E0,0E0,0E0,0E0,0E0,0E0],"parents":[2147483647,0,0,1,1,2,2,3,3,4,4,5,5,6,6,7,7,8,8,9,9,10,10,11,11,12,12,13,13,14,14,15,15,16,16,17,17,18,18,19,19,20,20,21,21,22,22,23,23,24,24,25,25,26,26,27,27,28,28,29,29,30,30,31,31,32,32,33,33,34,34,35,35,36,36,37,37,38,38,39,39,40,40,41,41,42,42,43,43,44,44,45,45,46,46,47,47,48,48,49,49,50,50,51,51,52,52,53,53,54,54,55,55,56,56,57,57,58,58,59,59,60,60,61,61,62,62],"right_children":[2,4,6,8,10,12,14,16,18,20,22,24,26,28,30,32,34,36,38,40,42,44,46,48,50,52,54,56,58,60,62,64,66,68,70,72,74,76,78,80,82,84,86,88,90,92,94,96,98,100,102,104,106,108,110,112,114,116,118,120,122,124,126,-1,-1,-1,-1,-1,-1,-1,-1,-1,-1,-1,-1,-1,-1,-1,-1,-1,-1,-1,-1,-1,-1,-1,-1,-1,-1,-1,-1,-1,-1,-1,-1,-1,-1,-1,-1,-1,-1,-1,-1,-1,-1,-1,-1,-1,-1,-1,-1,-1,-1,-1,-1,-1,-1,-1,-1,-1,-1,-1,-1,-1,-1,-1,-1],"split_conditions":[3.1E1,2.3975319E2,4.5E1,2.5E1,2.1E1,2.7908709E1,2.3353256E2,1.672825E1,1.9881649E1,2.34E1,1.3684735E1,2.7402597E1,2.4279518E2,5.305097E1,1.7447933E1,3.7801712E1,1.7471494E2,4.08075E0,2.9E1,1.2E1,3.2E1,2.5E1,3.0934174E2,1.566364E2,2.3386812E2,4E-1,4E1,1.405845E1,1.9999999E-1,3.6E1,2.8019936E1,-2.3613336E0,1.1E1,1.5496736E1,2.1E1,5.926961E1,1.6161999E1,1.0119799E2,3.4E1,2.05575E0,3.219025E2,1.3E1,2.7414618E2,3.2734238E2,2.4444902E2,2.6507294E2,-1.8046666E0,9.936199E1,1.8E1,1.566364E2,1.037E0,1.7E1,6.899999E0,2.968636E1,5.6E1,3.8897232E1,-3.5696661E0,3.360557E1,1.11E2,5.1E1,5.7000003E0,5.2E1,4.5E1,4.124768E-1,-3.583997E-1,-1.6606857E0,-6.5935165E-1,-3.2860148E-1,1.7475374E0,6.9974506E-1,-5.614578E-1,3.0915517E-1,2.2474387E0,-2.0403002E-1,8.099021E-1,-3.407293E-1,3.8528618E-1,-1.0643561E0,3.088926E-1,-6.3860875E-1,-1.4245832E0,-6.3265216E-1,8.641954E-2,-1.5505949E0,-9.230713E-1,-1.1906382E0,-2.5977528E0,1.9197897E0,4.4076922E-3,-1.2593925E0,1.1902228E-1,-3.909081E-1,-1.0545532E0,6.9007444E-1,-2.5494888E-1,5.720105E-1,1.5927095E0,-7.324153E-1,4.5100865E-1,1.5477129E0,4.6105604E0,5.7721454E-1,-9.7858447E-1,3.6272717E0,6.5439695E-1,8.8132486E-2,-7.126443E-1,6.5339065E-1,-1.0091304E0,-2.457982E0,-4.3124285E-1,3.5998423E0,-4.0639403E-1,1.0569352E0,-2.1488328E0,2.6598E0,4.9750358E-1,1.2385178E0,7.6273546E0,2.356879E0,-4.203578E-1,2.5204458E0,-2.3836968E0,1.1272119E0,-6.90983E-1,-1.354978E0,1.5104891E-1],"split_indices":[0,6,0,0,0,5,6,3,5,5,5,5,6,6,5,5,6,3,1,0,1,2,6,6,6,4,0,5,7,2,5,3,2,5,1,6,3,6,2,3,6,1,6,6,6,6,3,6,2,6,3,1,4,5,1,6,3,5,0,0,4,1,2,0,0,0,0,0,0,0,0,0,0,0,0,0,0,0,0,0,0,0,0,0,0,0,0,0,0,0,0,0,0,0,0,0,0,0,0,0,0,0,0,0,0,0,0,0,0,0,0,0,0,0,0,0,0,0,0,0,0,0,0,0,0,0,0],"split_type":[0,0,0,0,0,0,0,0,0,0,0,0,0,0,0,0,0,0,0,0,0,0,0,0,0,0,0,0,0,0,0,0,0,0,0,0,0,0,0,0,0,0,0,0,0,0,0,0,0,0,0,0,0,0,0,0,0,0,0,0,0,0,0,0,0,0,0,0,0,0,0,0,0,0,0,0,0,0,0,0,0,0,0,0,0,0,0,0,0,0,0,0,0,0,0,0,0,0,0,0,0,0,0,0,0,0,0,0,0,0,0,0,0,0,0,0,0,0,0,0,0,0,0,0,0,0,0],"sum_hessian":[4.12E3,2.656E3,1.464E3,1.478E3,1.178E3,9.49E2,5.15E2,1.004E3,4.74E2,6.67E2,5.11E2,6.21E2,3.28E2,3.89E2,1.26E2,9.39E2,6.5E1,1.29E2,3.45E2,2.46E2,4.21E2,3.3E1,4.78E2,6.02E2,1.9E1,2.71E2,5.7E1,3.8E1,3.51E2,4.3E1,8.3E1,7.47E2,1.92E2,2.5E1,4E1,4.3E1,8.6E1,2.39E2,1.06E2,5.4E1,1.92E2,3.82E2,3.9E1,1.9E1,1.4E1,3.57E2,1.21E2,2.56E2,3.46E2,1.4E1,5E0,7.6E1,1.95E2,5E1,7E0,8E0,3E1,1.98E2,1.53E2,1.5E1,2.8E1,5.2E1,3.1E1,7.5E1,6.72E2,2.7E1,1.65E2,5E0,2E1,1.3E1,2.7E1,1.4E1,2.9E1,6E1,2.6E1,7.8E1,1.61E2,6.2E1,4.4E1,1.7E1,3.7E1,1.44E2,4.8E1,8.5E1,2.97E2,2.2E1,1.7E1,1.4E1,5E0,3E0,1.1E1,1.86E2,1.71E2,3.3E1,8.8E1,1.59E2,9.7E1,4E1,3.06E2,6E0,8E0,1E0,4E0,7E0,6.9E1,1.33E2,6.2E1,9E0,4.1E1,6E0,1E0,7E0,1E0,1.2E1,1.8E1,1.83E2,1.5E1,1.51E2,2E0,4E0,1.1E1,2.7E1,1E0,3.2E1,2E1,2E1,1.1E1],"tree_param":{"num_deleted":"0","num_feature":"8","num_nodes":"127","size_leaf_vector":"1"}},{"base_weights":[2.2634774E-2,-6.68267E-1,2.8519733E0,-1.346104E0,2.7162102E-1,2.371287E0,6.714027E0,-8.2137436E-1,-2.128736E0,1.1022458E-1,4.68307E0,2.091727E0,8.136307E0,9.0172E0,2.3297114E0,-4.7852695E-1,-1.6833055E0,-1.6242132E0,-2.9616868E0,7.883732E-1,-7.0373446E-1,5.0686812E0,-8.757592E-1,3.7051077E0,1.3911568E0,2.57327E0,9.037803E0,2.1132116E0,1.0079575E1,-6.545096E0,7.290091E0,1.9975435E0,-6.748265E-1,-2.9582376E0,-5.789383E-1,-9.680242E-1,-2.2900798E0,-2.8104815E0,-7.9403634E0,5.2013936E0,6.3143265E-1,-3.0039605E-1,-1.9386362E0,5.4827085E0,-7.527895E-1,4.6287975E0,6.1336386E-1,-4.2219725E0,1.6432878E0,4.9072647E0,-4.189438E-1,-5.265353E-1,9.502545E0,9.14566E0,-2.9272897E0,1.050967E1,-1.6492728E0,1.8677902E0,-8.414452E0,9.339564E0,-2.4359818E0,2.3173425E0,3.3363527E-1,-7.1752113E-1,-1.2056994E-1,-9.4161934E-1,3.64444E0,2.0096785E-1,-4.847425E-1,1.5637524E-2,-6.4804935E-1,-1.0416697E0,-5.7535446E-1,-1.6048481E0,-7.663656E-1,1.5001574E-1,-2.7652721E0,1.0085124E0,3.1400344E0,-2.6303002E-1,2.887851E-1,-5.239499E-1,1.4222978E-1,4.054823E0,-6.7164254E-1,1.7478966E0,4.9117824E-1,7.5695974E-1,-8.057557E-1,1.7071942E0,7.9898757E-1,-6.43424E-1,1.004082E0,-5.586084E-1,-2.9434485E0,6.222029E-1,-4.745286E-1,3.189783E-1,1.7502538E0,3.0270748E0,1.0802064E0,3.5038683E0,2.315941E-1,-2.101973E0,1.0462569E0,3.7825139E0,1.7452472E0,-3.0850926E-1,1.149015E0,-2.7640607E0,-1.8340588E-1,3.058638E-1,3.930344E0],"categories":[],"categories_nodes":[],"categories_segments":[],"categories_sizes":[],"default_left":[0,0,1,0,0,0,0,0,0,0,0,0,0,0,0,0,0,0,0,0,0,0,0,0,0,0,0,0,0,0,0,0,0,0,0,0,0,0,0,0,0,0,0,0,0,0,0,0,0,0,0,0,0,0,0,0,0,0,0,0,0,0,0,0,0,0,0,0,0,0,0,0,0,0,0,0,0,0,0,0,0,0,0,0,0,0,0,0,0,0,0,0,0,0,0,0,0,0,0,0,0,0,0,0,0,0,0,0,0,0,0,0,0],"id":5,"left_children":[1,3,5,7,9,11,13,15,17,19,21,23,25,27,29,31,33,35,37,39,41,43,-1,45,47,49,51,53,55,57,59,61,63,65,67,69,71,73,75,77,79,81,83,85,87,89,91,93,95,97,-1,-1,99,101,103,105,-1,107,109,111,-1,-1,-1,-1,-1,-1,-1,-1,-1,-1,-1,-1,-1,-1,-1,-1,-1,-1,-1,-1,-1,-1,-1,-1,-1,-1,-1,-1,-1,-1,-1,-1,-1,-1,-1,-1,-1,-1,-1,-1,-1,-1,-1,-1,-1,-1,-1,-1,-1,-1,-1,-1,-1],"loss_changes":[8.0576157E3,2.1110479E3,1.4859355E3,7.887915E2,9.8844086E2,1.1449946E3,8.7769995E2,3.4021405E2,3.196167E2,7.407669E2,1.5844116E2,7.736128E2,1.4224023E2,4.041079E2,1.4564315E3,4.0331262E2,4.6010913E2,2.0882239E2,1.9599658E2,5.036855E2,3.0324847E2,1.1740881E2,0E0,5.911697E2,6.8908563E2,6.2445137E1,1.5712402E2,3.457956E2,3.9276172E2,2.0443665E2,7.390681E2,3.0072665E2,3.5844785E2,4.5257288E2,2.3027536E2,2.9807208E2,9.8509155E1,1.7022998E2,9.085071E1,2.0698016E2,3.544843E2,5.171482E2,7.2612134E2,4.8600098E1,3.21077E1,3.1877588E2,3.7661404E2,2.5874094E2,6.450442E2,8.048996E0,0E0,0E0,5.7318848E1,7.5855896E1,1.8144275E2,4.091792E2,0E0,2.0987705E1,5.672052E1,5.81275E2,0E0,0E0,0E0,0E0,0E0,0E0,0E0,0E0,0E0,0E0,0E0,0E0,0E0,0E0,0E0,0E0,0E0,0E0,0E0,0E0,0E0,0E0,0E0,0E0,0E0,0E0,0E0,0E0,0E0,0E0,0E0,0E0,0E0,0E0,0E0,0E0,0E0,0E0,0E0,0E0,0E0,0E0,0E0,0E0,0E0,0E0,0E0,0E0,0E0,0E0,0E0,0E0,0E0],"parents":[2147483647,0,0,1,1,2,2,3,3,4,4,5,5,6,6,7,7,8,8,9,9,10,10,11,11,12,12,13,13,14,14,15,15,16,16,17,17,18,18,19,19,20,20,21,21,23,23,24,24,25,25,26,26,27,27,28,28,29,29,30,30,31,31,32,32,33,33,34,34,35,35,36,36,37,37,38,38,39,39,40,40,41,41,42,42,43,43,44,44,45,45,46,46,47,47,48,48,49,49,52,52,53,53,54,54,55,55,57,57,58,58,59,59],"right_children":[2,4,6,8,10,12,14,16,18,20,22,24,26,28,30,32,34,36,38,40,42,44,-1,46,48,50,52,54,56,58,60,62,64,66,68,70,72,74,76,78,80,82,84,86,88,90,92,94,96,98,-1,-1,100,102,104,106,-1,108,110,112,-1,-1,-1,-1,-1,-1,-1,-1,-1,-1,-1,-1,-1,-1,-1,-1,-1,-1,-1,-1,-1,-1,-1,-1,-1,-1,-1,-1,-1,-1,-1,-1,-1,-1,-1,-1,-1,-1,-1,-1,-1,-1,-1,-1,-1,-1,-1,-1,-1,-1,-1,-1,-1],"split_conditions":[3.9E1,2.5E1,6.4E1,2.5177692E2,1.8639078E1,2.2374083E1,2.2380884E1,3.3999996E0,2.7579382E1,2.1841165E2,3.8E1,1.8416384E1,1.1885453E1,3.7E1,5.1515827E0,-3.292167E0,5.8303337E0,4.9824166E0,4.9749084E1,1.0948973E1,1.1000001E0,6E1,-8.757592E-1,1.00000024E-1,3.4263935E1,5.2E1,7.430745E1,1.9106245E2,1.19E2,2.6E1,8.4E1,1.9201874E1,5.6973217E1,6.4E1,2E1,1E-1,1.4E1,9E0,2.5807443E2,4.5E1,4.7442482E1,3.1245003E0,1.2E1,2.921478E2,2.6E1,1.5192682E1,1.6091166E1,5E1,2.6437115E2,4.9E1,-4.189438E-1,-5.265353E-1,5.7E1,4.3807497E0,2.2120001E0,2.2101881E2,-1.6492728E0,6.5E1,4.7599163E0,1.3123329E2,-2.4359818E0,2.3173425E0,3.3363527E-1,-7.1752113E-1,-1.2056994E-1,-9.4161934E-1,3.64444E0,2.0096785E-1,-4.847425E-1,1.5637524E-2,-6.4804935E-1,-1.0416697E0,-5.7535446E-1,-1.6048481E0,-7.663656E-1,1.5001574E-1,-2.7652721E0,1.0085124E0,3.1400344E0,-2.6303002E-1,2.887851E-1,-5.239499E-1,1.4222978E-1,4.054823E0,-6.7164254E-1,1.7478966E0,4.9117824E-1,7.5695974E-1,-8.057557E-1,1.7071942E0,7.9898757E-1,-6.43424E-1,1.004082E0,-5.586084E-1,-2.9434485E0,6.222029E-1,-4.745286E-1,3.189783E-1,1.7502538E0,3.0270748E0,1.0802064E0,3.5038683E0,2.315941E-1,-2.101973E0,1.0462569E0,3.7825139E0,1.7452472E0,-3.0850926E-1,1.149015E0,-2.7640607E0,-1.8340588E-1,3.058638E-1,3.930344E0],"split_indices":[0,0,0,6,3,3,5,4,5,6,0,5,5,1,3,3,3,3,5,5,7,2,0,7,6,2,6,6,1,2,0,5,6,1,1,4,1,0,6,2,6,3,1,6,0,5,3,0,6,0,0,0,2,3,3,6,0,0,3,6,0,0,0,0,0,0,0,0,0,0,0,0,0,0,0,0,0,0,0,0,0,0,0,0,0,0,0,0,0,0,0,0,0,0,0,0,0,0,0,0,0,0,0,0,0,0,0,0,0,0,0,0,0],"split_type":[0,0,0,0,0,0,0,0,0,0,0,0,0,0,0,0,0,0,0,0,0,0,0,0,0,0,0,0,0,0,0,0,0,0,0,0,0,0,0,0,0,0,0,0,0,0,0,0,0,0,0,0,0,0,0,0,0,0,0,0,0,0,0,0,0,0,0,0,0,0,0,0,0,0,0,0,0,0,0,0,0,0,0,0,0,0,0,0,0,0,0,0,0,0,0,0,0,0,0,0,0,0,0,0,0,0,0,0,0,0,0,0,0],"sum_hessian":[4.12E3,3.312E3,8.08E2,1.924E3,1.388E3,7.2E2,8.8E1,1.153E3,7.71E2,1.34E3,4.8E1,6.88E2,3.2E1,5.7E1,3.1E1,8.26E2,3.27E2,4.82E2,2.89E2,7.31E2,6.09E2,4.6E1,2E0,2.07E2,4.81E2,5E0,2.7E1,8E0,4.9E1,1.1E1,2E1,6E1,7.66E2,1.51E2,1.76E2,2.44E2,2.38E2,2.82E2,7E0,2.4E1,7.07E2,4.6E2,1.49E2,4.3E1,3E0,1.59E2,4.8E1,2E1,4.61E2,3E0,2E0,1E0,2.6E1,3E0,5E0,4.8E1,1E0,2E0,9E0,1.8E1,2E0,7E0,5.3E1,1.04E2,6.62E2,1.5E2,1E0,8E1,9.6E1,1.32E2,1.12E2,5.5E1,1.83E2,2.4E1,2.58E2,1E0,6E0,1.9E1,5E0,1.27E2,5.8E2,1.6E2,3E2,2E0,1.47E2,3.9E1,4E0,1E0,2E0,1.02E2,5.7E1,2.4E1,2.4E1,1.5E1,5E0,4.07E2,5.4E1,1E0,2E0,2.3E1,3E0,2E0,1E0,3E0,2E0,3.2E1,1.6E1,1E0,1E0,8E0,1E0,6E0,1.2E1],"tree_param":{"num_deleted":"0","num_feature":"8","num_nodes":"113","size_leaf_vector":"1"}},{"base_weights":[1.9843528E-2,-6.3934034E-1,1.5119946E0,-1.7667887E0,-3.5225287E-1,2.4166589E0,4.9550498E-1,-1.930943E0,1.9546753E0,-2.457774E-1,-3.0989335E0,1.7682867E0,4.4983144E0,1.1680808E0,-1.4595222E0,-2.0987294E0,6.917689E-2,6.410525E0,-1.342952E-1,3.3544523E-1,-6.643201E-1,-7.6684246E0,-2.2427375E0,2.1143277E0,-1.2619231E0,4.2133327E0,5.34538E0,1.4420536E0,-3.9095094E0,-6.8673415E0,-9.083152E-1,1.3839202E0,-2.1849084E0,-1.4514647E0,1.6548281E0,9.531727E0,9.063904E-1,3.7433407E0,-1.5095726E0,2.6249748E-1,9.812415E0,-3.2610625E-1,-1.6418777E0,-6.28743E-1,-2.54733E0,-1.7302374E0,-6.827704E0,1.6744983E0,4.3439274E0,-2.940276E0,3.1859224E0,4.431695E0,-2.5201135E0,3.997884E-1,2.6080098E0,-5.044391E0,2.7422776E0,-9.640434E0,5.231285E-2,-2.8547666E0,4.3738317E-2,7.296037E-1,-8.761174E-1,-5.7996285E-1,-1.0398442E0,9.394831E-1,-6.607831E-1,3.4751766E0,1.9844228E-1,6.956057E-1,-1.0118094E-1,1.7516357E-1,1.316171E0,-8.67451E-1,4.6686095E-1,-2.9826927E-1,2.0522445E-1,-4.7800544E-1,4.4080176E0,7.241788E-2,-2.9201835E-1,-3.3100462E-1,-1.0523778E0,-1.2842027E0,-2.332425E-1,-4.1011164E-1,-2.2529926E0,6.011468E-1,-1.6716827E0,-3.9385867E-1,1.9274437E0,-2.2541535E0,-5.1150006E-1,1.5712314E0,-2.0297856E0,-2.7981117E-1,1.4924393E0,-4.2351162E-1,5.7776624E-1,1.5169321E0,3.4480333E-1,-5.8949846E-1,-2.3781865E0,1.714112E0,-9.2580134E-1,-9.84042E-1,-3.5693052E0,1.5153246E0,-7.38045E-1,-1.2831992E0,-3.325364E-1,1.21992536E-1,-2.494193E0],"categories":[],"categories_nodes":[],"categories_segments":[],"categories_sizes":[],"default_left":[0,0,0,0,0,1,0,0,0,0,0,1,0,0,0,0,0,0,0,0,0,0,0,0,0,0,0,0,0,0,0,0,0,0,0,0,0,0,0,0,0,0,0,0,0,0,0,0,0,0,0,0,0,0,0,0,0,0,0,0,0,0,0,0,0,0,0,0,0,0,0,0,0,0,0,0,0,0,0,0,0,0,0,0,0,0,0,0,0,0,0,0,0,0,0,0,0,0,0,0,0,0,0,0,0,0,0,0,0,0,0,0,0],"id":6,"left_children":[1,3,5,7,9,11,13,15,17,19,21,23,25,27,29,31,33,35,37,39,41,43,45,47,49,51,-1,53,55,57,59,61,63,-1,65,67,69,71,73,75,77,79,81,-1,-1,83,85,87,89,91,93,95,-1,97,99,101,103,105,107,109,111,-1,-1,-1,-1,-1,-1,-1,-1,-1,-1,-1,-1,-1,-1,-1,-1,-1,-1,-1,-1,-1,-1,-1,-1,-1,-1,-1,-1,-1,-1,-1,-1,-1,-1,-1,-1,-1,-1,-1,-1,-1,-1,-1,-1,-1,-1,-1,-1,-1,-1,-1,-1],"loss_changes":[4.05439E3,9.247683E2,1.1602346E3,3.5809302E2,6.660336E2,8.936372E2,7.8538763E2,1.8673438E2,2.3356436E2,5.3443604E2,3.1535406E2,5.384911E2,5.2467114E2,6.232955E2,4.4982904E2,1.5699121E2,3.5038852E2,1.2879669E2,1.016417E2,6.3344196E2,4.2167078E2,4.1802063E1,1.597215E2,4.428413E2,4.0501538E2,4.6690796E2,0E0,5.1178693E2,1.8745993E2,2.6914813E2,2.595625E2,6.5749535E1,1.5486475E2,0E0,2.00582E2,8.335495E1,7.807683E0,7.610214E0,6.3813416E1,4.8493243E2,4.1311078E2,3.492037E2,3.2574365E2,0E0,0E0,1.5947932E2,1.5813141E1,9.299833E2,8.912694E2,2.0752405E2,3.4168262E2,4.5330615E2,0E0,6.21971E2,7.04905E2,1.6197461E2,8.690582E1,1.04541626E2,7.522252E1,1.0953381E2,2.9151993E2,0E0,0E0,0E0,0E0,0E0,0E0,0E0,0E0,0E0,0E0,0E0,0E0,0E0,0E0,0E0,0E0,0E0,0E0,0E0,0E0,0E0,0E0,0E0,0E0,0E0,0E0,0E0,0E0,0E0,0E0,0E0,0E0,0E0,0E0,0E0,0E0,0E0,0E0,0E0,0E0,0E0,0E0,0E0,0E0,0E0,0E0,0E0,0E0,0E0,0E0,0E0,0E0],"parents":[2147483647,0,0,1,1,2,2,3,3,4,4,5,5,6,6,7,7,8,8,9,9,10,10,11,11,12,12,13,13,14,14,15,15,16,16,17,17,18,18,19,19,20,20,21,21,22,22,23,23,24,24,25,25,27,27,28,28,29,29,30,30,31,31,32,32,34,34,35,35,36,36,37,37,38,38,39,39,40,40,41,41,42,42,45,45,46,46,47,47,48,48,49,49,50,50,51,51,53,53,54,54,55,55,56,56,57,57,58,58,59,59,60,60],"right_children":[2,4,6,8,10,12,14,16,18,20,22,24,26,28,30,32,34,36,38,40,42,44,46,48,50,52,-1,54,56,58,60,62,64,-1,66,68,70,72,74,76,78,80,82,-1,-1,84,86,88,90,92,94,96,-1,98,100,102,104,106,108,110,112,-1,-1,-1,-1,-1,-1,-1,-1,-1,-1,-1,-1,-1,-1,-1,-1,-1,-1,-1,-1,-1,-1,-1,-1,-1,-1,-1,-1,-1,-1,-1,-1,-1,-1,-1,-1,-1,-1,-1,-1,-1,-1,-1,-1,-1,-1,-1,-1,-1,-1,-1,-1],"split_conditions":[3.3E1,1.6E1,2.3990698E1,1.6161999E1,4.7304054E1,5.3E1,2.345925E2,4.2033756E1,1.5E1,2.0848325E2,1.3E1,5.3E1,1.11E2,1.24E1,2.4798223E1,-6.8504996E0,1E1,2.4647925E2,1.7782688E1,5.9E1,1.6E0,6E0,2.5965665E2,2.2104116E1,1.8291166E1,7.6E1,5.34538E0,7.0932503E0,1.8445333E1,3.0496112E2,2.4E1,2.5E1,3.4882866E1,-1.4514647E0,1.9E1,2.1E1,1E1,1.1E1,1.714325E1,5.6973217E1,8E-1,2.656923E2,3.3E1,-6.28743E-1,-2.54733E0,1.8837683E2,3.0366668E-1,2.1749481E1,1.3636665E0,3.6E1,1.2000002E0,7.430745E1,-2.5201135E0,3.1433586E1,1.3289083E1,3.8E1,4.4E1,2.635E2,2.1E1,2.5510818E2,7.6E1,7.296037E-1,-8.761174E-1,-5.7996285E-1,-1.0398442E0,9.394831E-1,-6.607831E-1,3.4751766E0,1.9844228E-1,6.956057E-1,-1.0118094E-1,1.7516357E-1,1.316171E0,-8.67451E-1,4.6686095E-1,-2.9826927E-1,2.0522445E-1,-4.7800544E-1,4.4080176E0,7.241788E-2,-2.9201835E-1,-3.3100462E-1,-1.0523778E0,-1.2842027E0,-2.332425E-1,-4.1011164E-1,-2.2529926E0,6.011468E-1,-1.6716827E0,-3.9385867E-1,1.9274437E0,-2.2541535E0,-5.1150006E-1,1.5712314E0,-2.0297856E0,-2.7981117E-1,1.4924393E0,-4.2351162E-1,5.7776624E-1,1.5169321E0,3.4480333E-1,-5.8949846E-1,-2.3781865E0,1.714112E0,-9.2580134E-1,-9.84042E-1,-3.5693052E0,1.5153246E0,-7.38045E-1,-1.2831992E0,-3.325364E-1,1.21992536E-1,-2.494193E0],"split_indices":[0,0,5,3,5,0,6,5,2,6,1,1,0,4,5,3,0,6,5,1,4,2,6,5,3,1,0,3,3,6,2,1,5,0,1,1,0,0,3,6,4,6,1,0,0,6,3,5,3,2,4,6,0,5,3,1,0,6,1,6,2,0,0,0,0,0,0,0,0,0,0,0,0,0,0,0,0,0,0,0,0,0,0,0,0,0,0,0,0,0,0,0,0,0,0,0,0,0,0,0,0,0,0,0,0,0,0,0,0,0,0,0,0],"split_type":[0,0,0,0,0,0,0,0,0,0,0,0,0,0,0,0,0,0,0,0,0,0,0,0,0,0,0,0,0,0,0,0,0,0,0,0,0,0,0,0,0,0,0,0,0,0,0,0,0,0,0,0,0,0,0,0,0,0,0,0,0,0,0,0,0,0,0,0,0,0,0,0,0,0,0,0,0,0,0,0,0,0,0,0,0,0,0,0,0,0,0,0,0,0,0,0,0,0,0,0,0,0,0,0,0,0,0,0,0,0,0,0,0],"sum_hessian":[4.12E3,2.858E3,1.262E3,5.79E2,2.279E3,6.67E2,5.95E2,5.55E2,2.4E1,2.195E3,8.4E1,5.1E2,1.57E2,4.43E2,1.52E2,5.12E2,4.3E1,7E0,1.7E1,9.19E2,1.276E3,1.2E1,7.2E1,4.58E2,5.2E1,1.55E2,2E0,4.21E2,2.2E1,1.3E1,1.39E2,1.2E1,5E2,1E1,3.3E1,4E0,3E0,4E0,1.3E1,9.13E2,6E0,9.49E2,3.27E2,2E0,1E1,6.6E1,6E0,3.84E2,7.4E1,3.8E1,1.4E1,1.53E2,2E0,2.23E2,1.98E2,1.9E1,3E0,9E0,4E0,4.5E1,9.4E1,1E1,2E0,4.2E2,8E1,2.4E1,9E0,3E0,1E0,1E0,2E0,1E0,3E0,9E0,4E0,2.29E2,6.84E2,2E0,4E0,5.06E2,4.43E2,2.55E2,7.2E1,1.7E1,4.9E1,1E0,5E0,3.68E2,1.6E1,2E1,5.4E1,7E0,3.1E1,1.2E1,2E0,1.4E1,1.39E2,1.02E2,1.21E2,7.3E1,1.25E2,1E1,9E0,2E0,1E0,3E0,6E0,1E0,3E0,2.4E1,2.1E1,9.1E1,3E0],"tree_param":{"num_deleted":"0","num_feature":"8","num_nodes":"113","size_leaf_vector":"1"}},{"base_weights":[1.1620806E-2,-2.9751626E-1,1.7982919E0,-4.542128E-1,1.0473838E0,9.600194E0,1.6517714E0,-1.1283312E0,-1.6233802E-1,3.0915926E0,5.3797835E-1,1.4551038E1,7.4897385E-1,3.821605E0,1.2292105E0,-1.1627052E0,4.4793463E0,1.8087894E0,-2.8915197E-1,4.1070457E0,-1.1086303E0,3.2543214E-3,2.979487E0,1.8212267E0,5.783615E0,2.8051949E0,-1.1213865E0,5.1277757E0,-6.0380507E-1,9.1891724E-1,4.889386E0,-1.0376977E0,-2.6886747E0,-2.761367E0,8.790045E0,7.3658757E0,1.1967984E0,-4.619953E0,-2.1874607E-1,3.6475384E0,4.6137714E0,2.735698E-1,-3.9277444E0,1.0245391E0,-1.0180571E0,1.8963557E0,4.9802227E0,-5.0295585E-1,1.3225079E0,2.2307855E-1,9.733589E-1,5.5358367E0,-3.7603085E0,-3.7858276E0,1.7121972E0,6.506568E-1,4.520099E0,2.8809402E0,1.1264102E1,-7.1441835E-1,-2.54291E-1,-1.4850974E0,-5.114064E-1,-1.1076975E0,-1.3491784E-1,3.524061E0,-1.2064362E-2,2.5079699E0,-6.843613E-1,6.274098E-1,-2.671907E-1,-6.4968604E-1,-2.2262337E0,-7.130203E-1,-3.840819E-2,-1.3867218E0,1.207631E0,-5.9168494E-1,2.9753724E-1,-1.5526761E0,-4.1119626E-1,5.905453E-1,-9.845355E-2,-5.758865E-1,2.849634E-1,3.0015783E-2,1.2406445E0,2.2525682E0,6.620089E-1,1.275639E0,3.369689E0,1.0643349E0,-1.4984614E0,8.4121555E-1,-1.8722867E0,2.7268606E-1,-9.353648E-1,1.54882E0,2.6246932E-1,3.0440173E0,-3.1864026E-1,4.7092524E-1,4.7548957E0],"categories":[],"categories_nodes":[],"categories_segments":[],"categories_sizes":[],"default_left":[0,0,0,0,0,0,0,0,0,0,0,0,0,0,1,0,0,0,1,0,0,0,0,0,0,0,0,0,0,0,0,0,0,0,0,0,0,0,0,0,0,0,0,0,0,0,0,0,0,0,0,0,0,0,0,0,0,0,0,0,0,0,0,0,0,0,0,0,0,0,0,0,0,0,0,0,0,0,0,0,0,0,0,0,0,0,0,0,0,0,0,0,0,0,0,0,0,0,0,0,0,0,0],"id":7,"left_children":[1,3,5,7,9,11,13,15,17,19,21,23,25,27,29,31,33,35,37,39,41,43,45,47,-1,49,-1,51,53,55,57,59,61,63,65,67,69,71,73,75,-1,77,79,81,83,85,87,-1,-1,-1,-1,89,-1,91,93,95,97,99,101,-1,-1,-1,-1,-1,-1,-1,-1,-1,-1,-1,-1,-1,-1,-1,-1,-1,-1,-1,-1,-1,-1,-1,-1,-1,-1,-1,-1,-1,-1,-1,-1,-1,-1,-1,-1,-1,-1,-1,-1,-1,-1,-1,-1],"loss_changes":[2.2766716E3,7.410205E2,6.791708E2,6.1921155E2,3.8050525E2,4.7113275E2,5.436006E2,1.8852087E2,5.499492E2,3.159077E2,3.8512262E2,3.8616638E2,5.661628E1,5.6378955E2,5.6564246E2,1.7766675E2,2.1154773E2,4.4350247E2,6.2894165E2,2.4950342E2,5.9523205E1,2.545041E2,1.0540988E2,3.45381E1,0E0,1.2103138E0,0E0,6.0993005E2,1.7598224E2,4.4530826E2,4.668764E2,2.2169824E2,1.4956702E2,4.7955856E0,1.0491052E2,1.4373315E2,2.2781213E2,2.1077667E2,3.9789197E2,1.9986853E2,0E0,1.9699297E1,8.860291E0,1.5642677E2,2.1827823E2,1.4438359E2,1.096543E2,0E0,0E0,0E0,0E0,4.9336987E2,0E0,1.0638725E2,1.3907156E2,4.2431665E2,7.044403E1,8.989125E2,3.7520544E2,0E0,0E0,0E0,0E0,0E0,0E0,0E0,0E0,0E0,0E0,0E0,0E0,0E0,0E0,0E0,0E0,0E0,0E0,0E0,0E0,0E0,0E0,0E0,0E0,0E0,0E0,0E0,0E0,0E0,0E0,0E0,0E0,0E0,0E0,0E0,0E0,0E0,0E0,0E0,0E0,0E0,0E0,0E0,0E0],"parents":[2147483647,0,0,1,1,2,2,3,3,4,4,5,5,6,6,7,7,8,8,9,9,10,10,11,11,12,12,13,13,14,14,15,15,16,16,17,17,18,18,19,19,20,20,21,21,22,22,23,23,25,25,27,27,28,28,29,29,30,30,31,31,32,32,33,33,34,34,35,35,36,36,37,37,38,38,39,39,41,41,42,42,43,43,44,44,45,45,46,46,51,51,53,53,54,54,55,55,56,56,57,57,58,58],"right_children":[2,4,6,8,10,12,14,16,18,20,22,24,26,28,30,32,34,36,38,40,42,44,46,48,-1,50,-1,52,54,56,58,60,62,64,66,68,70,72,74,76,-1,78,80,82,84,86,88,-1,-1,-1,-1,90,-1,92,94,96,98,100,102,-1,-1,-1,-1,-1,-1,-1,-1,-1,-1,-1,-1,-1,-1,-1,-1,-1,-1,-1,-1,-1,-1,-1,-1,-1,-1,-1,-1,-1,-1,-1,-1,-1,-1,-1,-1,-1,-1,-1,-1,-1,-1,-1,-1],"split_conditions":[4.3E1,1.6411583E1,1.9E1,1.9E1,2.1E1,2E1,1.405845E1,6.4E1,-4.6613336E0,2.4881851E2,1.911825E1,4.8E1,6.5E1,2.4881851E2,6.9E1,3.2E1,1.5E1,1.6595179E1,1E1,4.9E1,2.4522316E1,2.3708124E1,4E-1,4.7E1,5.783615E0,4.4E1,-1.1213865E0,7.4E1,3.5E1,2.1530748E1,7.3E1,1E1,2.4216522E1,1.4E1,6.8E1,4.1E1,3.1559086E1,2.5E1,2.3724638E1,1.1E1,4.6137714E0,1.6946787E1,1.2E1,3.2E1,2.1000001E0,2.0584917E1,2.0945072E1,-5.0295585E-1,1.3225079E0,2.2307855E-1,9.733589E-1,6.3E1,-3.7603085E0,1.9E1,2E-1,4.0796116E1,6E1,3.3E1,6E-1,-7.1441835E-1,-2.54291E-1,-1.4850974E0,-5.114064E-1,-1.1076975E0,-1.3491784E-1,3.524061E0,-1.2064362E-2,2.5079699E0,-6.843613E-1,6.274098E-1,-2.671907E-1,-6.4968604E-1,-2.2262337E0,-7.130203E-1,-3.840819E-2,-1.3867218E0,1.207631E0,-5.9168494E-1,2.9753724E-1,-1.5526761E0,-4.1119626E-1,5.905453E-1,-9.845355E-2,-5.758865E-1,2.849634E-1,3.0015783E-2,1.2406445E0,2.2525682E0,6.620089E-1,1.275639E0,3.369689E0,1.0643349E0,-1.4984614E0,8.4121555E-1,-1.8722867E0,2.7268606E-1,-9.353648E-1,1.54882E0,2.6246932E-1,3.0440173E0,-3.1864026E-1,4.7092524E-1,4.7548957E0],"split_indices":[0,3,1,0,1,2,5,1,3,6,3,0,0,6,0,1,0,5,2,2,5,5,4,0,0,0,0,0,2,3,1,0,5,0,1,0,5,0,6,2,0,5,1,1,4,3,5,0,0,0,0,0,0,2,4,5,0,2,4,0,0,0,0,0,0,0,0,0,0,0,0,0,0,0,0,0,0,0,0,0,0,0,0,0,0,0,0,0,0,0,0,0,0,0,0,0,0,0,0,0,0,0,0],"split_type":[0,0,0,0,0,0,0,0,0,0,0,0,0,0,0,0,0,0,0,0,0,0,0,0,0,0,0,0,0,0,0,0,0,0,0,0,0,0,0,0,0,0,0,0,0,0,0,0,0,0,0,0,0,0,0,0,0,0,0,0,0,0,0,0,0,0,0,0,0,0,0,0,0,0,0,0,0,0,0,0,0,0,0,0,0,0,0,0,0,0,0,0,0,0,0,0,0,0,0,0,0,0,0],"sum_hessian":[4.12E3,3.513E3,6.07E2,3.147E3,3.66E2,1E1,5.97E2,9.5E2,2.197E3,7.2E1,2.94E2,6E0,4E0,9.6E1,5.01E2,9.45E2,5E0,1.32E2,2.065E3,5.8E1,1.4E1,2.42E2,5.2E1,2E0,4E0,3E0,1E0,7.4E1,2.2E1,4.63E2,3.8E1,8.75E2,7E1,2E0,3E0,1.2E1,1.2E2,3.2E1,2.033E3,5.7E1,1E0,1E1,4E0,1.21E2,1.21E2,3.5E1,1.7E1,1E0,1E0,1E0,2E0,7.3E1,1E0,9E0,1.3E1,4.32E2,3.1E1,3E1,8E0,1.07E2,7.68E2,2E1,5E1,1E0,1E0,2E0,1E0,1.1E1,1E0,8.4E1,3.6E1,1.8E1,1.4E1,8.1E1,1.952E3,2E0,5.5E1,2E0,8E0,2E0,2E0,7.1E1,5E1,8.3E1,3.8E1,2E1,1.5E1,8E0,9E0,6.1E1,1.2E1,1E0,8E0,1.2E1,1E0,4.05E2,2.7E1,2.6E1,5E0,1E1,2E1,3E0,5E0],"tree_param":{"num_deleted":"0","num_feature":"8","num_nodes":"103","size_leaf_vector":"1"}},{"base_weights":[1.2895876E-2,-4.9400243E-1,5.77496E-1,-6.1905455E-2,-7.449133E-1,4.0698525E-1,2.2622309E0,2.0406334E0,-1.9900598E-1,-3.1520444E-1,-1.3187839E0,5.763253E0,3.425511E-1,2.4462988E0,-2.8055556E0,-4.162528E-1,4.057957E0,-2.1229835E0,-7.915568E-2,-2.2437999E-1,-3.3223999E0,6.7760956E-1,-1.497496E0,1.784754E0,8.598398E0,2.6648164E-1,3.5916622E0,1.7078806E0,5.738885E0,9.463681E-1,-2.2822967E0,1.6924876E-1,6.3354774E0,-3.1812894E0,2.346128E0,3.4263017E0,-2.4473247E-1,-6.906124E-1,4.3315616E-1,-6.7298408E0,-1.7239006E0,-1.2355419E0,2.2822347E0,-2.3207626E0,-1.1570002E0,1.208739E0,-3.8301817E-1,9.76945E0,-6.424759E-1,7.31347E-1,-2.359415E-1,-2.835433E0,4.590831E0,1.4001069E0,5.753594E0,6.1020393E0,-8.278339E-1,7.476199E-1,-2.8660193E-1,-1.243151E0,1.2240303E-1,9.5237094E-1,-1.2216151E0,2.5697026E0,5.7774395E-1,-8.651774E-2,-1.2404722E0,1.5268183E0,3.78788E-2,2.2202888E0,2.975731E-1,-8.4272936E-2,1.7736982E0,1.4886081E-1,-3.40884E-1,-4.064721E-1,3.119636E-1,-2.6674232E0,-8.657433E-1,1.3755667E0,-8.6123955E-1,-1.3075254E0,-3.778264E-2,1.9652325E0,3.765191E-1,-5.660549E-1,-1.3020275E0,-3.134618E-1,-1.2137209E0,-9.90205E-1,5.702956E-1,3.482486E0,1.5723572E0,1.0666215E-1,6.1546254E-1,1.4561284E-1,-3.0503196E-1,-1.3219538E0,7.5299436E-1,1.748204E0,-7.070652E-1,8.92677E-1,1.7914401E-1,2.1364007E0,-9.8341143E-1,5.6268716E-1,2.1124063E0],"categories":[],"categories_nodes":[],"categories_segments":[],"categories_sizes":[],"default_left":[0,0,0,0,0,0,0,0,0,0,0,0,1,0,0,0,0,0,0,0,0,0,1,0,0,1,0,0,0,0,0,0,0,0,0,0,0,0,0,0,0,0,0,0,0,0,0,0,0,1,0,0,0,0,0,0,0,0,0,0,0,0,0,0,0,0,0,0,0,0,0,0,0,0,0,0,0,0,0,0,0,0,0,0,0,0,0,0,0,0,0,0,0,0,0,0,0,0,0,0,0,0,0,0,0,0,0],"id":8,"left_children":[1,3,5,7,9,11,13,15,17,19,21,23,25,27,-1,29,31,33,35,37,39,41,43,45,47,49,51,53,55,57,59,61,63,65,67,69,71,73,75,77,79,81,83,85,87,-1,89,91,-1,93,95,97,99,101,103,105,-1,-1,-1,-1,-1,-1,-1,-1,-1,-1,-1,-1,-1,-1,-1,-1,-1,-1,-1,-1,-1,-1,-1,-1,-1,-1,-1,-1,-1,-1,-1,-1,-1,-1,-1,-1,-1,-1,-1,-1,-1,-1,-1,-1,-1,-1,-1,-1,-1,-1,-1],"loss_changes":[1.1796942E3,2.3543744E2,5.5924695E2,2.3072519E2,3.38409E2,6.0958997E2,4.0553986E2,2.4454959E2,1.7300449E2,2.1420535E2,2.1080109E2,2.2152606E2,4.320639E2,4.205398E2,0E0,6.064223E1,2.3805621E2,2.1556996E2,4.1177756E2,2.3482108E2,1.1367465E2,1.5324446E2,1.4868689E2,5.0196186E1,1.7184705E2,4.0025934E2,2.6988715E2,1.7373834E2,1.155968E2,4.3533302E1,5.177186E1,1.531381E2,1.5068927E2,9.81214E1,5.416453E1,3.0228705E2,1.5245978E2,2.3752226E2,3.4639377E2,3.2505035E1,1.3617387E2,7.914937E1,1.10160416E2,1.293764E2,1.20153015E2,0E0,4.6258293E1,3.0752686E1,0E0,4.4083322E2,4.6459305E2,6.1448677E1,3.1441785E2,1.7153503E2,1.4687332E2,1.0986096E2,0E0,0E0,0E0,0E0,0E0,0E0,0E0,0E0,0E0,0E0,0E0,0E0,0E0,0E0,0E0,0E0,0E0,0E0,0E0,0E0,0E0,0E0,0E0,0E0,0E0,0E0,0E0,0E0,0E0,0E0,0E0,0E0,0E0,0E0,0E0,0E0,0E0,0E0,0E0,0E0,0E0,0E0,0E0,0E0,0E0,0E0,0E0,0E0,0E0,0E0,0E0],"parents":[2147483647,0,0,1,1,2,2,3,3,4,4,5,5,6,6,7,7,8,8,9,9,10,10,11,11,12,12,13,13,15,15,16,16,17,17,18,18,19,19,20,20,21,21,22,22,23,23,24,24,25,25,26,26,27,27,28,28,29,29,30,30,31,31,32,32,33,33,34,34,35,35,36,36,37,37,38,38,39,39,40,40,41,41,42,42,43,43,44,44,46,46,47,47,49,49,50,50,51,51,52,52,53,53,54,54,55,55],"right_children":[2,4,6,8,10,12,14,16,18,20,22,24,26,28,-1,30,32,34,36,38,40,42,44,46,48,50,52,54,56,58,60,62,64,66,68,70,72,74,76,78,80,82,84,86,88,-1,90,92,-1,94,96,98,100,102,104,106,-1,-1,-1,-1,-1,-1,-1,-1,-1,-1,-1,-1,-1,-1,-1,-1,-1,-1,-1,-1,-1,-1,-1,-1,-1,-1,-1,-1,-1,-1,-1,-1,-1,-1,-1,-1,-1,-1,-1,-1,-1,-1,-1,-1,-1,-1,-1,-1,-1,-1,-1],"split_conditions":[2.7E1,1E-1,1.8639078E1,1.31041975E1,2.3715494E2,9.290511E0,7E1,2E1,1.484318E1,1.81E1,1.642247E1,4.2E1,6.9E1,1.2E0,-2.8055556E0,1.7E1,1.0948973E1,3.0934174E2,1.642247E1,2.5E1,1.7E1,2.9369153E2,1.7E1,1.1045333E1,1.542242E1,3.3E1,1.0747485E2,6.3E1,1.5E1,1.2974168E0,1.9E1,7.0932503E0,2.4E1,9.7657585E1,1.7E1,1.9953332E0,4.915022E1,1.5E1,1.1192768E2,1.2358349E2,1.8E1,2.0000002E-1,1.6E1,2E1,5.6E1,1.208739E0,8.435069E0,4.7E1,-6.424759E-1,3.8E1,1.9388165E2,5.1E1,1.62495E1,3.8E1,2E-1,3.6E1,-8.278339E-1,7.476199E-1,-2.8660193E-1,-1.243151E0,1.2240303E-1,9.5237094E-1,-1.2216151E0,2.5697026E0,5.7774395E-1,-8.651774E-2,-1.2404722E0,1.5268183E0,3.78788E-2,2.2202888E0,2.975731E-1,-8.4272936E-2,1.7736982E0,1.4886081E-1,-3.40884E-1,-4.064721E-1,3.119636E-1,-2.6674232E0,-8.657433E-1,1.3755667E0,-8.6123955E-1,-1.3075254E0,-3.778264E-2,1.9652325E0,3.765191E-1,-5.660549E-1,-1.3020275E0,-3.134618E-1,-1.2137209E0,-9.90205E-1,5.702956E-1,3.482486E0,1.5723572E0,1.0666215E-1,6.1546254E-1,1.4561284E-1,-3.0503196E-1,-1.3219538E0,7.5299436E-1,1.748204E0,-7.070652E-1,8.92677E-1,1.7914401E-1,2.1364007E0,-9.8341143E-1,5.6268716E-1,2.1124063E0],"split_indices":[0,4,3,5,6,5,1,0,5,4,5,2,0,4,0,0,5,6,5,2,2,6,1,3,3,1,6,2,4,3,0,3,2,6,2,3,5,2,6,6,2,7,2,0,2,0,5,1,0,0,6,1,3,2,4,0,0,0,0,0,0,0,0,0,0,0,0,0,0,0,0,0,0,0,0,0,0,0,0,0,0,0,0,0,0,0,0,0,0,0,0,0,0,0,0,0,0,0,0,0,0,0,0,0,0,0,0],"split_type":[0,0,0,0,0,0,0,0,0,0,0,0,0,0,0,0,0,0,0,0,0,0,0,0,0,0,0,0,0,0,0,0,0,0,0,0,0,0,0,0,0,0,0,0,0,0,0,0,0,0,0,0,0,0,0,0,0,0,0,0,0,0,0,0,0,0,0,0,0,0,0,0,0,0,0,0,0,0,0,0,0,0,0,0,0,0,0,0,0,0,0,0,0,0,0,0,0,0,0,0,0,0,0,0,0,0,0],"sum_hessian":[4.12E3,2.171E3,1.949E3,7.98E2,1.373E3,1.771E3,1.78E2,4.8E1,7.5E2,7.86E2,5.87E2,2E1,1.751E3,1.76E2,2E0,2.2E1,2.6E1,4.3E1,7.07E2,7.64E2,2.2E1,4.8E1,5.39E2,9E0,1.1E1,1.712E3,3.9E1,1.45E2,3.1E1,1.3E1,9E0,1E1,1.6E1,3.5E1,8E0,3.1E1,6.76E2,4.47E2,3.17E2,6E0,1.6E1,2.2E1,2.6E1,1.56E2,3.83E2,4E0,5E0,1E1,1E0,8.89E2,8.23E2,5E0,3.4E1,1.36E2,9E0,3E1,1E0,7E0,6E0,5E0,4E0,6E0,4E0,1E1,6E0,9E0,2.6E1,3E0,5E0,1.1E1,2E1,6.73E2,3E0,1.22E2,3.25E2,8E1,2.37E2,3E0,3E0,2E0,1.4E1,5E0,1.7E1,4E0,2.2E1,1.3E2,2.6E1,3.7E2,1.3E1,2E0,3E0,6E0,4E0,6.93E2,1.96E2,4.28E2,3.95E2,4E0,1E0,2.9E1,5E0,4.5E1,9.1E1,8E0,1E0,6E0,2.4E1],"tree_param":{"num_deleted":"0","num_feature":"8","num_nodes":"107","size_leaf_vector":"1"}},{"base_weights":[1.1079952E-2,-1.5919673E-1,9.951937E-1,2.3884508E-1,-4.4158185E-1,6.664758E0,8.892399E-1,1.3315338E-1,2.0120687E0,6.2060226E-3,-7.5216144E-1,1.0601496E1,-1.7962646E-1,1.1680497E0,-1.1638435E0,1.2397579E0,-5.7980858E-2,4.973051E0,3.846508E-1,2.0780222E0,-4.3351747E-2,-8.9255196E-1,9.3007183E-1,2.621622E0,4.779299E0,1.8011484E0,-1.2154089E0,1.0094267E0,5.5974774E0,-6.339107E0,4.2800146E-1,3.7501452E0,2.5790867E-1,-2.2412553E0,1.0771362E-1,3.9487455E0,5.048042E0,1.5999318E0,-1.6012638E0,-4.4063277E0,1.4662852E-2,4.4809203E0,-9.2548627E-1,1.518227E0,-2.53926E0,-5.198319E-1,1.3952035E0,1.5823938E-1,8.4333E-1,-1.8932602E0,1.2272947E0,6.4655066E0,-1.3738524E0,-3.42631E-1,-1.1631237E1,-1.5599438E0,4.0843E0,9.034687E-1,3.248728E0,-3.4538338E-1,4.2610443E-1,-8.7952006E-1,1.3795328E0,-1.7072672E-2,4.333122E-1,1.7122868E0,6.3601404E-2,-6.9991916E-1,6.6063005E-1,-1.1642185E0,7.763871E-1,-2.6739025E0,-4.806591E-1,2.565178E0,-2.687366E-2,2.0030642E0,3.4941933E-1,-2.8397945E-1,2.1646533E0,1.1020299E0,2.5324365E-1,-1.3630872E0,3.4257974E-2,-1.0061519E0,1.3910491E0,4.0129605E-1,-1.3906386E0,-5.756321E-1,2.1328344E0,-1.9354789E0,1.1361353E0,-3.7149105E0,-8.4252894E-1,4.5989597E-1,-1.4729608E0,2.145742E0,-7.906553E-1],"categories":[],"categories_nodes":[],"categories_segments":[],"categories_sizes":[],"default_left":[0,0,0,0,0,0,0,0,0,0,0,0,0,0,0,0,0,0,0,0,0,0,0,0,0,0,0,0,0,0,0,0,0,0,0,0,0,0,0,0,0,0,1,0,0,0,0,0,0,0,0,0,0,0,0,0,0,0,0,0,0,0,0,0,0,0,0,0,0,0,0,0,0,0,0,0,0,0,0,0,0,0,0,0,0,0,0,0,0,0,0,0,0,0,0,0,0],"id":9,"left_children":[1,3,5,7,9,11,13,15,17,19,21,23,25,27,29,31,33,35,37,-1,39,41,43,45,-1,47,-1,49,51,53,55,57,59,61,63,65,-1,67,69,71,73,75,77,79,81,-1,-1,-1,-1,83,85,87,-1,89,91,93,95,-1,-1,-1,-1,-1,-1,-1,-1,-1,-1,-1,-1,-1,-1,-1,-1,-1,-1,-1,-1,-1,-1,-1,-1,-1,-1,-1,-1,-1,-1,-1,-1,-1,-1,-1,-1,-1,-1,-1,-1],"loss_changes":[6.907211E2,3.9508292E2,3.593064E2,2.7317062E2,2.8594028E2,2.9829437E2,3.436665E2,2.9153268E2,3.932251E2,2.8942084E2,2.875401E2,2.5593604E2,4.56423E1,3.6462482E2,5.9586475E2,4.9939154E2,4.2566708E2,2.856693E2,1.3288791E2,0E0,2.1217609E2,2.0253217E2,1.956627E2,4.339982E1,0E0,3.6626806E0,0E0,3.2484888E2,1.8861932E2,5.35495E2,4.1340848E2,2.6540576E2,2.4243503E2,4.0546225E2,2.4081076E2,1.8281906E2,0E0,8.56607E1,2.1057591E2,1.2473012E2,7.3752026E2,4.319876E1,1.984671E2,1.14574615E2,7.4977646E1,0E0,0E0,0E0,0E0,3.5890894E2,3.1352863E2,1.0542413E2,0E0,2.5148936E2,2.49198E1,3.9088696E2,4.3120178E2,0E0,0E0,0E0,0E0,0E0,0E0,0E0,0E0,0E0,0E0,0E0,0E0,0E0,0E0,0E0,0E0,0E0,0E0,0E0,0E0,0E0,0E0,0E0,0E0,0E0,0E0,0E0,0E0,0E0,0E0,0E0,0E0,0E0,0E0,0E0,0E0,0E0,0E0,0E0,0E0],"parents":[2147483647,0,0,1,1,2,2,3,3,4,4,5,5,6,6,7,7,8,8,9,9,10,10,11,11,12,12,13,13,14,14,15,15,16,16,17,17,18,18,20,20,21,21,22,22,23,23,25,25,27,27,28,28,29,29,30,30,31,31,32,32,33,33,34,34,35,35,37,37,38,38,39,39,40,40,41,41,42,42,43,43,44,44,49,49,50,50,51,51,53,53,54,54,55,55,56,56],"right_children":[2,4,6,8,10,12,14,16,18,20,22,24,26,28,30,32,34,36,38,-1,40,42,44,46,-1,48,-1,50,52,54,56,58,60,62,64,66,-1,68,70,72,74,76,78,80,82,-1,-1,-1,-1,84,86,88,-1,90,92,94,96,-1,-1,-1,-1,-1,-1,-1,-1,-1,-1,-1,-1,-1,-1,-1,-1,-1,-1,-1,-1,-1,-1,-1,-1,-1,-1,-1,-1,-1,-1,-1,-1,-1,-1,-1,-1,-1,-1,-1,-1],"split_conditions":[4.3E1,2.0848325E2,1.9E1,2.0313997E2,1E-1,2E1,6E0,-2.3613336E0,1.9E1,-1.12005005E1,3.3404666E2,1.5E1,6.5E1,4.7E0,5.899999E0,2.0945072E1,1.4E1,1.8E1,2.0694356E2,2.0780222E0,2.1279623E2,1.0538843E1,3.058517E1,4.7E1,4.779299E0,4.5E1,-1.2154089E0,2.2E1,6.1E1,5.2241665E-1,5.5E1,1.8073242E2,-5.467583E0,3.7E1,1.672825E1,2.5E1,5.048042E0,1.7807502E0,3.3092598E1,-1.0025834E0,2.1521355E2,5E-1,7.5E1,-1.4671663E0,2E1,-5.198319E-1,1.3952035E0,1.5823938E-1,8.4333E-1,6.3E1,4.138121E1,4.7999997E0,-1.3738524E0,3.2E1,3.204202E1,1.7010179E2,1.0699999E1,9.034687E-1,3.248728E0,-3.4538338E-1,4.2610443E-1,-8.7952006E-1,1.3795328E0,-1.7072672E-2,4.333122E-1,1.7122868E0,6.3601404E-2,-6.9991916E-1,6.6063005E-1,-1.1642185E0,7.763871E-1,-2.6739025E0,-4.806591E-1,2.565178E0,-2.687366E-2,2.0030642E0,3.4941933E-1,-2.8397945E-1,2.1646533E0,1.1020299E0,2.5324365E-1,-1.3630872E0,3.4257974E-2,-1.0061519E0,1.3910491E0,4.0129605E-1,-1.3906386E0,-5.756321E-1,2.1328344E0,-1.9354789E0,1.1361353E0,-3.7149105E0,-8.4252894E-1,4.5989597E-1,-1.4729608E0,2.145742E0,-7.906553E-1],"split_indices":[0,6,1,6,4,2,4,3,2,3,6,2,0,7,7,5,2,2,6,0,6,5,5,0,0,0,0,2,2,3,0,6,3,0,3,1,0,3,5,3,6,4,1,3,2,0,0,0,0,0,5,4,0,1,5,6,4,0,0,0,0,0,0,0,0,0,0,0,0,0,0,0,0,0,0,0,0,0,0,0,0,0,0,0,0,0,0,0,0,0,0,0,0,0,0,0,0],"split_type":[0,0,0,0,0,0,0,0,0,0,0,0,0,0,0,0,0,0,0,0,0,0,0,0,0,0,0,0,0,0,0,0,0,0,0,0,0,0,0,0,0,0,0,0,0,0,0,0,0,0,0,0,0,0,0,0,0,0,0,0,0,0,0,0,0,0,0,0,0,0,0,0,0,0,0,0,0,0,0,0,0,0,0,0,0,0,0,0,0,0,0,0,0,0,0,0,0],"sum_hessian":[4.12E3,3.513E3,6.07E2,1.458E3,2.055E3,1E1,5.97E2,1.377E3,8.1E1,8.42E2,1.213E3,6E0,4E0,5.26E2,7.1E1,2.02E2,1.175E3,2.8E1,5.3E1,5E0,8.37E2,1.12E3,9.3E1,3E0,3E0,3E0,1E0,5.09E2,1.7E1,1.6E1,5.5E1,5.6E1,1.46E2,8.2E1,1.093E3,2.7E1,1E0,3.3E1,2E1,1E1,8.27E2,6E0,1.114E3,8E1,1.3E1,1E0,2E0,2E0,1E0,3.5E1,4.74E2,1.6E1,1E0,8E0,8E0,3.6E1,1.9E1,5.2E1,4E0,6.6E1,8E1,7.5E1,7E0,9.74E2,1.19E2,1.8E1,9E0,4E0,2.9E1,1.3E1,7E0,3E0,7E0,9E0,8.18E2,3E0,3E0,1.112E3,2E0,1.8E1,6.2E1,7E0,6E0,2.9E1,6E0,4.66E2,8E0,1E0,1.5E1,3E0,5E0,7E0,1E0,1.9E1,1.7E1,1.3E1,6E0],"tree_param":{"num_deleted":"0","num_feature":"8","num_nodes":"97","size_leaf_vector":"1"}},{"base_weights":[1.19474465E-2,-9.248785E-2,8.137655E-1,-1.152445E-1,2.8529253E0,1.3475475E0,-4.6021143E-1,-9.972061E-2,-4.1066327E0,5.2533746E0,9.906713E-1,4.0201254E0,8.309988E-1,4.9225802E0,-9.990958E-1,-1.2681757E-1,4.321617E0,-6.925656E0,-1.1266581E0,2.9136562E0,6.5083656E0,1.8957851E0,-1.1595366E0,-5.0586534E0,5.479915E0,-2.2580352E0,1.2354273E0,2.0077038E-1,6.319046E0,-1.2813004E0,2.4420373E0,-5.291059E-2,-9.8922694E-1,-3.820737E-2,6.8156743E0,-3.02628E-1,-2.3231037E0,-2.547458E0,6.2714833E-1,1.1256375E0,-1.91803E-1,2.1043603E0,5.207028E-1,2.2967482E-1,3.3249223E0,6.1281395E-1,-6.3649507E0,-1.6747516E0,6.361046E0,-1.3502866E-1,-5.962044E0,2.065177E0,-1.0617278E0,1.910717E0,-7.3936045E-1,7.510225E0,1.0362206E0,-8.953163E0,-9.563773E-1,-7.992303E-2,9.205151E-2,-9.3034625E-2,-1.0214788E0,1.3636732E0,-9.263088E-1,2.323562E0,2.4769707E-1,-1.1954039E0,-2.4980322E-1,4.758005E-1,-4.5694572E-1,3.5298005E-1,1.153479E0,2.5495893E-1,-2.312719E0,3.0881314E0,1.1238421E0,1.0153232E0,-1.0049787E0,-2.3897803E0,-7.8914934E-1,3.4994707E0,5.1955837E-1,2.2836407E-1,-1.9404292E0,1.21076204E-1,7.3874646E-1,2.170704E-1,2.5129142E0,6.6625215E-2,3.9967406E-1,-3.1024249E0,-5.100231E-1,2.1809101E-2,-9.9672955E-1],"categories":[],"categories_nodes":[],"categories_segments":[],"categories_sizes":[],"default_left":[0,0,0,0,0,0,0,0,1,0,0,0,0,0,0,0,0,0,0,0,0,0,0,0,0,0,0,0,0,0,0,0,0,0,0,0,0,0,0,0,0,0,0,0,0,0,0,0,0,0,0,0,0,0,0,0,0,0,0,0,0,0,0,0,0,0,0,0,0,0,0,0,0,0,0,0,0,0,0,0,0,0,0,0,0,0,0,0,0,0,0,0,0,0,0],"id":10,"left_children":[1,3,5,7,9,11,13,15,17,19,21,23,25,27,29,31,33,35,37,39,41,43,-1,45,47,49,51,53,55,57,-1,59,61,63,65,-1,-1,67,-1,-1,-1,-1,-1,69,71,-1,73,-1,75,77,79,81,83,85,-1,87,89,91,93,-1,-1,-1,-1,-1,-1,-1,-1,-1,-1,-1,-1,-1,-1,-1,-1,-1,-1,-1,-1,-1,-1,-1,-1,-1,-1,-1,-1,-1,-1,-1,-1,-1,-1,-1,-1],"loss_changes":[3.4516E2,2.4477896E2,3.2363254E2,2.2389247E2,1.1996254E2,4.5913232E2,4.139171E2,4.3268408E2,1.09805786E2,1.6272766E1,8.204322E1,7.433887E2,3.550904E2,8.4451294E1,3.431378E2,2.2851239E2,2.3948065E2,2.606958E1,4.1892883E1,2.0273361E1,4.735565E0,3.495285E1,0E0,8.7213745E1,4.9364038E2,2.586949E2,4.7870862E2,2.2939146E1,5.514566E1,3.0552582E2,0E0,2.5384953E2,4.6321442E2,1.3983914E2,7.155591E1,0E0,0E0,1.1469166E1,0E0,0E0,0E0,0E0,0E0,2.1434973E1,4.4132004E0,0E0,7.4434296E1,0E0,4.139209E2,2.602597E2,5.9158295E1,5.6855005E2,6.6524176E2,1.5009432E0,0E0,4.0965515E1,4.2714643E-1,3.2764343E1,2.9729272E2,0E0,0E0,0E0,0E0,0E0,0E0,0E0,0E0,0E0,0E0,0E0,0E0,0E0,0E0,0E0,0E0,0E0,0E0,0E0,0E0,0E0,0E0,0E0,0E0,0E0,0E0,0E0,0E0,0E0,0E0,0E0,0E0,0E0,0E0,0E0,0E0],"parents":[2147483647,0,0,1,1,2,2,3,3,4,4,5,5,6,6,7,7,8,8,9,9,10,10,11,11,12,12,13,13,14,14,15,15,16,16,17,17,18,18,19,19,20,20,21,21,23,23,24,24,25,25,26,26,27,27,28,28,29,29,31,31,32,32,33,33,34,34,37,37,43,43,44,44,46,46,48,48,49,49,50,50,51,51,52,52,53,53,55,55,56,56,57,57,58,58],"right_children":[2,4,6,8,10,12,14,16,18,20,22,24,26,28,30,32,34,36,38,40,42,44,-1,46,48,50,52,54,56,58,-1,60,62,64,66,-1,-1,68,-1,-1,-1,-1,-1,70,72,-1,74,-1,76,78,80,82,84,86,-1,88,90,92,94,-1,-1,-1,-1,-1,-1,-1,-1,-1,-1,-1,-1,-1,-1,-1,-1,-1,-1,-1,-1,-1,-1,-1,-1,-1,-1,-1,-1,-1,-1,-1,-1,-1,-1,-1,-1],"split_conditions":[4.6E1,2.0584917E1,2.2462836E2,7.3E1,1.4161769E2,2.7E1,1.1592895E1,6.5E1,4.7E1,2.281957E1,4.3E1,4.095886E1,3.7E1,3.5E1,3.5517484E2,4.2E1,2.6161666E0,1.3E1,8E-1,1.8416384E1,5.7E1,1E-1,-1.1595366E0,4.8E1,4.7E1,1.566364E2,1E0,5.4E1,1.5626583E1,2.2676949E2,2.4420373E0,2.7E1,1.542242E1,1E-1,1.8864084E1,-3.02628E-1,-2.3231037E0,-2.9484174E0,6.2714833E-1,1.1256375E0,-1.91803E-1,2.1043603E0,5.207028E-1,3.5E1,1.566364E2,6.1281395E-1,9.290511E0,-1.6747516E0,1E-1,4.3807497E0,3.1245003E0,4E1,2.0206946E2,5.1E1,-7.3936045E-1,-2.3613336E0,5E1,7E1,2.7414618E2,-7.992303E-2,9.205151E-2,-9.3034625E-2,-1.0214788E0,1.3636732E0,-9.263088E-1,2.323562E0,2.4769707E-1,-1.1954039E0,-2.4980322E-1,4.758005E-1,-4.5694572E-1,3.5298005E-1,1.153479E0,2.5495893E-1,-2.312719E0,3.0881314E0,1.1238421E0,1.0153232E0,-1.0049787E0,-2.3897803E0,-7.8914934E-1,3.4994707E0,5.1955837E-1,2.2836407E-1,-1.9404292E0,1.21076204E-1,7.3874646E-1,2.170704E-1,2.5129142E0,6.6625215E-2,3.9967406E-1,-3.1024249E0,-5.100231E-1,2.1809101E-2,-9.9672955E-1],"split_indices":[0,3,6,2,6,2,5,2,1,5,0,6,1,2,6,1,3,0,4,5,2,4,0,0,0,6,7,0,3,6,0,0,3,4,3,0,0,3,0,0,0,0,0,1,6,0,5,0,4,3,3,1,6,0,0,3,1,1,6,0,0,0,0,0,0,0,0,0,0,0,0,0,0,0,0,0,0,0,0,0,0,0,0,0,0,0,0,0,0,0,0,0,0,0,0],"split_type":[0,0,0,0,0,0,0,0,0,0,0,0,0,0,0,0,0,0,0,0,0,0,0,0,0,0,0,0,0,0,0,0,0,0,0,0,0,0,0,0,0,0,0,0,0,0,0,0,0,0,0,0,0,0,0,0,0,0,0,0,0,0,0,0,0,0,0,0,0,0,0,0,0,0,0,0,0,0,0,0,0,0,0,0,0,0,0,0,0,0,0,0,0,0,0],"sum_hessian":[4.12E3,3.646E3,4.74E2,3.619E3,2.7E1,3.34E2,1.4E2,3.606E3,1.3E1,1.1E1,1.6E1,5.3E1,2.81E2,1.2E1,1.28E2,3.585E3,2.1E1,6E0,7E0,5E0,6E0,1.4E1,2E0,7E0,4.6E1,3.2E1,2.49E2,3E0,9E0,1.25E2,3E0,3.303E3,2.82E2,8E0,1.3E1,1E0,5E0,5E0,2E0,4E0,1E0,5E0,1E0,7E0,7E0,1E0,6E0,3E0,4.3E1,2.1E1,1.1E1,1.83E2,6.6E1,2E0,1E0,7E0,2E0,4E0,1.21E2,2.073E3,1.23E3,2.21E2,6.1E1,3E0,5E0,1.1E1,2E0,2E0,3E0,4E0,3E0,2E0,5E0,1E0,5E0,1.6E1,2.7E1,1E1,1.1E1,6E0,5E0,5E0,1.78E2,5E1,1.6E1,1E0,1E0,1E0,6E0,1E0,1E0,3E0,1E0,8.5E1,3.6E1],"tree_param":{"num_deleted":"0","num_feature":"8","num_nodes":"95","size_leaf_vector":"1"}},{"base_weights":[9.282668E-3,9.3234813E-1,-6.0575962E-2,1.0100455E0,-3.2283304E0,-6.7896135E-2,2.79151E0,8.1755024E-1,5.800604E0,-5.994891E-2,-2.2963276E0,1.7482722E0,1.6391037E-1,1.0296979E1,1.7602501E0,-7.4335456E-2,3.8636386E0,7.290439E-1,3.4379325E0,-1.5214454E0,1.0204196E0,3.5746453E0,5.73444E-1,-7.2814065E-1,1.1761894E0,-5.8201887E-2,-3.2937403E0,1.9061406E0,1.7742369E0,-6.0496856E-2,1.1420226E0,1.5915841E0,3.6870944E-1,-1.3150948E0,2.28659E-1,9.4066936E-1,8.8374786E-2,1.9805081E-2,-1.4963229E-1,-1.9834498E0,-6.7753255E-1,-4.495251E-1,7.1118623E-1],"categories":[],"categories_nodes":[],"categories_segments":[],"categories_sizes":[],"default_left":[0,0,1,0,0,1,0,0,0,0,0,0,0,0,0,0,0,0,0,0,0,0,0,0,0,0,0,0,0,0,0,0,0,0,0,0,0,0,0,0,0,0,0],"id":11,"left_children":[1,3,5,7,-1,9,-1,11,13,15,-1,17,19,21,23,25,27,29,31,33,35,-1,-1,-1,-1,37,39,-1,41,-1,-1,-1,-1,-1,-1,-1,-1,-1,-1,-1,-1,-1,-1],"loss_changes":[2.657954E2,2.7434885E2,2.633455E2,2.6176193E2,0E0,2.304588E2,0E0,1.6944505E2,1.8171118E2,2.1630936E2,0E0,1.9554077E2,2.3973376E2,4.508362E1,7.284035E1,1.9790933E2,6.156816E1,2.0986984E2,1.7084543E2,3.6937122E2,1.6795383E2,0E0,0E0,0E0,0E0,2.0777808E2,5.0330856E1,0E0,2.1117996E1,0E0,0E0,0E0,0E0,0E0,0E0,0E0,0E0,0E0,0E0,0E0,0E0,0E0,0E0],"parents":[2147483647,0,0,1,1,2,2,3,3,5,5,7,7,8,8,9,9,11,11,12,12,13,13,14,14,15,15,16,16,17,17,18,18,19,19,20,20,25,25,26,26,28,28],"right_children":[2,4,6,8,-1,10,-1,12,14,16,-1,18,20,22,24,26,28,30,32,34,36,-1,-1,-1,-1,38,40,-1,42,-1,-1,-1,-1,-1,-1,-1,-1,-1,-1,-1,-1,-1,-1],"split_conditions":[1.3397612E1,7.4E1,1.11E2,6.3E1,-3.2283304E0,9.1E1,2.79151E0,1.5144424E2,1.9959431E2,2.3141165E1,-2.2963276E0,9.272126E1,2.2101881E2,1.4524502E1,1.4145336E1,5.6137207E1,5.4E1,3.8E1,1.2482418E1,1.1045333E1,2.4958182E2,3.5746453E0,5.73444E-1,-7.2814065E-1,1.1761894E0,2.6955237E2,1.3E1,1.9061406E0,3.3E1,-6.0496856E-2,1.1420226E0,1.5915841E0,3.6870944E-1,-1.3150948E0,2.28659E-1,9.4066936E-1,8.8374786E-2,1.9805081E-2,-1.4963229E-1,-1.9834498E0,-6.7753255E-1,-4.495251E-1,7.1118623E-1],"split_indices":[5,0,0,0,0,2,0,6,6,3,0,6,6,3,3,5,0,2,3,3,6,0,0,0,0,6,1,0,2,0,0,0,0,0,0,0,0,0,0,0,0,0,0],"split_type":[0,0,0,0,0,0,0,0,0,0,0,0,0,0,0,0,0,0,0,0,0,0,0,0,0,0,0,0,0,0,0,0,0,0,0,0,0,0,0,0,0,0,0],"sum_hessian":[4.12E3,2.89E2,3.831E3,2.88E2,1E0,3.829E3,2E0,2.78E2,1E1,3.826E3,3E0,1.14E2,1.64E2,4E0,6E0,3.813E3,1.3E1,7.2E1,4.2E1,5.5E1,1.09E2,3E0,1E0,2E0,4E0,3.795E3,1.8E1,5E0,8E0,5.6E1,1.6E1,2.2E1,2E1,2.4E1,3.1E1,2.7E1,8.2E1,2.961E3,8.34E2,3E0,1.5E1,1E0,7E0],"tree_param":{"num_deleted":"0","num_feature":"8","num_nodes":"43","size_leaf_vector":"1"}},{"base_weights":[7.5222556E-3,1.6486105E-1,-3.624219E-1,1.3378362E-1,3.4575665E0,-5.1373653E0,-2.7120823E-1,5.2191533E-2,1.1708075E0,5.435192E0,-1.1015943E0,-3.0421255E0,-3.1700575E0,-3.029613E0,-1.9357339E-1,1.4609918E-1,-2.064101E0,1.5109589E0,-1.7891598E0,1.1364708E0,6.505753E0,2.8196177E0,-4.8024874E0,7.339585E-1,-3.881115E0,1.5778419E0,-3.4530053E0,1.4905299E-1,-7.407432E-1,9.474342E-2,3.6260135E0,-2.5947893E0,8.8090885E-1,-4.416623E0,1.6970493E0,7.341045E-1,-3.1790357E0,7.2997725E-1,-5.3913945E-1,3.0559468E0,4.736695E0,1.5646859E-1,1.2533404E0,-1.8167707E0,-5.8447325E-1,-4.712401E0,1.2919248E0,-4.1726584E0,1.2676532E0,1.0380174E0,-2.3097521E-1,-2.9216645E-2,-1.4124454E0,4.5498754E-3,3.182518E-1,1.3999272E-2,2.220487E0,-5.6813294E-1,-1.7223119E0,1.2670965E0,-1.4926071E0,5.6156105E-1,-1.8146087E0,-1.8487016E0,5.4538184E-1,-1.1467148E0,1.0671777E0,-3.2820597E-1,8.559322E-2,5.119019E-2,1.6898531E0,-6.024994E-1,-2.3949318E0,6.226113E-1,-4.124508E-2,-9.7095686E-1,-2.119721E0,9.4844776E-1,-9.461555E-1,1.5999803E-1,1.8808066E0,-8.879831E-2,1.9107448E0,3.3892445E-2,-1.8583449E0,-4.5644715E-1,8.900018E-1],"categories":[],"categories_nodes":[],"categories_segments":[],"categories_sizes":[],"default_left":[0,0,0,0,0,0,0,0,0,0,0,0,0,0,0,0,1,0,1,0,0,0,0,0,0,0,0,0,0,0,0,0,0,0,0,0,0,0,0,0,0,0,0,0,0,0,0,0,0,0,0,0,0,0,0,0,0,0,0,0,0,0,0,0,0,0,0,0,0,0,0,0,0,0,0,0,0,0,0,0,0,0,0,0,0,0,0],"id":12,"left_children":[1,3,5,7,9,11,13,15,17,19,21,23,-1,25,27,29,31,33,35,37,39,41,43,-1,45,-1,47,49,51,53,55,57,59,61,63,-1,65,-1,67,-1,69,-1,-1,-1,-1,71,73,75,77,79,81,83,85,-1,-1,-1,-1,-1,-1,-1,-1,-1,-1,-1,-1,-1,-1,-1,-1,-1,-1,-1,-1,-1,-1,-1,-1,-1,-1,-1,-1,-1,-1,-1,-1,-1,-1],"loss_changes":[2.39929E2,2.9547238E2,5.343211E2,2.4243958E2,2.494278E2,2.295044E2,2.5810468E2,5.2854193E2,2.1313232E2,8.0045166E1,1.4414908E2,9.238388E1,0E0,1.3397568E2,2.2058078E2,4.5466135E2,1.7889145E2,2.1487158E2,1.373098E2,1.2176408E1,4.9421265E1,1.3426922E1,6.0893707E0,0E0,7.489247E1,0E0,1.1400107E2,2.448298E2,2.1646284E2,1.9295062E2,4.9968103E2,2.008617E2,3.7338235E2,7.290205E1,1.8507513E2,0E0,8.727136E1,0E0,1.6845493E0,0E0,4.8141266E1,0E0,0E0,0E0,0E0,1.07786285E2,3.6449218E0,5.2964386E1,5.183897E1,5.695813E2,2.198855E2,1.9443907E2,1.15776184E2,0E0,0E0,0E0,0E0,0E0,0E0,0E0,0E0,0E0,0E0,0E0,0E0,0E0,0E0,0E0,0E0,0E0,0E0,0E0,0E0,0E0,0E0,0E0,0E0,0E0,0E0,0E0,0E0,0E0,0E0,0E0,0E0,0E0,0E0],"parents":[2147483647,0,0,1,1,2,2,3,3,4,4,5,5,6,6,7,7,8,8,9,9,10,10,11,11,13,13,14,14,15,15,16,16,17,17,18,18,19,19,20,20,21,21,22,22,24,24,26,26,27,27,28,28,29,29,30,30,31,31,32,32,33,33,34,34,36,36,38,38,40,40,45,45,46,46,47,47,48,48,49,49,50,50,51,51,52,52],"right_children":[2,4,6,8,10,12,14,16,18,20,22,24,-1,26,28,30,32,34,36,38,40,42,44,-1,46,-1,48,50,52,54,56,58,60,62,64,-1,66,-1,68,-1,70,-1,-1,-1,-1,72,74,76,78,80,82,84,86,-1,-1,-1,-1,-1,-1,-1,-1,-1,-1,-1,-1,-1,-1,-1,-1,-1,-1,-1,-1,-1,-1,-1,-1,-1,-1,-1,-1,-1,-1,-1,-1,-1,-1],"split_conditions":[3.0652895E1,1.5E1,3.0895573E1,5.3E1,1.9000002E1,3.6E1,3.4263935E1,5.3E1,2.7414618E2,2.5E1,2.360472E1,-2.6508334E-1,-3.1700575E0,9E0,2.345925E2,5E1,6.5E1,2.7E1,5.8E1,1.6E1,1.5900001E1,2.2499998E1,5.469917E0,7.339585E-1,3.2E1,1.5778419E0,8.7057495E0,1.7807502E0,6E-1,1.7447418E1,1.8329973E1,2.6674032E1,5E-1,1.6E1,9.983952E0,7.341045E-1,3.5016214E2,7.2997725E-1,2.1E1,3.0559468E0,1.1378667E1,1.5646859E-1,1.2533404E0,-1.8167707E0,-5.8447325E-1,2.6E1,3.4E1,3E1,1.3000002E0,1.4140836E0,2.3386812E2,4.9E1,1.7600002E1,4.5498754E-3,3.182518E-1,1.3999272E-2,2.220487E0,-5.6813294E-1,-1.7223119E0,1.2670965E0,-1.4926071E0,5.6156105E-1,-1.8146087E0,-1.8487016E0,5.4538184E-1,-1.1467148E0,1.0671777E0,-3.2820597E-1,8.559322E-2,5.119019E-2,1.6898531E0,-6.024994E-1,-2.3949318E0,6.226113E-1,-4.124508E-2,-9.7095686E-1,-2.119721E0,9.4844776E-1,-9.461555E-1,1.5999803E-1,1.8808066E0,-8.879831E-2,1.9107448E0,3.3892445E-2,-1.8583449E0,-4.5644715E-1,8.900018E-1],"split_indices":[5,4,5,0,4,1,6,1,6,0,5,3,0,0,6,1,2,1,0,0,7,4,3,0,1,0,3,3,4,3,5,5,4,1,6,0,6,0,0,0,3,0,0,0,0,0,0,2,4,3,6,0,7,0,0,0,0,0,0,0,0,0,0,0,0,0,0,0,0,0,0,0,0,0,0,0,0,0,0,0,0,0,0,0,0,0,0],"split_type":[0,0,0,0,0,0,0,0,0,0,0,0,0,0,0,0,0,0,0,0,0,0,0,0,0,0,0,0,0,0,0,0,0,0,0,0,0,0,0,0,0,0,0,0,0,0,0,0,0,0,0,0,0,0,0,0,0,0,0,0,0,0,0,0,0,0,0,0,0,0,0,0,0,0,0,0,0,0,0,0,0,0,0,0,0,0,0],"sum_hessian":[4.12E3,2.891E3,1.229E3,2.865E3,2.6E1,2.2E1,1.207E3,2.657E3,2.08E2,1.8E1,8E0,1.7E1,5E0,3.2E1,1.175E3,2.545E3,1.12E2,1.87E2,2.1E1,4E0,1.4E1,4E0,4E0,2E0,1.5E1,1E0,3.1E1,7.23E2,4.52E2,2.509E3,3.6E1,9.5E1,1.7E1,5E0,1.82E2,5E0,1.6E1,2E0,2E0,3E0,1.1E1,2E0,2E0,2E0,2E0,1.3E1,2E0,2.7E1,4E0,2.16E2,5.07E2,2.2E2,2.32E2,2.319E3,1.9E2,1.9E1,1.7E1,7.9E1,1.6E1,1.1E1,6E0,1E0,4E0,2E0,1.8E2,1.5E1,1E0,1E0,1E0,2E0,9E0,8E0,5E0,1E0,1E0,2.2E1,5E0,3E0,1E0,1.98E2,1.8E1,5.03E2,4E0,2.16E2,4E0,2.27E2,5E0],"tree_param":{"num_deleted":"0","num_feature":"8","num_nodes":"87","size_leaf_vector":"1"}},{"base_weights":[4.9118605E-3,-8.412682E-3,2.8820531E0,1.1759409E-3,-3.9331536E0,3.7525034E0,-9.033545E-1,-3.7912813E-3,3.0498025E0,9.8023415E-1,-5.28403E0,4.9966626E0,-2.3281117E-1,6.908175E-2,-5.6032413E-1,-1.8749113E-1,6.2859654E-1,-5.731559E0,-3.2269937E-1,5.860959E0,1.5867558E0,-2.2049806E0,5.450886E-1,2.1915229E-1,-3.8203633E-1,-2.4389627E0,-2.0667861E-1,-1.833882E0,-5.1649076E-1,1.9387252E0,6.7175105E-2,-2.8264448E-1,8.23132E-1,-8.05193E-1,-1.8704826E-1,-1.5293378E-1,9.963956E-2,-1.4256652E-1,8.3491206E-1,2.6494005E-1,-1.0510619E0,1.5762492E0,-1.3436894E-1],"categories":[],"categories_nodes":[],"categories_segments":[],"categories_sizes":[],"default_left":[0,1,0,1,0,0,0,0,0,0,0,0,0,0,0,0,0,0,0,0,0,0,0,0,0,0,0,0,0,0,0,0,0,0,0,0,0,0,0,0,0,0,0],"id":13,"left_children":[1,3,5,7,9,11,-1,13,-1,15,17,19,21,23,25,-1,-1,27,-1,29,31,33,-1,35,37,39,41,-1,-1,-1,-1,-1,-1,-1,-1,-1,-1,-1,-1,-1,-1,-1,-1],"loss_changes":[1.5800935E2,1.5441226E2,1.08765015E2,2.0674861E2,7.1553375E1,8.5455475E1,0E0,1.6603539E2,0E0,6.679345E0,8.901672E0,2.9013306E1,2.4218864E1,2.4515602E2,3.1440836E2,0E0,0E0,1.8089294E-1,0E0,3.2457428E1,1.4288981E1,5.9913254E-1,0E0,2.2392609E2,2.6794727E2,2.6834097E2,5.2925433E2,0E0,0E0,0E0,0E0,0E0,0E0,0E0,0E0,0E0,0E0,0E0,0E0,0E0,0E0,0E0,0E0],"parents":[2147483647,0,0,1,1,2,2,3,3,4,4,5,5,7,7,9,9,10,10,11,11,12,12,13,13,14,14,17,17,19,19,20,20,21,21,23,23,24,24,25,25,26,26],"right_children":[2,4,6,8,10,12,-1,14,-1,16,18,20,22,24,26,-1,-1,28,-1,30,32,34,-1,36,38,40,42,-1,-1,-1,-1,-1,-1,-1,-1,-1,-1,-1,-1,-1,-1,-1,-1],"split_conditions":[3.5707498E2,8.4E1,4.9E1,8.3E1,3.2E1,1.4000001E0,-9.033545E-1,6E0,3.0498025E0,2.9E1,1.19E2,2.4149532E1,2.2E1,2.656923E2,1.1078334E0,-1.8749113E-1,6.2859654E-1,2.8772987E1,-3.2269937E-1,4.5E1,2.2E1,1.3E1,5.450886E-1,5.926961E1,1.8639078E1,-1.9321667E0,1.8411665E0,-1.833882E0,-5.1649076E-1,1.9387252E0,6.7175105E-2,-2.8264448E-1,8.23132E-1,-8.05193E-1,-1.8704826E-1,-1.5293378E-1,9.963956E-2,-1.4256652E-1,8.3491206E-1,2.6494005E-1,-1.0510619E0,1.5762492E0,-1.3436894E-1],"split_indices":[6,2,2,2,0,4,0,4,0,0,2,5,0,6,3,0,0,5,0,2,0,0,0,6,3,3,3,0,0,0,0,0,0,0,0,0,0,0,0,0,0,0,0],"split_type":[0,0,0,0,0,0,0,0,0,0,0,0,0,0,0,0,0,0,0,0,0,0,0,0,0,0,0,0,0,0,0,0,0,0,0,0,0,0,0,0,0,0,0],"sum_hessian":[4.12E3,4.102E3,1.8E1,4.093E3,9E0,1.6E1,2E0,4.092E3,1E0,2E0,7E0,1.2E1,4E0,3.619E3,4.73E2,1E0,1E0,6E0,1E0,9E0,3E0,2E0,2E0,2.716E3,9.03E2,7.4E1,3.99E2,5E0,1E0,8E0,1E0,1E0,2E0,1E0,1E0,3.64E2,2.352E3,8.78E2,2.5E1,1.8E1,5.6E1,1.6E1,3.83E2],"tree_param":{"num_deleted":"0","num_feature":"8","num_nodes":"43","size_leaf_vector":"1"}},{"base_weights":[4.2409804E-3,-8.6549117E-4,7.014013E0,-1.0864688E0,3.0306855E-2,2.553153E0,6.031529E-1,2.1800792E0,-1.4882034E0,3.528973E-2,-1.9885834E0,-6.355561E-1,5.5709133E0,-2.8412411E0,1.8437855E-1,1.6190052E-1,-1.8582574E-1,-2.1971505E0,1.4753258E0,3.7552473E-1,1.8553189E0,-2.1378074E0,-5.9335985E0,2.1497285E0,-1.6311185E0,7.162737E-2,1.3845633E0,-1.6941029E0,-4.92881E-2,-1.5242273E-1,-7.4772006E-1,4.6155598E-2,5.5935997E-1,-5.031491E-1,-1.5248363E0,-1.9190356E0,-2.647382E-1,-1.0597453E0,1.0595713E0,-1.0462508E-1,-1.2937672E0,1.1049396E-2,4.6104622E-1,1.1242818E-1,1.5045918E0,2.1972741E-1,-8.191276E-1,1.19034596E-1,-1.1126305E-1],"categories":[],"categories_nodes":[],"categories_segments":[],"categories_sizes":[],"default_left":[1,1,0,0,0,0,0,0,0,0,0,0,0,1,0,0,0,0,0,0,0,0,0,0,0,0,0,0,0,0,0,0,0,0,0,0,0,0,0,0,0,0,0,0,0,0,0,0,0],"id":14,"left_children":[1,3,5,7,9,-1,-1,11,13,15,-1,17,19,21,23,25,27,29,31,-1,-1,33,35,37,39,41,43,45,47,-1,-1,-1,-1,-1,-1,-1,-1,-1,-1,-1,-1,-1,-1,-1,-1,-1,-1,-1,-1],"loss_changes":[1.4751808E2,1.3942322E2,5.352707E0,1.541572E2,1.3312204E2,0E0,0E0,1.276562E2,2.3361969E2,1.1209648E2,0E0,2.9612244E1,8.1571045E0,1.1130539E2,1.7120657E2,2.8091205E2,3.0017203E2,1.2271652E0,1.7704458E0,0E0,0E0,5.6591537E1,1.7751282E1,1.9311414E2,8.446081E1,1.2087495E2,6.397289E2,3.0627432E2,1.9208475E2,0E0,0E0,0E0,0E0,0E0,0E0,0E0,0E0,0E0,0E0,0E0,0E0,0E0,0E0,0E0,0E0,0E0,0E0,0E0,0E0],"parents":[2147483647,0,0,1,1,2,2,3,3,4,4,7,7,8,8,9,9,11,11,12,12,13,13,14,14,15,15,16,16,17,17,18,18,21,21,22,22,23,23,24,24,25,25,26,26,27,27,28,28],"right_children":[2,4,6,8,10,-1,-1,12,14,16,-1,18,20,22,24,26,28,30,32,-1,-1,34,36,38,40,42,44,46,48,-1,-1,-1,-1,-1,-1,-1,-1,-1,-1,-1,-1,-1,-1,-1,-1,-1,-1,-1,-1],"split_conditions":[1.11E2,1E1,1.19E2,-5.467583E0,9.1E1,2.553153E0,6.031529E-1,2.5E1,4.9824166E0,3.1E1,-1.9885834E0,1.9106245E2,9E0,2.6E1,2.3498964E2,3.7E1,5.305097E1,-1.0031751E1,1.1E1,3.7552473E-1,1.8553189E0,4.3807497E0,3.78075E0,7.620001E1,1.9E1,4.8E1,3E1,-3.4280002E0,1.9388165E2,-1.5242273E-1,-7.4772006E-1,4.6155598E-2,5.5935997E-1,-5.031491E-1,-1.5248363E0,-1.9190356E0,-2.647382E-1,-1.0597453E0,1.0595713E0,-1.0462508E-1,-1.2937672E0,1.1049396E-2,4.6104622E-1,1.1242818E-1,1.5045918E0,2.1972741E-1,-8.191276E-1,1.19034596E-1,-1.1126305E-1],"split_indices":[0,2,0,3,0,0,0,0,3,1,0,6,1,0,6,0,6,3,0,0,0,3,3,6,0,2,2,3,6,0,0,0,0,0,0,0,0,0,0,0,0,0,0,0,0,0,0,0,0],"split_type":[0,0,0,0,0,0,0,0,0,0,0,0,0,0,0,0,0,0,0,0,0,0,0,0,0,0,0,0,0,0,0,0,0,0,0,0,0,0,0,0,0,0,0,0,0,0,0,0,0],"sum_hessian":[4.12E3,4.118E3,2E0,1.14E2,4.004E3,1E0,1E0,1.2E1,1.02E2,4.002E3,2E0,7E0,5E0,5.6E1,4.6E1,2.545E3,1.457E3,4E0,3E0,1E0,4E0,4.7E1,9E0,2.2E1,2.4E1,2.371E3,1.74E2,1.2E2,1.337E3,1E0,3E0,1E0,2E0,4.2E1,5E0,8E0,1E0,4E0,1.8E1,1.7E1,7E0,2.317E3,5.4E1,1.37E2,3.7E1,3.6E1,8.4E1,5.6E2,7.77E2],"tree_param":{"num_deleted":"0","num_feature":"8","num_nodes":"49","size_leaf_vector":"1"}},{"base_weights":[2.7240042E-3,-1.2073688E-2,1.893969E0,-1.1145941E-1,2.9718286E-1,9.982211E0,-3.564797E-1,2.947405E-2,-6.8586934E-1,1.4686637E0,1.5879604E-1,4.793994E0,1.4888916E0,-2.0882244E0,3.1466186E0,-1.3285478E0,8.160616E-2,-8.2077426E-1,2.2574768E0,6.6798186E-1,3.3584208E0,-1.5761493E-1,7.6121175E-1,7.727837E-1,-2.6584053E-1,4.8175E0,-3.790536E0,5.21971E0,-7.4967337E-1,-2.7773445E0,-5.8272123E-1,1.4349954E-1,-1.0161884E0,-8.180499E-2,-1.6173077E0,2.9888167E0,-8.084795E-1,3.058905E0,-3.22499E-2,7.623473E-1,6.0767426E0,-8.827089E-3,-1.860573E0,1.7034082E0,1.6394936E-1,3.0957758E-1,1.7206151E0,-4.6261473E0,1.186203E0,1.9214413E0,5.699043E-1,4.645481E-1,-6.5885067E-1,7.728536E-1,-9.706161E-1,4.6426934E-1,-3.538446E-1,2.5145993E-1,1.6886853E-2,-8.7676346E-1,8.532554E-2,-4.9768186E-1,1.4095686E-1,-3.3972785E-1,-1.1669887E0,4.5034394E-1,1.7329543E0,1.1982121E0,-1.7854896E0,1.7487635E-1,-1.2080493E0,-7.6640785E-2,1.6791943E0,2.1650474E0,-2.66758E-1,4.664797E-2,-6.187831E-1,1.8511789E0,-7.645181E-1,3.5161287E-1,2.6788795E0,-2.362942E-3,1.9466146E0,-2.1150234E0,-6.576825E-2,-2.4124147E-2,2.331708E-1],"categories":[],"categories_nodes":[],"categories_segments":[],"categories_sizes":[],"default_left":[0,1,0,0,0,0,0,0,0,0,0,0,0,0,0,0,0,0,0,0,0,0,0,0,0,0,0,0,1,0,0,0,0,0,0,0,0,0,0,0,0,0,0,0,0,0,0,0,0,0,0,0,0,0,0,0,0,0,0,0,0,0,0,0,0,0,0,0,0,0,0,0,0,0,0,0,0,0,0,0,0,0,0,0,0,0,0],"id":15,"left_children":[1,3,5,7,9,11,13,15,17,19,21,-1,23,25,27,29,31,33,35,37,39,41,43,-1,-1,45,47,49,51,53,55,57,59,61,63,65,-1,67,69,71,73,75,77,79,81,-1,-1,83,-1,-1,-1,85,-1,-1,-1,-1,-1,-1,-1,-1,-1,-1,-1,-1,-1,-1,-1,-1,-1,-1,-1,-1,-1,-1,-1,-1,-1,-1,-1,-1,-1,-1,-1,-1,-1,-1,-1],"loss_changes":[1.1535343E2,1.2574209E2,5.860281E2,2.5065248E2,1.6107372E2,3.327942E2,1.6429912E2,1.7617941E2,2.4406677E2,1.5663155E2,1.6995432E2,0E0,1.2609764E1,2.2986342E2,7.660942E1,9.77923E1,1.6294496E2,3.4361804E2,1.0584581E2,1.25663666E2,2.1413327E2,1.4821056E2,1.7248145E2,0E0,0E0,7.980377E0,1.153633E2,1.1440201E1,8.045691E0,8.435126E1,8.064413E1,1.374198E2,3.1819702E2,2.652728E2,3.0524805E2,9.0860794E1,0E0,1.670143E2,1.47331E2,8.508879E1,1.2554321E2,1.8222154E2,2.7535327E2,4.4646405E2,2.0544841E2,0E0,0E0,1.4800333E2,0E0,0E0,0E0,5.737094E-1,0E0,0E0,0E0,0E0,0E0,0E0,0E0,0E0,0E0,0E0,0E0,0E0,0E0,0E0,0E0,0E0,0E0,0E0,0E0,0E0,0E0,0E0,0E0,0E0,0E0,0E0,0E0,0E0,0E0,0E0,0E0,0E0,0E0,0E0,0E0],"parents":[2147483647,0,0,1,1,2,2,3,3,4,4,5,5,6,6,7,7,8,8,9,9,10,10,12,12,13,13,14,14,15,15,16,16,17,17,18,18,19,19,20,20,21,21,22,22,25,25,26,26,27,27,28,28,29,29,30,30,31,31,32,32,33,33,34,34,35,35,37,37,38,38,39,39,40,40,41,41,42,42,43,43,44,44,47,47,51,51],"right_children":[2,4,6,8,10,12,14,16,18,20,22,-1,24,26,28,30,32,34,36,38,40,42,44,-1,-1,46,48,50,52,54,56,58,60,62,64,66,-1,68,70,72,74,76,78,80,82,-1,-1,84,-1,-1,-1,86,-1,-1,-1,-1,-1,-1,-1,-1,-1,-1,-1,-1,-1,-1,-1,-1,-1,-1,-1,-1,-1,-1,-1,-1,-1,-1,-1,-1,-1,-1,-1,-1,-1,-1,-1],"split_conditions":[7.2E1,3.6E1,3.3E1,3.2E1,1.375558E1,5E-1,7.3E1,1E1,1.8864084E1,1.2287555E1,1.3000002E0,4.793994E0,8.1E1,1.2287555E1,7.6E1,2.5877463E2,8.3E0,2.9E1,3.11374E1,9.290511E0,4E1,6E1,3.5000002E0,7.727837E-1,-2.6584053E-1,7.3E1,1.7989082E1,8.3E1,1.06E2,-6.8504996E0,2.71359E2,-1.9321667E0,1.0287002E1,2.1E1,3.3834255E1,2.2104116E1,-8.084795E-1,2.0124083E1,2.847577E2,1.62495E1,2.0984917E1,9E-1,5.305097E1,3.2999997E0,6.8E1,3.0957758E-1,1.7206151E0,2.2629875E2,1.186203E0,1.9214413E0,5.699043E-1,7.8E1,-6.5885067E-1,7.728536E-1,-9.706161E-1,4.6426934E-1,-3.538446E-1,2.5145993E-1,1.6886853E-2,-8.7676346E-1,8.532554E-2,-4.9768186E-1,1.4095686E-1,-3.3972785E-1,-1.1669887E0,4.5034394E-1,1.7329543E0,1.1982121E0,-1.7854896E0,1.7487635E-1,-1.2080493E0,-7.6640785E-2,1.6791943E0,2.1650474E0,-2.66758E-1,4.664797E-2,-6.187831E-1,1.8511789E0,-7.645181E-1,3.5161287E-1,2.6788795E0,-2.362942E-3,1.9466146E0,-2.1150234E0,-6.576825E-2,-2.4124147E-2,2.331708E-1],"split_indices":[0,2,2,1,5,4,1,0,3,5,4,0,0,5,2,6,7,2,5,5,0,0,4,0,0,0,3,1,0,3,6,3,3,2,5,5,0,3,6,3,3,7,6,4,0,0,0,6,0,0,0,0,0,0,0,0,0,0,0,0,0,0,0,0,0,0,0,0,0,0,0,0,0,0,0,0,0,0,0,0,0,0,0,0,0,0,0],"split_type":[0,0,0,0,0,0,0,0,0,0,0,0,0,0,0,0,0,0,0,0,0,0,0,0,0,0,0,0,0,0,0,0,0,0,0,0,0,0,0,0,0,0,0,0,0,0,0,0,0,0,0,0,0,0,0,0,0,0,0,0,0,0,0,0,0,0,0,0,0,0,0,0,0,0,0,0,0,0,0,0,0,0,0,0,0,0,0],"sum_hessian":[4.12E3,4.089E3,3.1E1,3.095E3,9.94E2,6E0,2.5E1,2.486E3,6.09E2,1.04E2,8.9E2,3E0,3E0,1.7E1,8E0,9.1E1,2.395E3,5.83E2,2.6E1,7.4E1,3E1,5.84E2,3.06E2,2E0,1E0,3E0,1.4E1,5E0,3E0,3E1,6.1E1,2.268E3,1.27E2,3.03E2,2.8E2,2.3E1,3E0,1.6E1,5.8E1,1.6E1,1.4E1,5.38E2,4.6E1,1.18E2,1.88E2,1E0,2E0,1.3E1,1E0,3E0,2E0,2E0,1E0,2E0,2.8E1,1.3E1,4.8E1,2.52E2,2.016E3,5.1E1,7.6E1,7.8E1,2.25E2,2.32E2,4.8E1,1.6E1,7E0,1.5E1,1E0,5.1E1,7E0,1.4E1,2E0,1.2E1,2E0,4.99E2,3.9E1,3E0,4.3E1,1.11E2,7E0,1.84E2,4E0,8E0,5E0,1E0,1E0],"tree_param":{"num_deleted":"0","num_feature":"8","num_nodes":"87","size_leaf_vector":"1"}},{"base_weights":[5.46125E-3,-1.7603314E-2,9.0537405E-1,2.2178652E-2,-2.027897E0,-3.075824E0,1.5146117E0,-2.4452949E-2,9.534525E-1,-2.2593937E0,8.4589225E-1,1.4440718E0,-4.439802E0,3.5175705E0,4.9950548E-2,-1.6289063E-2,-4.3933043E0,5.595428E-1,6.2130423E0,-2.4783823E0,2.2472496E0,-8.7964326E-1,1.1640576E0,-5.0549097E0,2.5669098E-1,-3.2324455E0,4.406762E0,5.92787E-1,-2.024398E0,2.9827576E-4,-1.9430214E0,-1.4186511E0,-3.570162E-1,8.44876E-1,-7.665712E0,8.248088E0,1.3073524E0,-3.1145093E0,-6.6872656E-1,7.0948794E-2,8.516007E-1,-1.5962458E0,-3.9925864E-1,5.6973904E-1,-1.7871445E0,8.607018E0,2.550389E0,-6.143502E0,1.1534758E0,-7.0631565E-3,3.0961037E-1,-1.2143202E0,1.24402255E-1,1.395485E-1,1.7511984E0,-8.957444E-2,-3.3823895E0,2.6970825E0,3.465889E-1,-1.1755714E0,1.078043E0,-6.241414E-1,-1.5028672E0,-8.435954E-1,4.0214497E-1,3.463068E-1,-8.9924246E-2,4.4179103E-1,3.4362705E0,-5.923977E-1,1.4387939E0,-7.8614014E-1,-2.5068913E0,-5.766484E-2,1.06186E0],"categories":[],"categories_nodes":[],"categories_segments":[],"categories_sizes":[],"default_left":[1,1,0,1,0,0,0,1,0,0,0,0,0,0,0,1,0,0,0,0,0,0,0,0,0,0,0,0,0,0,0,0,0,0,0,0,0,0,0,0,0,0,0,0,0,0,0,0,0,0,0,0,0,0,0,0,0,0,0,0,0,0,0,0,0,0,0,0,0,0,0,0,0,0,0],"id":16,"left_children":[1,3,5,7,9,11,13,15,17,19,-1,21,23,25,27,29,31,33,35,37,39,-1,-1,41,-1,43,45,47,-1,49,51,-1,-1,53,55,57,59,61,63,-1,-1,-1,-1,65,-1,67,69,71,73,-1,-1,-1,-1,-1,-1,-1,-1,-1,-1,-1,-1,-1,-1,-1,-1,-1,-1,-1,-1,-1,-1,-1,-1,-1,-1],"loss_changes":[8.55518E1,3.214582E2,2.5448474E2,1.7121173E2,9.39014E1,9.272194E1,2.6385333E2,1.3385732E2,3.8602267E2,7.958734E1,0E0,5.402123E1,4.015506E1,2.4232281E2,1.9957925E2,1.1981622E2,1.8959961E0,4.1953778E2,1.18999756E2,8.080151E1,4.0854607E0,0E0,0E0,2.8213196E0,0E0,5.5193142E1,2.4315503E2,1.9593445E2,0E0,9.1482605E1,1.6047116E2,0E0,0E0,3.214504E2,1.561579E2,3.699115E1,7.381684E1,9.343402E1,8.989452E1,0E0,0E0,0E0,0E0,1.870965E0,0E0,1.862633E2,2.6350558E2,9.285706E0,1.5159256E2,0E0,0E0,0E0,0E0,0E0,0E0,0E0,0E0,0E0,0E0,0E0,0E0,0E0,0E0,0E0,0E0,0E0,0E0,0E0,0E0,0E0,0E0,0E0,0E0,0E0,0E0],"parents":[2147483647,0,0,1,1,2,2,3,3,4,4,5,5,6,6,7,7,8,8,9,9,11,11,12,12,13,13,14,14,15,15,16,16,17,17,18,18,19,19,20,20,23,23,25,25,26,26,27,27,29,29,30,30,33,33,34,34,35,35,36,36,37,37,38,38,43,43,45,45,46,46,47,47,48,48],"right_children":[2,4,6,8,10,12,14,16,18,20,-1,22,24,26,28,30,32,34,36,38,40,-1,-1,42,-1,44,46,48,-1,50,52,-1,-1,54,56,58,60,62,64,-1,-1,-1,-1,66,-1,68,70,72,74,-1,-1,-1,-1,-1,-1,-1,-1,-1,-1,-1,-1,-1,-1,-1,-1,-1,-1,-1,-1,-1,-1,-1,-1,-1,-1],"split_conditions":[6.3E1,5.7E1,6.830849E1,4.9E1,2.9369153E2,-6.8504996E0,1.9106245E2,7.6E1,6.4E1,7E1,8.4589225E-1,5.8E1,6.7E1,1.1078334E0,1.911825E1,4.8E1,4.7E1,6.3E1,6.9E1,2.890107E1,2.6E1,-8.7964326E-1,1.1640576E0,8.1E1,2.5669098E-1,-1.6692499E0,4.66575E0,1.9497757E2,-2.024398E0,1.9326582E1,2.287254E2,-1.4186511E0,-3.570162E-1,6.4E1,5.1E1,6.4E1,7.1E1,9.9999994E-2,9.000001E-1,7.0948794E-2,8.516007E-1,-1.5962458E0,-3.9925864E-1,5.5E1,-1.7871445E0,1.0557268E2,5.2E1,1.4140836E0,6.9E1,-7.0631565E-3,3.0961037E-1,-1.2143202E0,1.24402255E-1,1.395485E-1,1.7511984E0,-8.957444E-2,-3.3823895E0,2.6970825E0,3.465889E-1,-1.1755714E0,1.078043E0,-6.241414E-1,-1.5028672E0,-8.435954E-1,4.0214497E-1,3.463068E-1,-8.9924246E-2,4.4179103E-1,3.4362705E0,-5.923977E-1,1.4387939E0,-7.8614014E-1,-2.5068913E0,-5.766484E-2,1.06186E0],"split_indices":[1,1,6,1,6,3,6,2,0,2,0,0,0,3,3,1,1,0,0,5,0,0,0,2,0,3,3,6,0,3,6,0,0,2,1,2,0,7,4,0,0,0,0,0,0,6,0,3,0,0,0,0,0,0,0,0,0,0,0,0,0,0,0,0,0,0,0,0,0,0,0,0,0,0,0],"split_type":[0,0,0,0,0,0,0,0,0,0,0,0,0,0,0,0,0,0,0,0,0,0,0,0,0,0,0,0,0,0,0,0,0,0,0,0,0,0,0,0,0,0,0,0,0,0,0,0,0,0,0,0,0,0,0,0,0,0,0,0,0,0,0,0,0,0,0,0,0,0,0,0,0,0,0],"sum_hessian":[4.12E3,4.018E3,1.02E2,3.941E3,7.7E1,1.3E1,8.9E1,3.754E3,1.87E2,7.4E1,3E0,3E0,1E1,3.7E1,5.2E1,3.748E3,6E0,1.75E2,1.2E1,7.1E1,3E0,1E0,2E0,9E0,1E0,4E0,3.3E1,4.9E1,3E0,3.717E3,3.1E1,5E0,1E0,1.7E2,5E0,8E0,4E0,5.2E1,1.9E1,1E0,2E0,8E0,1E0,2E0,2E0,9E0,2.4E1,3E0,4.6E1,3.634E3,8.3E1,1.6E1,1.5E1,1.59E2,1.1E1,2E0,3E0,7E0,1E0,1E0,3E0,3.5E1,1.7E1,9E0,1E1,1E0,1E0,3E0,6E0,8E0,1.6E1,2E0,1E0,3E1,1.6E1],"tree_param":{"num_deleted":"0","num_feature":"8","num_nodes":"75","size_leaf_vector":"1"}},{"base_weights":[2.7135354E-3,-6.9975113E-3,2.0996456E0,9.433215E-2,-2.0376816E-1,2.7603614E0,-2.3442924E0,-4.0448067E-1,2.3340909E-1,6.9537914E-1,-4.7862074E-1,-1.3736756E-1,3.9791958E0,-1.3459626E-1,-9.2033535E-1,1.7910706E-1,-1.6564219E0,1.6368895E0,1.385955E-1,2.8432506E-1,2.1217272E0,-4.3481765E0,-4.0821144E-1,1.3454885E0,-6.2061596E-1,5.995995E0,2.221297E0,9.7478086E-1,-4.1499066E-1,1.3311782E0,-2.324666E0,2.6354694E0,-1.3776245E0,-2.9567236E-1,4.398363E-1,-5.3566015E-1,1.0171686E0,2.857434E0,-6.778178E-1,-7.476114E-1,-7.5139236E0,-6.86176E-1,1.958328E-1,6.4627683E-1,-1.6212216E-1,5.2228665E-1,1.9873549E0,3.4972143E-1,9.822895E-1,4.2279974E-1,-8.5364634E-1,-3.4631547E-3,-8.2924074E-1,-7.709115E-1,9.678463E-1,1.3700591E0,-7.475484E-1,-3.019457E-1,1.1933677E0,-1.0197377E0,6.4480466E-1,-1.6040972E-1,2.933169E-1,5.2804536E-1,4.2505845E-2,7.5023293E-1,-3.16814E-1,1.11869715E-1,1.4109224E0,-4.4179917E-3,1.1855824E0,-8.048581E-1,9.3331885E-1,6.562729E-1,-9.2069983E-1,-2.6715708E0,-9.6019423E-1,5.2921057E-1,-2.3196018E-1,6.413648E-1,-4.1978624E-2,-1.308117E-2,1.4860936E-1],"categories":[],"categories_nodes":[],"categories_segments":[],"categories_sizes":[],"default_left":[0,0,0,0,0,0,0,0,0,0,0,0,0,0,0,0,0,0,0,0,0,0,0,0,0,0,0,0,0,0,0,0,0,1,0,0,0,0,0,0,0,0,0,0,0,0,0,0,0,0,0,0,0,0,0,0,0,0,0,0,0,0,0,0,0,0,0,0,0,0,0,0,0,0,0,0,0,0,0,0,0,0,0],"id":17,"left_children":[1,3,5,7,9,11,13,15,17,19,21,23,25,-1,-1,27,29,31,33,35,37,39,41,43,-1,45,47,49,51,53,55,57,59,61,63,65,67,69,71,73,75,77,79,-1,-1,-1,-1,81,-1,-1,-1,-1,-1,-1,-1,-1,-1,-1,-1,-1,-1,-1,-1,-1,-1,-1,-1,-1,-1,-1,-1,-1,-1,-1,-1,-1,-1,-1,-1,-1,-1,-1,-1],"loss_changes":[8.39323E1,8.182773E1,6.2258514E1,1.8802684E2,3.450833E2,6.058809E1,2.738062E0,4.320916E2,2.8174634E2,1.9111885E2,2.89477E2,1.9966946E1,2.9225067E1,0E0,0E0,1.9137856E2,3.784264E2,4.0700192E2,2.5993698E2,1.537797E2,1.522909E2,2.1095355E2,1.766003E2,7.2651806E0,0E0,1.838913E0,1.4621075E1,2.912082E2,2.1984726E2,2.6701306E2,1.8878809E2,4.97797E2,2.4971843E2,2.4828442E2,4.615045E2,1.938355E2,3.1883307E2,1.82387E2,1.2989638E2,7.485076E1,3.1508606E1,1.5488855E2,2.1678496E2,0E0,0E0,0E0,0E0,2.5074023E-1,0E0,0E0,0E0,0E0,0E0,0E0,0E0,0E0,0E0,0E0,0E0,0E0,0E0,0E0,0E0,0E0,0E0,0E0,0E0,0E0,0E0,0E0,0E0,0E0,0E0,0E0,0E0,0E0,0E0,0E0,0E0,0E0,0E0,0E0,0E0],"parents":[2147483647,0,0,1,1,2,2,3,3,4,4,5,5,6,6,7,7,8,8,9,9,10,10,11,11,12,12,15,15,16,16,17,17,18,18,19,19,20,20,21,21,22,22,23,23,25,25,26,26,27,27,28,28,29,29,30,30,31,31,32,32,33,33,34,34,35,35,36,36,37,37,38,38,39,39,40,40,41,41,42,42,47,47],"right_children":[2,4,6,8,10,12,14,16,18,20,22,24,26,-1,-1,28,30,32,34,36,38,40,42,44,-1,46,48,50,52,54,56,58,60,62,64,66,68,70,72,74,76,78,80,-1,-1,-1,-1,82,-1,-1,-1,-1,-1,-1,-1,-1,-1,-1,-1,-1,-1,-1,-1,-1,-1,-1,-1,-1,-1,-1,-1,-1,-1,-1,-1,-1,-1,-1,-1,-1,-1,-1,-1],"split_conditions":[3.5707498E2,1.16449175E1,4.9E1,1.0981515E2,1.27678116E2,2.2E1,1.6E1,3.338667E0,1.3989235E2,2.2000003E0,1.3331294E2,2.2963936E1,1.5192682E1,-1.3459626E-1,-9.2033535E-1,2.23229E1,1.6676977E1,3.3092598E1,2.5417631E1,8.757235E1,3.0421598E1,3.2E1,1.672825E1,1.9E1,-6.2061596E-1,2.1E1,2.2702845E1,1.7000002E0,4.2E1,1.2287555E1,8E0,7.5116676E-1,1.2358349E2,4.1E1,2.7908709E1,1.3684735E1,5.4E1,1.6595179E1,3.792024E1,1.5839086E1,5.4E1,1.551527E2,1.7070333E1,6.4627683E-1,-1.6212216E-1,5.2228665E-1,1.9873549E0,2.9E1,9.822895E-1,4.2279974E-1,-8.5364634E-1,-3.4631547E-3,-8.2924074E-1,-7.709115E-1,9.678463E-1,1.3700591E0,-7.475484E-1,-3.019457E-1,1.1933677E0,-1.0197377E0,6.4480466E-1,-1.6040972E-1,2.933169E-1,5.2804536E-1,4.2505845E-2,7.5023293E-1,-3.16814E-1,1.11869715E-1,1.4109224E0,-4.4179917E-3,1.1855824E0,-8.048581E-1,9.3331885E-1,6.562729E-1,-9.2069983E-1,-2.6715708E0,-9.6019423E-1,5.2921057E-1,-2.3196018E-1,6.413648E-1,-4.1978624E-2,-1.308117E-2,1.4860936E-1],"split_indices":[6,3,2,6,6,0,0,3,6,4,6,5,5,0,0,5,5,5,5,6,5,0,3,0,0,1,5,4,1,5,1,3,6,1,5,5,0,5,5,3,0,6,3,0,0,0,0,1,0,0,0,0,0,0,0,0,0,0,0,0,0,0,0,0,0,0,0,0,0,0,0,0,0,0,0,0,0,0,0,0,0,0,0],"split_type":[0,0,0,0,0,0,0,0,0,0,0,0,0,0,0,0,0,0,0,0,0,0,0,0,0,0,0,0,0,0,0,0,0,0,0,0,0,0,0,0,0,0,0,0,0,0,0,0,0,0,0,0,0,0,0,0,0,0,0,0,0,0,0,0,0,0,0,0,0,0,0,0,0,0,0,0,0,0,0,0,0,0,0],"sum_hessian":[4.12E3,4.102E3,1.8E1,2.708E3,1.394E3,1.6E1,2E0,5.9E2,2.118E3,3.26E2,1.068E3,5E0,1.1E1,1E0,1E0,4.03E2,1.87E2,1.33E2,1.985E3,2.54E2,7.2E1,1.8E1,1.05E3,3E0,2E0,4E0,7E0,1.72E2,2.31E2,3.4E1,1.53E2,1E2,3.3E1,8.13E2,1.172E3,1.2E2,1.34E2,5.7E1,1.5E1,9E0,9E0,7.19E2,3.31E2,2E0,1E0,1E0,3E0,3E0,4E0,1.55E2,1.7E1,1.98E2,3.3E1,1.1E1,2.3E1,3E0,1.5E2,2.7E1,7.3E1,2.1E1,1.2E1,6.85E2,1.28E2,2.15E2,9.57E2,1.7E1,1.03E2,1.15E2,1.9E1,1.6E1,4.1E1,1E1,5E0,4E0,5E0,6E0,3E0,2.4E1,6.95E2,4.8E1,2.83E2,1E0,2E0],"tree_param":{"num_deleted":"0","num_feature":"8","num_nodes":"83","size_leaf_vector":"1"}},{"base_weights":[2.743529E-3,3.687355E-2,-5.042291E-1,-3.7480497E-1,1.041942E-1,-3.7341707E0,-3.191141E-1,-4.6800023E-1,1.5749209E0,4.7042426E-1,-9.589244E-3,-4.13912E0,2.2952586E-1,1.0919836E0,-7.290222E-1,-5.1712686E-1,3.199136E0,4.5398464E0,1.696807E-1,3.1869048E-1,7.7621775E0,-7.820516E-1,8.1733875E-2,-1.7327209E0,-1.9112017E0,5.10512E-2,7.3311963E0,-6.5691434E-3,-2.2082264E0,-4.8415148E-1,-1.788466E0,2.5665634E0,-8.87017E-1,6.2505684E0,-3.9487997E-1,2.8858998E0,-8.125176E-1,-6.454647E-1,6.6610795E-1,7.262532E-1,1.0894301E1,4.0592095E-1,-1.6507409E0,4.3614045E-2,1.4146305E0,5.3413165E-1,-1.1231837E0,-1.2243836E0,4.085674E0,8.619175E0,-2.5269842E-1,-2.0550623E0,4.0694845E-1,-3.7438016E0,-1.5505062E-1,-1.6104545E-1,5.251912E-1,2.142718E0,2.6871672E-1,-2.3379464E-1,5.6098655E-2,1.3217698E-1,1.016124E0,3.5772675E-1,-6.176594E-1,-5.823008E-2,-9.815863E-1,3.6262283E-1,-3.9228234E-2,6.686563E-1,-4.5578977E-1,-1.374584E0,3.8700366E0,1.5507464E0,2.8030297E-2,-5.8588463E-1,1.5053374E0,6.6505484E-2,-6.1743047E-2,5.9341997E-1,-8.1187516E-1,-6.244358E-1,6.7494196E-1,3.2801406E0,-2.115345E-1,2.8047738E0,6.358129E-1,-1.0450107E0,-2.3948492E-1,7.035248E-1,-1.1802026E-1,-1.5042721E0,-6.5843815E-1,1.46437E0,-5.2513707E-1],"categories":[],"categories_nodes":[],"categories_segments":[],"categories_sizes":[],"default_left":[0,0,0,0,0,0,0,0,0,0,0,0,0,0,0,0,0,0,0,0,0,0,0,0,0,0,0,0,0,0,0,0,0,0,0,0,0,0,0,0,0,0,0,0,0,0,0,0,0,0,0,0,0,0,0,0,0,0,0,0,0,0,0,0,0,0,0,0,0,0,0,0,0,0,0,0,0,0,0,0,0,0,0,0,0,0,0,0,0,0,0,0,0,0,0],"id":18,"left_children":[1,3,5,7,9,11,13,15,17,19,21,23,-1,25,27,29,31,33,35,37,39,41,43,-1,45,47,49,51,53,55,-1,-1,-1,57,59,61,63,65,67,69,71,73,75,77,79,-1,-1,81,83,85,-1,87,89,91,93,-1,-1,-1,-1,-1,-1,-1,-1,-1,-1,-1,-1,-1,-1,-1,-1,-1,-1,-1,-1,-1,-1,-1,-1,-1,-1,-1,-1,-1,-1,-1,-1,-1,-1,-1,-1,-1,-1,-1,-1],"loss_changes":[7.13242E1,1.0707232E2,1.5426517E2,9.9403E1,1.3835197E2,2.8674393E1,1.4366591E2,9.515428E1,1.0339049E2,8.682673E2,1.7882158E2,3.636261E1,0E0,3.6332327E2,2.0516739E2,8.921356E1,2.560941E2,7.000377E1,5.0366425E1,2.5902246E2,3.4468622E2,2.7724045E2,1.1512409E2,0E0,5.4026688E1,2.5715143E2,9.147879E1,1.1095774E2,1.9804626E2,6.108383E1,0E0,0E0,0E0,2.2255905E1,8.168092E-1,4.635391E0,3.7438953E1,2.4239322E2,2.457662E2,2.3631313E1,4.0057568E2,1.6919998E2,3.2216833E2,9.798111E1,1.5162985E2,0E0,0E0,1.1783243E2,4.014048E2,1.3402588E1,0E0,3.671073E1,1.7000165E2,5.9839874E1,2.3352211E2,0E0,0E0,0E0,0E0,0E0,0E0,0E0,0E0,0E0,0E0,0E0,0E0,0E0,0E0,0E0,0E0,0E0,0E0,0E0,0E0,0E0,0E0,0E0,0E0,0E0,0E0,0E0,0E0,0E0,0E0,0E0,0E0,0E0,0E0,0E0,0E0,0E0,0E0,0E0,0E0],"parents":[2147483647,0,0,1,1,2,2,3,3,4,4,5,5,6,6,7,7,8,8,9,9,10,10,11,11,13,13,14,14,15,15,16,16,17,17,18,18,19,19,20,20,21,21,22,22,24,24,25,25,26,26,27,27,28,28,29,29,33,33,34,34,35,35,36,36,37,37,38,38,39,39,40,40,41,41,42,42,43,43,44,44,47,47,48,48,49,49,51,51,52,52,53,53,54,54],"right_children":[2,4,6,8,10,12,14,16,18,20,22,24,-1,26,28,30,32,34,36,38,40,42,44,-1,46,48,50,52,54,56,-1,-1,-1,58,60,62,64,66,68,70,72,74,76,78,80,-1,-1,82,84,86,-1,88,90,92,94,-1,-1,-1,-1,-1,-1,-1,-1,-1,-1,-1,-1,-1,-1,-1,-1,-1,-1,-1,-1,-1,-1,-1,-1,-1,-1,-1,-1,-1,-1,-1,-1,-1,-1,-1,-1,-1,-1,-1,-1],"split_conditions":[4.276885E1,1.6E1,-2.727584E0,1.6161999E1,2.1E1,9.100001E0,1.7807502E0,4.2033756E1,1.5E1,4.6E1,1.9E1,1.0119799E2,2.2952586E-1,1.8E0,2.8E1,1.600575E1,5.4000006E0,2.7027295E2,1.7782688E1,2.0833395E1,1.680857E1,2.360472E1,3.4281674E2,-1.7327209E0,-4.021333E0,3.5E1,4.2E1,2.7745E0,4.8E0,5E1,-1.788466E0,2.5665634E0,-8.87017E-1,2.1E1,1.1E1,1.1E1,1.3E1,1.9881649E1,2.3975319E2,1.4619469E2,1.7E1,1.0805998E1,4.9E1,1.16449175E1,4.8E1,5.3413165E-1,-1.1231837E0,1.0745E0,2E1,3.9E1,-2.5269842E-1,4.7304054E1,4.66575E0,3.78075E0,7.1E0,-1.6104545E-1,5.251912E-1,2.142718E0,2.6871672E-1,-2.3379464E-1,5.6098655E-2,1.3217698E-1,1.016124E0,3.5772675E-1,-6.176594E-1,-5.823008E-2,-9.815863E-1,3.6262283E-1,-3.9228234E-2,6.686563E-1,-4.5578977E-1,-1.374584E0,3.8700366E0,1.5507464E0,2.8030297E-2,-5.8588463E-1,1.5053374E0,6.6505484E-2,-6.1743047E-2,5.9341997E-1,-8.1187516E-1,-6.244358E-1,6.7494196E-1,3.2801406E0,-2.115345E-1,2.8047738E0,6.358129E-1,-1.0450107E0,-2.3948492E-1,7.035248E-1,-1.1802026E-1,-1.5042721E0,-6.5843815E-1,1.46437E0,-5.2513707E-1],"split_indices":[5,0,3,3,1,4,3,5,2,2,2,6,0,7,0,3,4,6,5,5,5,5,6,0,3,0,0,3,7,1,0,0,0,1,0,0,0,5,6,6,0,5,0,3,0,0,0,3,2,1,0,5,3,3,4,0,0,0,0,0,0,0,0,0,0,0,0,0,0,0,0,0,0,0,0,0,0,0,0,0,0,0,0,0,0,0,0,0,0,0,0,0,0,0,0],